{"type":"NeuralNetwork","sizes":[150,50,40,20,7,1],"layers":[{"weights":[],"biases":[]},{"weights":[[-0.1041502133011818,0.2634773850440979,0.0654493048787117,-0.09049320220947266,0.11329701542854309,-0.0071550714783370495,0.2641521692276001,0.09165860712528229,0.10939808189868927,0.018866024911403656,0.279529869556427,-0.004940012004226446,0.011800163425505161,0.03628004342317581,-0.05621156468987465,0.1342749297618866,0.04587526619434357,-0.09778543561697006,-0.09556355327367783,0.05470484495162964,0.17462080717086792,-0.012268465012311935,-0.030673695728182793,0.2269180566072464,0.24375058710575104,0.13090597093105316,0.22635062038898468,0.057941123843193054,-0.27431821823120117,-0.20598825812339783,0.21618539094924927,0.054155368357896805,0.01092833373695612,0.25308242440223694,0.31335580348968506,0.09910205751657486,0.06874460726976395,-0.02368450164794922,0.009415442124009132,-0.07676713168621063,0.02975340746343136,0.08722468465566635,0.011124635115265846,0.09887444227933884,0.04765183478593826,-0.13796856999397278,0.08951759338378906,0.0685567557811737,-0.11566654592752457,0.14234720170497894,-0.08382818102836609,-0.016869915649294853,0.19156619906425476,-0.023796446621418,0.008770648390054703,0.06949629634618759,-0.20771600306034088,-0.07739873230457306,0.2759799659252167,0.2025497406721115,0.12068218737840652,0.08633244037628174,-0.05761811509728432,0.2380877137184143,-0.17952825129032135,-0.17236484587192535,-0.001318878261372447,-0.08937729150056839,0.180136576294899,0.124591164290905,-0.227317675948143,0.05924398452043533,0.18009839951992035,-0.054478179663419724,0.17264162003993988,0.1941911280155182,0.022068772464990616,0.07721873372793198,0.1633978933095932,-0.046705007553100586,0.08815274387598038,0.08444986492395401,-0.15119588375091553,0.015456547960639,-0.0013960057403892279,-0.03836745768785477,-0.03450567275285721,-0.1172678992152214,0.23591935634613037,0.04803146421909332,0.08396193385124207,0.014630244113504887,-0.20142602920532227,-0.041930023580789566,0.06564302742481232,0.12762309610843658,0.15203805267810822,0.11868806183338165,-0.08113034814596176,-0.0849372074007988,0.009968694299459457,-0.21346987783908844,0.04160631075501442,-0.16376551985740662,0.13556605577468872,-0.1569167822599411,-0.08858026564121246,0.041262876242399216,-0.06679054349660873,-0.25078171491622925,-0.019110070541501045,0.09873973578214645,0.006982247810810804,-0.036999110132455826,0.008327138610184193,0.03199794143438339,-0.14818304777145386,-0.018599724397063255,0.016178932040929794,0.10410702973604202,-0.1759452372789383,-0.22540152072906494,-0.11019834131002426,0.03696165233850479,-0.05748419091105461,-0.07313468307256699,0.06764408946037292,0.22730517387390137,0.08400094509124756,-0.06085179001092911,-0.03576994314789772,-0.11390229314565659,0.12632158398628235,-0.16370855271816254,0.04182541370391846,-0.32885822653770447,0.14052602648735046,0.27256542444229126,-0.06589099764823914,0.021890556439757347,0.21942035853862762,0.3214147090911865,0.2741226851940155,0.22975078225135803,-0.1319318413734436,0.2982344925403595,0.14842037856578827,-0.0076399510726332664,0.18473035097122192,0.08690925687551498],[-0.04271269217133522,0.06645821034908295,0.1771143674850464,-0.194440096616745,-0.03743845224380493,-0.031715765595436096,0.06880541145801544,-0.12431405484676361,-0.006164407357573509,0.18668070435523987,0.09969324618577957,0.10322636365890503,0.1860954612493515,-0.07474033534526825,0.07369552552700043,-0.14706404507160187,0.09328079968690872,0.011338088661432266,-0.07741569727659225,-0.11438339948654175,0.15129134058952332,-0.07162433117628098,-0.0160666573792696,-0.047730863094329834,-0.09805887937545776,-0.08060646057128906,-0.005462422966957092,-0.026052061468362808,0.00942609366029501,-0.04557423293590546,0.06432600319385529,0.19189195334911346,-0.07171593606472015,-0.18026438355445862,0.17599469423294067,-0.03267325833439827,0.12447875738143921,0.14680734276771545,-0.03408823162317276,0.2026911824941635,0.20361898839473724,-0.0031072916463017464,0.1600615531206131,-0.17618323862552643,-0.09469041973352432,-0.13825951516628265,0.1709406077861786,0.19674387574195862,-0.10698308795690536,0.09139488637447357,0.09669018536806107,0.05583930015563965,-0.23571448028087616,-0.1901726871728897,0.1306329369544983,-0.0032412013970315456,0.14024513959884644,-0.05861314758658409,-0.13375557959079742,-0.13170450925827026,0.0070058139972388744,-0.11174188554286957,0.12933413684368134,0.005741814151406288,0.261764794588089,0.24196842312812805,-0.0999877005815506,0.17271094024181366,0.18661540746688843,-0.1934639811515808,-0.02356710471212864,-0.002495767315849662,0.055464327335357666,0.22271239757537842,0.07889234274625778,-0.18432387709617615,-0.3388690650463104,0.05044352263212204,-0.12912827730178833,-0.08687698841094971,-0.20694413781166077,0.12006548047065735,0.022911235690116882,-0.016686050221323967,-0.1997530609369278,0.11343409866094589,0.051911547780036926,-0.005331671331077814,0.09093710035085678,0.0960068479180336,0.07560586929321289,0.03406531736254692,-0.0727417916059494,0.08895320445299149,0.01255031954497099,-0.017043018713593483,0.17358925938606262,-0.048545755445957184,-0.06770604103803635,-0.164459690451622,0.08149716258049011,0.12416723370552063,-0.020662084221839905,-0.3277726173400879,0.05485370382666588,0.14709952473640442,0.039521485567092896,0.0031297467648983,0.11089930683374405,-0.3189426064491272,0.03219789266586304,0.19118502736091614,-0.02399355173110962,-0.08180787414312363,0.05258699133992195,-0.10804660618305206,0.09210594743490219,-0.05508054420351982,-0.3221428096294403,0.09834811836481094,-0.09186644852161407,0.08754803240299225,0.09150544553995132,0.2915423810482025,-0.3896094560623169,-0.014867723919451237,0.19897247850894928,-0.2784370481967926,-0.15864354372024536,0.16077542304992676,0.09902221709489822,-0.19047671556472778,0.6770583987236023,-0.2608570158481598,-0.11985486000776291,0.15469813346862793,-0.03991014137864113,0.19947847723960876,0.4233807325363159,-0.06837005913257599,-0.04227151349186897,0.09459541738033295,-0.022274428978562355,-0.2223053127527237,-0.15618014335632324,-0.1228780597448349,-0.06964810192584991,0.1730934977531433,0.05983901396393776,0.10367035120725632],[-0.20090603828430176,0.08454523235559464,0.04526006057858467,-0.10600546002388,-0.07035033404827118,-0.1508149653673172,-0.18646562099456787,0.15815749764442444,-0.14675407111644745,-0.030348116531968117,0.1385761946439743,0.03634170442819595,0.12019159644842148,-0.04107071831822395,-0.07364851236343384,0.142104834318161,-0.1508181393146515,-0.08440469205379486,-0.06193111836910248,-0.042731333523988724,0.13025310635566711,0.030236471444368362,-0.057426486164331436,0.16327986121177673,0.11580143868923187,-0.08525531738996506,0.04854334518313408,0.09703642129898071,-0.10009480267763138,-0.008225919678807259,0.05415820702910423,-0.016013287007808685,-0.17405526340007782,0.014653352089226246,0.07668647170066833,0.05708199366927147,-0.16147802770137787,0.07568883895874023,0.20018526911735535,-0.17249822616577148,-0.1498718112707138,-0.09269610047340393,-0.0045126061886549,0.003944653086364269,-0.08069416880607605,-0.045858245342969894,0.08513150364160538,-0.08951931446790695,-0.03687457740306854,-0.014931119978427887,0.049768801778554916,-0.1084265261888504,-0.19949248433113098,-0.18397478759288788,-0.09333033859729767,-0.047665681689977646,0.19363628327846527,-0.058401476591825485,-0.11599221080541611,-0.1324096918106079,-0.22833864390850067,0.027678461745381355,-0.05827261134982109,-0.21371984481811523,0.17663660645484924,0.1670781373977661,-0.17604053020477295,0.18182039260864258,0.13340887427330017,0.06856369972229004,-0.10195856541395187,-0.1139606311917305,0.16849149763584137,-0.09563964605331421,0.11023957282304764,0.1136573925614357,-0.0016197076765820384,-0.043011121451854706,-0.0023985395673662424,0.08794022351503372,0.08728491514921188,0.06745441257953644,0.21055907011032104,-0.018612736836075783,-0.15389803051948547,0.15547339618206024,0.0032623193692415953,-0.06254319101572037,0.14634248614311218,0.1645512580871582,-0.13371804356575012,-0.1560123711824417,0.16509626805782318,-0.10641524940729141,0.06531056016683578,0.03146924078464508,0.07607857882976532,0.02195196971297264,0.023871779441833496,-0.19945019483566284,0.14428158104419708,-0.012020797468721867,0.05758741497993469,0.04417073726654053,-0.16435568034648895,-0.1987442970275879,0.06556128710508347,-0.13694362342357635,0.11460304260253906,-0.22431524097919464,0.06589968502521515,0.11084208637475967,0.17549774050712585,0.2165481150150299,-0.01734836772084236,-0.1456160992383957,0.05060582235455513,-0.1757168173789978,0.14775300025939941,0.16164422035217285,-0.01490047574043274,-0.11544135212898254,0.20075367391109467,0.1912880688905716,-0.16467221081256866,0.18360812962055206,0.1692979335784912,-0.24209827184677124,0.06370320916175842,-0.11599455028772354,-0.024219337850809097,-0.08669473975896835,0.34314706921577454,-0.017947165295481682,-0.03608725592494011,-0.16891902685165405,0.2217777818441391,0.11849956959486008,0.04342220351099968,-0.1276499330997467,0.05791632458567619,0.08202745020389557,0.06104779243469238,-0.13553370535373688,0.0870269313454628,0.06273733079433441,-0.068039171397686,-0.03251928463578224,0.015512436628341675,-0.08393071591854095],[0.10193417221307755,0.1800389289855957,0.20701442658901215,0.09585923701524734,0.11472783982753754,0.18567542731761932,0.015981076285243034,-0.014598526991903782,-0.013673118315637112,0.17371703684329987,-0.10681132972240448,-0.02278275229036808,-0.06124686449766159,-0.024391721934080124,0.0539221353828907,0.14142881333827972,0.04779064282774925,-0.07602446526288986,0.03451228514313698,0.15553946793079376,-0.20267806947231293,0.24119077622890472,-0.0834328681230545,-0.15067602694034576,0.09354520589113235,-0.024614844471216202,-0.10295810550451279,0.10952353477478027,-0.14363864064216614,-0.20088820159435272,-0.01968015544116497,0.09083033353090286,-0.048923514783382416,0.12023758143186569,0.20841659605503082,0.13548758625984192,0.19014151394367218,0.1563124656677246,-0.15190500020980835,-0.08426961302757263,-0.011314589530229568,0.08339887857437134,0.07656402885913849,-0.0076190633699297905,-0.14615869522094727,0.14550986886024475,-0.06058994308114052,-0.01662200130522251,-0.10968746244907379,0.1220289096236229,-0.07695457339286804,-0.030380109325051308,0.10028649121522903,0.1111949235200882,0.14137114584445953,-0.10421355813741684,-0.2263658493757248,-0.21643806993961334,-0.06655234843492508,0.24602115154266357,-0.008212109096348286,-0.12547974288463593,0.11304614692926407,-0.1449984610080719,-0.04452076926827431,-0.25614798069000244,-0.025968631729483604,0.13833467662334442,-0.06441014260053635,-0.12484612315893173,-0.3039521872997284,0.07425397634506226,0.03428226709365845,-0.005793979857116938,-0.042560238391160965,-0.1539669781923294,-0.12704648077487946,-0.004689550027251244,-0.09610780328512192,-0.12333490699529648,0.03934779018163681,0.17834648489952087,-0.1005418449640274,-0.08130837231874466,0.2227402925491333,-0.02833150513470173,0.17832477390766144,0.07891552895307541,-0.1342378705739975,0.16232915222644806,-0.08181362599134445,-0.19382064044475555,-0.05859287828207016,0.05263770371675491,-0.12717688083648682,-0.18191346526145935,0.1642850935459137,0.16825374960899353,-0.10480193048715591,0.07429640740156174,0.14405035972595215,0.07407283782958984,0.08211208134889603,0.060478538274765015,-0.007388967555016279,0.05845991522073746,-0.025549083948135376,0.16719777882099152,0.04009338095784187,0.04579748585820198,-0.024019503965973854,-0.19523873925209045,0.0018653807928785682,-0.07464814186096191,-0.04048824682831764,0.0855564996600151,0.13268427550792694,-0.05415492132306099,0.048954933881759644,0.03383699432015419,0.038208361715078354,0.016514340415596962,-0.05926995724439621,-0.2894158661365509,0.15355035662651062,-0.11943347007036209,-0.07382797449827194,-0.08671103417873383,0.20631584525108337,-0.26639148592948914,-0.11668393015861511,0.07770118862390518,0.2361336350440979,-0.10031995177268982,0.020160282030701637,-0.20805642008781433,0.17475248873233795,-0.1165408045053482,-0.3280216157436371,0.22252561151981354,0.17316974699497223,0.023493265733122826,0.2347957044839859,0.05816322937607765,0.04846543073654175,0.2836684286594391,-0.16099388897418976,-0.06251627206802368,0.1515064835548401,0.09216335415840149],[0.06623212993144989,-0.24455606937408447,-0.22116386890411377,0.05692840367555618,-0.2807982861995697,-0.0673404186964035,-0.07654664665460587,-0.1560882329940796,-0.26194214820861816,-0.08962225914001465,0.027101505547761917,-0.143949493765831,0.031719546765089035,-0.09372924268245697,-0.07693659514188766,0.09532976150512695,-0.14831236004829407,0.05305643379688263,-0.13567809760570526,0.08720050007104874,-0.18206001818180084,-0.15347424149513245,-0.06606002151966095,0.2009812742471695,-0.12320449948310852,0.16522322595119476,-0.10440145432949066,0.09814705699682236,0.4055282175540924,0.16679050028324127,0.08552906662225723,0.04069375991821289,0.18383905291557312,0.04853064566850662,-0.38902395963668823,-0.26633208990097046,-0.16031302511692047,-0.20750802755355835,-0.12250549346208572,-0.1492794007062912,-0.19550804793834686,-0.021314477548003197,-0.06981400400400162,-0.04223029688000679,0.051348429173231125,0.15910719335079193,-0.21400342881679535,0.13092346489429474,0.1336134672164917,0.1449902057647705,0.08116266131401062,-0.1576269268989563,0.32343021035194397,0.18570436537265778,-0.1131177544593811,0.33873555064201355,-0.0700947567820549,-0.08060620725154877,0.12172175943851471,-0.09966704994440079,-0.13201962411403656,0.0604885034263134,0.079160176217556,0.11097060143947601,-0.1638922393321991,0.24755597114562988,-0.1769670844078064,-0.034017909318208694,-0.0597233772277832,-0.06468488276004791,0.016067486256361008,0.24324341118335724,-0.008522558957338333,0.15756602585315704,0.023251648992300034,0.16361956298351288,0.28348416090011597,-0.10016480088233948,0.022853108122944832,0.18933002650737762,-0.03929072618484497,0.0645800530910492,0.24260224401950836,-0.08790168911218643,0.2423546314239502,0.03119940124452114,0.1154765710234642,0.14422450959682465,0.14623768627643585,0.009055874310433865,0.3771035969257355,0.1497439593076706,-0.06009425222873688,0.16502168774604797,0.15423688292503357,0.1205885261297226,0.08768182247877121,0.2377040684223175,0.03707720339298248,0.1622510552406311,-0.016673995181918144,0.08774122595787048,0.1186189278960228,0.12221642583608627,0.07787945121526718,-0.038836557418107986,-0.22216537594795227,0.08012745529413223,0.24427245557308197,0.20204928517341614,-0.03385601565241814,0.06127545237541199,-0.01134207472205162,-0.19103051722049713,-0.1600901037454605,0.047907959669828415,0.22946922481060028,-0.16087475419044495,-0.118572898209095,-0.17015458643436432,-0.04217163845896721,0.019288063049316406,0.13334761559963226,0.14782950282096863,0.004884450230747461,0.04131198301911354,0.24767370522022247,0.01169829722493887,0.19962488114833832,0.039124008268117905,0.020856216549873352,0.026523061096668243,-0.4938334822654724,0.12578830122947693,0.06952062249183655,0.6194003224372864,-0.02752046287059784,-0.2812840938568115,0.2861582636833191,-0.18047784268856049,-0.18928560614585876,-0.24349088966846466,-0.13360154628753662,0.11638349294662476,-0.055292438715696335,-0.3551706373691559,-0.20435968041419983,0.028572114184498787,0.12570904195308685,0.16956493258476257],[0.2715936601161957,0.20612969994544983,0.19926029443740845,0.05229329317808151,0.029331941157579422,-0.12194991111755371,-0.013881783001124859,-0.1929924190044403,0.03824396803975105,0.0010212927591055632,-0.08946927636861801,0.0768902450799942,-0.1358039528131485,-0.12928679585456848,-0.16559970378875732,-0.12847399711608887,0.1201816201210022,-0.1956416368484497,0.20317566394805908,0.03409029170870781,-0.13537564873695374,0.046518683433532715,0.21712741255760193,-0.05245009809732437,-0.06128121539950371,-0.08982545882463455,0.11744845658540726,-0.1662653684616089,0.0024710060097277164,-0.036965418606996536,0.17090801894664764,-0.18095390498638153,-0.18130436539649963,0.19864842295646667,-0.09103760123252869,0.06510203331708908,0.16388759016990662,0.05879978835582733,0.06708443909883499,-0.0351058691740036,0.07043754309415817,-0.15518410503864288,0.13453587889671326,0.11380493640899658,-0.059258364140987396,0.19210125505924225,0.016712874174118042,0.05775032937526703,0.06073818728327751,-0.20258255302906036,0.010983370244503021,0.12928873300552368,0.03262734413146973,-0.12648960947990417,0.12243799865245819,-0.12817546725273132,0.061637867242097855,-0.1617938131093979,0.13474343717098236,0.005471479147672653,-0.003798187943175435,0.16201329231262207,-0.05943144112825394,0.2103242576122284,-0.14685145020484924,0.11864673346281052,0.18153293430805206,-0.19995661079883575,-0.012728843837976456,-0.09700676053762436,-0.09681041538715363,0.0018926927587017417,0.15614938735961914,0.017748523503541946,-0.025141580030322075,0.05416052043437958,0.19949035346508026,0.12258332222700119,0.10999125242233276,0.22533102333545685,-0.12128394842147827,0.20493574440479279,-0.06333450227975845,0.09001141041517258,0.12805156409740448,0.2147977501153946,-0.0910378247499466,0.18692649900913239,0.015599727630615234,0.05556868761777878,-0.017301443964242935,-0.32305198907852173,-0.19349835813045502,0.09830383956432343,-0.02350628189742565,-0.1760207712650299,-0.11767127364873886,-0.11436817795038223,-0.21590451896190643,-0.1346583217382431,0.06272009015083313,0.03663654625415802,-0.1092115044593811,0.3126673400402069,0.04731285572052002,-0.1070328950881958,-0.11431214213371277,0.01654716022312641,-0.19863034784793854,0.2320772409439087,0.09173823148012161,-0.04224714636802673,0.07285176217556,0.049366287887096405,-0.001097327214665711,0.1046217679977417,-0.08850180357694626,-0.027344785630702972,-0.03857829049229622,0.1523038148880005,0.06898824125528336,-0.20605851709842682,-0.06523032486438751,0.10496557503938675,0.09898752719163895,-0.05335927754640579,-0.21437224745750427,0.07818108052015305,-0.049863506108522415,-0.41698411107063293,-0.18724294006824493,0.16848509013652802,-0.27491629123687744,-0.06567131727933884,-0.06798628717660904,0.2304082214832306,-0.06684837490320206,-0.14360830187797546,-0.21487325429916382,-0.08788318186998367,-0.12079624831676483,0.00574343279004097,-0.10533293336629868,0.13196830451488495,0.03289172425866127,-0.14694231748580933,0.02372962050139904,-0.034498926252126694,-0.1029304787516594,0.027072841301560402],[0.06814422458410263,0.05673716217279434,-0.11339098960161209,0.03487511724233627,-0.11096999794244766,-0.21463339030742645,0.157675102353096,-0.12247671186923981,-0.13153627514839172,-0.17895494401454926,-0.12439374625682831,-0.228388249874115,0.15221118927001953,-0.011300025507807732,-0.15795128047466278,-0.004688919521868229,-0.06844647973775864,0.15690992772579193,-0.035925932228565216,-0.11875292658805847,0.03737514838576317,0.15201249718666077,0.01458020694553852,0.06268398463726044,0.1593102514743805,-0.15900534391403198,-0.18687501549720764,-0.01392476074397564,-0.07731205970048904,0.1389525681734085,-0.07160632312297821,-0.10013870894908905,-0.0784883201122284,0.13915769755840302,-0.04886630177497864,-0.010781265795230865,-0.17936015129089355,0.017483482137322426,-0.013237076811492443,0.1362394094467163,0.001028043800033629,0.14179156720638275,-0.15879279375076294,0.09580784291028976,0.20208175480365753,0.06477364897727966,-0.060568392276763916,0.0013178238878026605,-0.05835404619574547,-0.030666686594486237,-0.14977575838565826,0.05554594472050667,0.15083257853984833,0.041554488241672516,-0.14148417115211487,0.1489814668893814,0.1091538593173027,0.055749163031578064,-0.2582279443740845,-0.23419725894927979,-0.13765832781791687,0.014128184877336025,-0.020895032212138176,0.16446955502033234,0.16883529722690582,0.23576629161834717,0.010827549733221531,0.0580894909799099,0.1141500174999237,-0.08635865896940231,0.22876515984535217,0.01413350272923708,-0.07742014527320862,-0.013652696274220943,-0.1223212257027626,-0.03745206817984581,0.15378829836845398,-0.07491154223680496,-0.10237138718366623,0.1924426108598709,0.1897929608821869,0.09358292073011398,0.13708418607711792,0.1841248720884323,0.0745447650551796,0.142693430185318,0.1688893586397171,-0.15167096257209778,-0.027873679995536804,-0.05073758587241173,0.23641304671764374,-0.026943687349557877,-0.21855896711349487,0.14170363545417786,-0.07945062220096588,-0.008326017297804356,0.005071883089840412,0.14608143270015717,0.1315065175294876,-0.0878545418381691,0.05538875237107277,-0.18092754483222961,-0.13650068640708923,-0.05677521228790283,0.023738622665405273,0.02373661659657955,0.12881112098693848,0.08604751527309418,-0.016833018511533737,0.24551555514335632,-0.020886719226837158,-0.07434092462062836,0.16895349323749542,-0.07973401993513107,0.15724948048591614,0.083332858979702,0.14386045932769775,0.155736044049263,0.06639966368675232,-0.05868847668170929,0.30107834935188293,-0.10452479869127274,0.08321221172809601,0.3107486069202423,0.11273854970932007,0.04462923854589462,0.3073703348636627,-0.1424255669116974,0.07540428638458252,0.19484256207942963,0.1982293576002121,-0.15608452260494232,0.12038678675889969,-0.14995788037776947,-0.13260523974895477,0.05276850610971451,0.16072183847427368,0.10905227810144424,0.02440772019326687,-0.03508642688393593,-0.10396958142518997,-0.10614247620105743,0.048497702926397324,0.009532513096928596,0.043947938829660416,-0.1639380306005478,-0.032792992889881134,-0.03476598486304283,-0.20150581002235413,0.014511972665786743],[0.13145588338375092,0.15285365283489227,0.04469886049628258,-0.03265383094549179,-0.009402752853929996,0.1621125191450119,-0.11206984519958496,0.07277479767799377,0.08852117508649826,0.10517097264528275,-0.12714916467666626,0.01779489405453205,0.0866779088973999,0.14738361537456512,0.05405965819954872,0.15933188796043396,-0.078099824488163,0.017100447788834572,-0.03444294258952141,0.0002979093696922064,-0.18083958327770233,-0.04741363972425461,-0.04071369022130966,0.07545394450426102,-0.025918692350387573,0.09646192938089371,-0.03559693694114685,-0.030709637328982353,0.0007125625852495432,-0.040330179035663605,-0.043647486716508865,0.15822435915470123,-0.014614197425544262,-0.009624885395169258,0.1333381086587906,0.1671222299337387,-0.17421464622020721,-0.0331256166100502,0.16790209710597992,-0.1483633816242218,-0.16878922283649445,0.03943654149770737,-0.013646661303937435,-0.08913871645927429,0.12514963746070862,0.005725030787289143,0.06854723393917084,-0.14161039888858795,0.02751910500228405,-0.11751410365104675,0.14381280541419983,-0.09350132942199707,0.2457737773656845,-0.023787707090377808,-0.033331625163555145,0.10889990627765656,-0.0005753348814323545,0.09550391882658005,0.09833327680826187,-0.015121080912649632,-0.10609058290719986,-0.13601122796535492,-0.09576872736215591,-0.17207086086273193,-0.15578748285770416,-0.13732415437698364,0.18567077815532684,-0.009583926759660244,0.1348537802696228,0.10471939295530319,-0.15550804138183594,-0.011296618729829788,-0.17607055604457855,-0.15896515548229218,0.10632647573947906,-0.000946277694310993,-0.026518940925598145,0.17048579454421997,0.16039890050888062,-0.13701702654361725,-0.20256808400154114,0.11010056734085083,0.08415805548429489,-0.0832366868853569,-0.05047537386417389,-0.13584282994270325,0.1409968137741089,0.15798647701740265,-0.0419461689889431,0.011217061430215836,-0.0755678117275238,-0.03117203898727894,-0.15558619797229767,-0.06323251873254776,0.15879279375076294,0.023753562942147255,0.1441873461008072,0.18320174515247345,0.1356622278690338,-0.13549533486366272,-0.18029196560382843,-0.06102822721004486,-0.2013525664806366,0.043758802115917206,-0.03869243338704109,-0.1716172844171524,0.01374535821378231,-0.13919930160045624,-0.015654953196644783,0.17322687804698944,-0.163617342710495,0.012814016081392765,0.042246490716934204,-0.05322149768471718,-0.16940024495124817,-0.18343989551067352,0.018548816442489624,-0.0022985083051025867,0.10559625923633575,-0.005459078587591648,0.044732481241226196,-0.1363966166973114,-0.10871562361717224,-0.03890242055058479,0.00665307929739356,-0.1085352674126625,0.10916006565093994,-0.06990719586610794,-0.072761170566082,-0.19631041586399078,0.10370843857526779,0.16228915750980377,-0.29854193329811096,0.13477584719657898,-0.0024758640211075544,0.07415769249200821,-0.10372543334960938,-0.010676078498363495,-0.2720227837562561,0.067075714468956,-0.13300123810768127,-0.049966681748628616,0.04973859339952469,0.15631282329559326,0.11455047875642776,0.19126732647418976,0.13287566602230072,-0.08486589044332504,-0.12905842065811157,0.004673912189900875],[-0.013671893626451492,0.025943459942936897,0.165695920586586,0.17214374244213104,-0.1471504122018814,-0.1786395162343979,0.06348325312137604,-0.09519870579242706,0.06722290068864822,-0.10375452786684036,-0.1618790328502655,0.05428192391991615,-0.1756276935338974,-0.06576655060052872,-0.1471719592809677,-0.1050199344754219,-0.19103026390075684,-0.02630471996963024,0.016791146248579025,0.15741190314292908,-0.10039810091257095,0.015539105981588364,0.019282592460513115,-0.06429718434810638,-0.14856506884098053,-0.10575534403324127,0.09083175659179688,-0.05449694022536278,-0.2256108522415161,0.05050281435251236,0.04710502550005913,0.059730954468250275,-0.07813598215579987,0.1254049837589264,-0.14906887710094452,0.16820436716079712,-0.1188960075378418,0.022114461287856102,-0.12814995646476746,-0.07485353201627731,-0.07889293134212494,0.1302858591079712,0.1687437891960144,-0.200769305229187,0.11624046415090561,-0.10951431840658188,-0.07259463518857956,-0.1677270531654358,0.1673106849193573,0.10463260859251022,-0.15955929458141327,-0.19882214069366455,0.0644221305847168,0.155656099319458,-0.10937099158763885,0.03180285543203354,0.03991532325744629,0.11726304888725281,0.012806464917957783,-0.12768283486366272,0.22145453095436096,-0.21493010222911835,-0.13652054965496063,0.06618986278772354,-0.0009306096471846104,-0.26901838183403015,0.09742183983325958,0.060826320201158524,0.13074736297130585,0.12449947744607925,0.036287788301706314,0.01052608247846365,0.08152958750724792,0.19651681184768677,-0.08249208331108093,0.26581570506095886,-0.18133191764354706,0.13865801692008972,0.20044681429862976,-0.03788641840219498,0.09221872687339783,0.04029448702931404,0.030997784808278084,0.04704684019088745,0.27623578906059265,0.07103054225444794,-0.13848210871219635,-0.10119497776031494,-0.19573701918125153,-0.12799683213233948,0.07936590909957886,0.11347682774066925,-0.16923893988132477,0.14115118980407715,-0.03731239214539528,-0.20820418000221252,0.014764324761927128,-0.09563956409692764,0.15151581168174744,0.0029838343616575003,0.0195404514670372,0.12064053118228912,0.0930553451180458,-0.021052423864603043,-0.09328025579452515,0.0247625894844532,-0.11542927473783493,-0.006197548937052488,-0.05731871724128723,0.03421276435256004,0.00015395620721392334,0.12187686562538147,-0.18699629604816437,0.014349576085805893,0.19675472378730774,-0.23275324702262878,-0.21978427469730377,-0.09809260815382004,-0.14202623069286346,-0.11242000758647919,0.10886404663324356,-0.23098807036876678,0.08802249282598495,-0.11023978143930435,0.1835641711950302,-0.019284844398498535,-0.13352909684181213,-0.043888289481401443,-0.06380607932806015,-0.01324752252548933,0.19248729944229126,-0.15101316571235657,-0.2650432288646698,-0.0002472280175425112,-0.1966385394334793,-0.28242260217666626,-0.14492979645729065,-0.05016181617975235,-0.20674632489681244,0.09585922211408615,-0.000141042226459831,-0.29376959800720215,0.09390842914581299,-0.12997543811798096,-0.15265284478664398,0.17953693866729736,0.15880697965621948,-0.19106805324554443,0.06268271803855896,-0.13627099990844727],[-0.1416192352771759,-0.12760029733181,-0.22938448190689087,-0.1058642640709877,-0.2510662376880646,-0.10544326156377792,-0.19460760056972504,-0.08252281695604324,-0.15763726830482483,0.14626580476760864,-0.22481846809387207,-0.20584572851657867,-0.08185116946697235,-0.3935759961605072,-0.12393941730260849,-0.15219096839427948,0.15568290650844574,0.04863196238875389,-0.043326377868652344,0.13743150234222412,0.029331963509321213,-0.12729546427726746,-0.07259427756071091,0.14094968140125275,0.14057569205760956,-0.25191256403923035,-0.004799678921699524,-0.0954887643456459,0.09366626292467117,0.1122642233967781,-0.20419535040855408,-0.1313547044992447,0.12801329791545868,-0.03357379883527756,-0.30765944719314575,-0.35393962264060974,-0.1640058159828186,-0.05530199408531189,-0.017665911465883255,-0.014872374013066292,-0.1342945396900177,0.03140759840607643,-0.19424892961978912,-0.1699049323797226,0.17328545451164246,-0.15993916988372803,-0.22673450410366058,-0.17579253017902374,-0.04150022193789482,-0.185349240899086,-0.048409976065158844,-0.103035107254982,-0.020608965307474136,0.17528162896633148,0.19494964182376862,0.35578930377960205,-0.015367379412055016,0.1839887499809265,-0.17413106560707092,-0.11850975453853607,0.014145981520414352,0.389917254447937,-0.05957930162549019,-0.28619182109832764,0.04174302890896797,0.23521529138088226,-0.16630905866622925,-0.09701653569936752,0.0814443826675415,-0.000532908015884459,0.07066016644239426,0.20484483242034912,0.03521934151649475,0.07256083935499191,0.04379042983055115,-0.029151415452361107,0.16310547292232513,0.01309359073638916,-0.03485462814569473,0.5057436227798462,-0.03721790760755539,-0.07703430950641632,0.2026953250169754,0.17707884311676025,0.1302919089794159,-0.3140372335910797,-0.037238337099552155,0.09715037792921066,0.14004607498645782,-0.24174976348876953,0.002339449245482683,0.03299952298402786,0.0036403050180524588,-0.21443523466587067,0.015973709523677826,-0.05162298306822777,0.11139870434999466,0.027754351496696472,0.1665946990251541,-0.08322121948003769,-0.047679465264081955,0.2548104226589203,-0.17616142332553864,-0.024730302393436432,0.06338020414113998,0.22762711346149445,-0.18656742572784424,-0.11023347079753876,0.09302221238613129,0.15150496363639832,-0.007424193900078535,-0.11280815303325653,0.3430582880973816,0.17231592535972595,-0.03133473917841911,-0.09335919469594955,-0.010732180438935757,0.30307862162590027,0.05035105347633362,-0.22784671187400818,0.259643018245697,-0.11505388468503952,0.04336607828736305,0.4759328067302704,0.17492535710334778,-0.06627766788005829,0.020083775743842125,-0.18664933741092682,0.060227300971746445,0.33018991351127625,-0.0977575033903122,-0.02333536557853222,-0.07878383994102478,-0.1942148655653,-0.15753518044948578,0.11057103425264359,0.09355796128511429,-0.022785084322094917,0.46570730209350586,-0.2425195574760437,0.018303055316209793,-0.3489117920398712,-0.3055097758769989,-0.26423564553260803,-0.13620354235172272,-0.1303434520959854,-0.23922652006149292,0.1798793226480484,-0.14071770012378693,0.009190716780722141],[0.2425699681043625,-0.07984117418527603,-0.008883717469871044,0.20437908172607422,-0.17368710041046143,-0.0031688876915723085,-0.09200209379196167,-0.11350519955158234,0.01915619894862175,-0.09489187598228455,-0.04016852006316185,-0.18045052886009216,-0.2746093273162842,0.07551257312297821,0.08752590417861938,-0.19873926043510437,0.08571271598339081,-0.2094743251800537,0.0662420317530632,0.12175266444683075,0.06215167045593262,0.13463418185710907,0.009953335858881474,-0.1860726773738861,0.009156463667750359,-0.09826486557722092,0.11424829065799713,0.1302153766155243,0.10598190873861313,0.010279896669089794,0.04077424854040146,0.019730715081095695,-0.10014849156141281,0.05638537555932999,-0.19606779515743256,-0.22048962116241455,-0.15393933653831482,-0.04995899274945259,0.10517415404319763,0.0775437206029892,0.0660441592335701,0.11081387847661972,-0.026376208290457726,0.0850856676697731,-0.05165455490350723,-0.10784395039081573,0.09034251421689987,-0.11189377307891846,0.03776485100388527,0.00593265425413847,0.10897355526685715,0.008277247659862041,0.3629012107849121,0.08528318256139755,-0.04048728942871094,0.22156018018722534,-0.11247730255126953,-0.02452722378075123,-0.17182953655719757,0.05355370417237282,0.032356999814510345,0.11725040525197983,0.037047747522592545,0.17790742218494415,0.012369716539978981,0.12868228554725647,0.14504793286323547,-0.0062646386213600636,0.023105284199118614,-0.07930981367826462,0.10254102200269699,-0.000927597691770643,0.06332805007696152,0.06295766681432724,0.08924740552902222,0.254275918006897,0.4232965409755707,-0.021574271842837334,-0.0876542180776596,0.13560853898525238,0.05667136609554291,0.014286169782280922,0.21707391738891602,0.031714268028736115,0.13771162927150726,-0.10753387212753296,-0.23583263158798218,-0.12598437070846558,0.0005154790706001222,-0.030561253428459167,0.3045383393764496,-0.2689018249511719,-0.1438814252614975,0.2627338767051697,-0.21049059927463531,-0.02677997574210167,-0.04869202524423599,-0.23102381825447083,-0.01275759655982256,-0.09533289819955826,0.030663389712572098,0.06077175959944725,-0.20678412914276123,0.02229524776339531,-0.06124723702669144,-0.1161559596657753,-0.10759450495243073,0.10483250766992569,-0.05719270557165146,0.28241634368896484,0.16594694554805756,-0.05204571783542633,0.13466018438339233,-0.02836897037923336,-0.209866002202034,0.03291220963001251,0.11460932344198227,-0.13227935135364532,0.18894417583942413,-0.10956783592700958,-0.1381436586380005,-0.06570570170879364,-0.21318191289901733,-0.07185913622379303,0.14208337664604187,0.14903190732002258,-0.050084155052900314,0.3826659321784973,-0.06446360051631927,-0.42511507868766785,0.11693352460861206,0.1442987322807312,-0.8526893258094788,0.14864586293697357,0.11665626615285873,-0.16345439851284027,-0.19863756000995636,-0.19684134423732758,-0.07787051796913147,0.021801626309752464,-0.11903449147939682,0.08623121678829193,-0.0926598533987999,-0.12863245606422424,-0.23911845684051514,0.10438942164182663,-0.21175616979599,-0.24295097589492798,-0.12055874615907669,-0.11727209389209747],[-0.18378695845603943,-0.09825113415718079,0.176609069108963,0.16353961825370789,0.14672978222370148,-0.033422693610191345,0.17645347118377686,0.2014966458082199,-0.024169353768229485,0.10081666707992554,0.09319833666086197,-0.014931593090295792,0.011770682409405708,-0.04350665584206581,0.1046711727976799,-0.11752983182668686,0.0070876325480639935,-0.13438361883163452,0.002877208637073636,-0.2381305992603302,0.08122666925191879,-0.14623640477657318,-0.13159175217151642,-0.078415647149086,-0.2008291631937027,-0.008651096373796463,0.1625138521194458,-0.1059061661362648,0.053121376782655716,-0.025294562801718712,-0.17619599401950836,-0.12611880898475647,-0.15197215974330902,0.14456184208393097,0.1134951189160347,0.19065573811531067,-0.13937604427337646,0.15311568975448608,-0.1904463917016983,-0.11475907266139984,-0.16836906969547272,-0.07476692646741867,-0.014031573198735714,-0.06899809837341309,-0.09215768426656723,0.1417836844921112,-0.10389930009841919,0.030356120318174362,0.08199089020490646,-0.1548566073179245,0.020888889208436012,0.0455896258354187,0.10781915485858917,0.16435874998569489,0.04371311143040657,0.08425164222717285,-0.0463394820690155,0.09158182144165039,0.0017655909759923816,-0.04771123081445694,-0.1597663164138794,0.0637732446193695,-0.0720391497015953,-0.11080669611692429,-0.2623416483402252,-0.2169097363948822,-0.08370935916900635,0.03679053485393524,-0.05074796825647354,0.013628881424665451,0.03397203981876373,-0.1412368267774582,0.09954190254211426,-0.10812196880578995,0.10835570842027664,0.14576835930347443,-0.20605626702308655,0.10982529819011688,0.0022936665918678045,-0.18199726939201355,-0.09638193249702454,-0.034114059060811996,0.07283810526132584,0.019959725439548492,-0.09926378726959229,-0.030272018164396286,-0.00809287466108799,-0.17293088138103485,0.18932726979255676,-0.0341322161257267,-0.21333470940589905,0.002666340908035636,0.10393870621919632,-0.05084291100502014,0.08094058930873871,-0.06240268796682358,0.016433045268058777,0.030897552147507668,-0.22895406186580658,-0.10242412239313126,-0.05584278330206871,-0.214754119515419,0.04259882867336273,-0.03946191817522049,0.11469017714262009,-0.0471465103328228,-0.08451776951551437,-0.025501495227217674,-0.0008327375398948789,-0.13086724281311035,0.12014517933130264,-0.16174288094043732,-0.20542362332344055,0.15083461999893188,0.0025727939791977406,0.12823517620563507,-0.002713416703045368,0.11401110142469406,0.14445669949054718,0.08535799384117126,0.15189044177532196,0.014396932907402515,-0.18461626768112183,-0.07551117241382599,-0.005887575913220644,-0.06571898609399796,-0.038730792701244354,0.18425188958644867,-0.007986584678292274,-0.1350117027759552,-0.0830511823296547,0.1332269310951233,-0.24380263686180115,0.10247314721345901,0.06725933402776718,0.02679360844194889,-0.010383941233158112,-0.14709176123142242,-0.07356422394514084,-0.13774584233760834,0.12168838083744049,0.3089357018470764,0.10636743158102036,0.19785352051258087,-0.05008871108293533,0.06493434309959412,0.19478628039360046,-0.0913529172539711,0.17932099103927612,0.19117794930934906],[-0.15186554193496704,0.13192906975746155,-0.18290820717811584,0.045740481466054916,0.14421787858009338,-0.08452203869819641,0.05190439522266388,0.05904296413064003,0.025809817016124725,0.09839251637458801,0.15959206223487854,-0.008747264742851257,-0.037807952612638474,0.03680606186389923,-0.06248944625258446,0.18627433478832245,-0.06890775263309479,-0.1544003188610077,-0.10208901762962341,0.026988524943590164,-0.052507780492305756,0.15850788354873657,-0.10260079056024551,-0.15032589435577393,-0.184592604637146,-0.05227978155016899,0.20792655646800995,-0.03206682950258255,0.02298595942556858,0.11834121495485306,0.016617240384221077,-0.18466311693191528,-0.14576596021652222,0.1567816436290741,0.005526135675609112,0.10976270586252213,0.13241155445575714,0.17257525026798248,-0.034632131457328796,-0.06466186791658401,-0.18257422745227814,-0.12824152410030365,0.00023473544570151716,-0.15829485654830933,0.14265865087509155,0.08278484642505646,0.0036733318120241165,-0.025623852387070656,-0.18875856697559357,0.1382622867822647,-0.14375628530979156,-0.13192395865917206,-0.1563064157962799,0.04827064275741577,-0.07348532974720001,0.021517975255846977,-0.1293812245130539,0.1761506050825119,0.005333953537046909,-0.01641353778541088,0.13684554398059845,-0.14889788627624512,0.13783416152000427,-0.10377758741378784,-0.01781458593904972,-0.1597997397184372,0.16718900203704834,-0.061494141817092896,0.1483238786458969,-0.18386796116828918,0.03479890152812004,-0.11240337789058685,-0.07231424748897552,-0.050558093935251236,0.12790517508983612,-0.0001835512084653601,-0.15515781939029694,-0.18622393906116486,-0.06044720485806465,-0.19108857214450836,0.09224438667297363,-0.09910833090543747,0.09056469053030014,-0.14323772490024567,0.0663137435913086,0.18715538084506989,0.11378002911806107,0.05778147652745247,0.203537255525589,-0.1175350621342659,0.11736885458230972,-0.032075442373752594,-0.02569761499762535,0.13196372985839844,-0.04048541933298111,-0.168345645070076,-0.13913771510124207,0.12020047754049301,-0.059874434024095535,0.15284930169582367,-0.12215276807546616,0.04634660854935646,0.15789245069026947,-0.04472675174474716,-0.07960785925388336,0.12654760479927063,0.13852190971374512,0.0053025190718472,-0.09623567759990692,0.08420431613922119,-0.14626969397068024,-0.04613947123289108,0.12393422424793243,-0.08334571868181229,0.10074647516012192,-0.02193930372595787,0.05066543444991112,-0.1686309576034546,-0.07168927043676376,-0.1512254923582077,-0.09886908531188965,0.013517494313418865,-0.10984660685062408,-0.13727332651615143,-0.038955312222242355,0.10998258739709854,-0.1552731990814209,-0.14491434395313263,-0.021924538537859917,-0.08552107959985733,0.1387483775615692,0.012424851767718792,0.04159634932875633,-0.1752704679965973,-0.17168642580509186,0.185853973031044,-0.1308460235595703,-0.09673671424388885,-0.05210186168551445,0.03624795377254486,0.1746625453233719,-0.11179126054048538,-0.11007252335548401,-0.06094839796423912,-0.12305484712123871,-0.10019475966691971,0.15422672033309937,0.1702321618795395,0.16426056623458862,0.18614985048770905],[0.18459975719451904,0.3058969974517822,0.19188526272773743,0.04670954868197441,0.1445634812116623,0.1623554676771164,-0.1515727937221527,0.06240885332226753,-0.03191899135708809,-0.06967205554246902,0.08283913135528564,0.2554665803909302,-0.15075667202472687,0.2720533013343811,-0.03399816155433655,0.09938495606184006,0.08788620680570602,0.15192848443984985,-0.13363464176654816,0.20851252973079681,0.06469397991895676,0.15688030421733856,-0.01296536810696125,0.0643099844455719,-0.14281785488128662,-0.07470197230577469,0.2267981320619583,0.1609082669019699,0.05113696679472923,-0.12312810122966766,-0.1814652681350708,0.2145242840051651,0.040345221757888794,0.03254222497344017,0.02184460312128067,0.14750593900680542,0.060943230986595154,-0.15064261853694916,0.023019233718514442,0.13470910489559174,-0.1548614501953125,0.2611977458000183,-0.05163377523422241,0.08690846711397171,0.052413035184144974,0.18542395532131195,0.10238870978355408,0.2877601683139801,-0.045929666608572006,0.05042887479066849,-0.034918975085020065,-0.10494428128004074,0.18425877392292023,0.20639865100383759,-0.08341912925243378,0.05798346921801567,-0.09725557267665863,-0.0808788537979126,0.04498798027634621,0.12793180346488953,0.23963825404644012,-0.20857326686382294,0.03247998282313347,0.17143265902996063,-0.2497839480638504,0.052519164979457855,-0.0686458945274353,-0.04227737337350845,-0.07439126819372177,0.14690662920475006,-0.2553618848323822,-0.09576036781072617,0.07849918305873871,-0.03021937981247902,-0.04448875039815903,-0.012817061506211758,-0.006245224736630917,-0.17281897366046906,0.093795545399189,0.006853658240288496,-0.2269185185432434,-0.153336763381958,0.16358503699302673,0.1312543898820877,-0.1983489990234375,0.03454958647489548,0.13750429451465607,0.08769954741001129,0.007940934970974922,-0.0077458093874156475,-0.041011467576026917,0.04333009943366051,0.0130226518958807,0.08542154729366302,0.008806074969470501,-0.008383111096918583,0.10283845663070679,-0.16709725558757782,0.019320977851748466,0.025193609297275543,0.06149069592356682,-0.03295915201306343,0.2167549431324005,0.28128188848495483,-0.07718993723392487,-0.15805743634700775,0.13675794005393982,0.2192581444978714,-0.07833778113126755,-0.13932855427265167,0.12270389497280121,0.004549372475594282,-0.1919601857662201,-0.09957334399223328,0.20013272762298584,-0.20989179611206055,-0.0038316186983138323,-0.052101343870162964,-0.08392468094825745,0.13817332684993744,-0.12303536385297775,-0.03730626031756401,-0.047685205936431885,-0.08499934524297714,-0.17069858312606812,0.09617560356855392,0.18593831360340118,-0.08359284698963165,0.17473891377449036,0.015599220059812069,0.030189059674739838,0.043555039912462234,0.03975851461291313,0.04685868322849274,-0.03865727409720421,-0.2304614633321762,-0.0023993072099983692,0.09656775742769241,-0.10868851840496063,0.19074364006519318,-0.025218725204467773,-0.053491946309804916,0.3143518269062042,0.2235124111175537,-0.21997776627540588,0.1859128475189209,0.016152625903487206,-0.051905322819948196,0.22016440331935883,-0.10151369869709015],[-0.1969359815120697,-0.13551059365272522,-0.03587039187550545,-0.1839517056941986,0.2642694115638733,0.014044824056327343,-0.14310741424560547,0.2181437760591507,-0.15260697901248932,0.034050945192575455,-0.025698896497488022,0.10291413217782974,-0.012475261464715004,-0.10089360177516937,0.04878205433487892,0.19795957207679749,0.06475430727005005,-0.12018848955631256,-0.14902210235595703,0.21328523755073547,-0.08095627278089523,-0.14928187429904938,-0.28130805492401123,0.003267870983108878,-0.04107688367366791,0.08764251321554184,-0.04743337631225586,0.006637237034738064,-0.402025431394577,-0.11342555284500122,-0.1505199372768402,0.25494861602783203,0.24218861758708954,-0.25070565938949585,0.34200748801231384,-0.03380297124385834,-0.0651005357503891,0.205943301320076,0.034254446625709534,-0.08126531541347504,0.024560272693634033,0.12005259841680527,0.0568089559674263,-0.023882446810603142,0.0608709342777729,-0.11754903197288513,-0.11995424330234528,0.18233200907707214,0.14055992662906647,-0.09543662518262863,0.1697784960269928,0.16323065757751465,-0.2099877893924713,-0.10024843364953995,0.20694036781787872,-0.06412587314844131,-0.0477544367313385,0.11082351952791214,-0.27379581332206726,0.01858522929251194,-0.11284012347459793,0.2193906307220459,0.02739855647087097,-0.2702697217464447,0.29436931014060974,0.29466307163238525,-0.12528079748153687,-0.037072647362947464,0.02025279588997364,-0.11639431864023209,-0.12216140329837799,-0.09055253863334656,-0.18556731939315796,-0.053197212517261505,-0.1359090656042099,0.00714134844020009,-0.08360183984041214,-0.08540821820497513,0.07014355063438416,0.06615307182073593,-0.19152452051639557,0.09317139536142349,0.045822981745004654,0.2544550597667694,-0.2704453766345978,0.023114047944545746,0.18146483600139618,-0.15579618513584137,0.1474582403898239,0.06064935401082039,-0.2858169376850128,0.19405892491340637,0.22242161631584167,-0.2631327509880066,0.14263910055160522,-0.015954766422510147,0.2046058177947998,0.17923717200756073,-0.010812253691256046,-0.09921551495790482,-0.11910688132047653,0.10265219211578369,0.1876416802406311,-0.12207914888858795,-0.11171412467956543,-0.14769193530082703,0.0808117538690567,0.15070492029190063,0.11377143859863281,-0.118515245616436,0.08148965984582901,0.00039255485171452165,0.18590053915977478,-0.08759673684835434,0.1491665542125702,-0.20791329443454742,-0.039195671677589417,0.0967567041516304,-0.1004304438829422,0.1426483392715454,-0.2949833273887634,0.11804956197738647,-0.07137469947338104,0.07828176766633987,-0.041627660393714905,-0.1034492626786232,0.055166784673929214,-0.3728029131889343,0.16228529810905457,0.3344910740852356,-0.2133430391550064,0.17712166905403137,0.7278074622154236,-0.01564820297062397,-0.08064109832048416,-0.22271288931369781,0.3372623920440674,0.052129220217466354,0.28447258472442627,-0.047091662883758545,0.14282865822315216,0.09167838841676712,0.035138633102178574,-0.1847558170557022,0.2902076542377472,-0.13392871618270874,-0.06399641185998917,0.31112831830978394,0.022174667567014694,0.15251459181308746],[0.055106133222579956,-0.029576484113931656,-0.16759078204631805,-0.0963364988565445,-0.13856057822704315,0.2154163420200348,0.06281324476003647,0.09933256357908249,-0.008143207058310509,-0.12061510980129242,-0.17049762606620789,0.008600117638707161,-0.059461306780576706,0.05434214696288109,0.06110529974102974,0.18591265380382538,-0.07925904542207718,-0.015378433279693127,0.007696682121604681,-0.05829882621765137,0.0422404520213604,0.1217929869890213,0.045166850090026855,-0.14915068447589874,-0.19604770839214325,0.2356153130531311,0.0271341223269701,0.07486029714345932,0.25127360224723816,-0.10699489712715149,-0.20108358561992645,0.024381009861826897,0.0017469302983954549,0.19160667061805725,-0.18744847178459167,0.09901082515716553,-0.1752472221851349,0.07172320783138275,-0.0552569255232811,0.1741914600133896,0.1554887592792511,-0.18288512527942657,0.061915814876556396,-0.08578870445489883,-0.14672262966632843,-0.08962348103523254,0.10467003285884857,-0.0624292828142643,-0.1320272535085678,-0.11842875182628632,0.1327974647283554,0.0003264187544118613,0.20301572978496552,-0.07150529325008392,0.18147990107536316,0.13902805745601654,-0.03871197998523712,0.10986684262752533,0.04525214806199074,0.15399743616580963,-0.12046938389539719,0.03472529351711273,-0.14994311332702637,-0.10323275625705719,0.08839626610279083,0.027980081737041473,-0.20018935203552246,-0.10598840564489365,0.0337403379380703,-0.21638083457946777,0.019116001203656197,0.14636638760566711,0.01053182128816843,-0.12921524047851562,0.18466763198375702,0.16023674607276917,0.18413247168064117,-0.15421868860721588,-0.01746070198714733,-0.14888697862625122,-0.13997270166873932,-0.14648257195949554,0.019429996609687805,-0.14240802824497223,-0.10047271102666855,-0.0015050893416628242,-0.14610396325588226,0.08437050879001617,-0.16486865282058716,-0.02888917364180088,0.16875584423542023,0.005577596835792065,0.04733056575059891,-0.08911246806383133,-0.10182388126850128,0.030921079218387604,0.07036460936069489,-0.08359628170728683,-0.11364206671714783,0.14908179640769958,0.1900397092103958,0.19706128537654877,-0.0656181126832962,0.0036866883747279644,-0.15751223266124725,0.1547086238861084,-0.12414851039648056,0.07916765660047531,-0.009834515862166882,0.17314673960208893,-0.0210594292730093,0.14352203905582428,0.20187366008758545,-0.050109077244997025,0.09173361212015152,-0.008210101164877415,0.17777560651302338,-0.2036064863204956,0.24442413449287415,0.22697199881076813,0.032241325825452805,0.02725837379693985,0.10831262916326523,-0.09255023300647736,-0.05509491264820099,-0.1715949922800064,-0.25184062123298645,-0.0093174884095788,-0.023866422474384308,-0.20501236617565155,0.11026205122470856,-0.11178653687238693,-0.15241508185863495,0.10461209714412689,0.09886492043733597,-0.0968751385807991,0.04794413968920708,-0.15507590770721436,-0.28539222478866577,0.20783454179763794,-0.12081290781497955,-0.02463073469698429,-0.15314152836799622,0.09303327649831772,0.029080837965011597,0.14461353421211243,0.041919950395822525,-0.038935013115406036,0.15586811304092407,-0.08241970092058182],[0.031130090355873108,-0.13764627277851105,-0.0839659720659256,-0.13305585086345673,-0.04255106300115585,0.042143821716308594,0.04071199148893356,-0.19684998691082,0.17575377225875854,0.16966475546360016,-0.025763235986232758,0.15946175158023834,0.05509909242391586,0.07389780879020691,-0.07566531747579575,-0.03730636090040207,-0.11536386609077454,0.13001109659671783,-0.14326252043247223,-0.16665980219841003,0.08142109960317612,-0.16190582513809204,-0.09697217494249344,0.055093396455049515,-0.18856307864189148,0.09845437109470367,-0.0029488506261259317,-0.09198915213346481,0.19739015400409698,-0.1968218833208084,-0.08649841696023941,-0.05345182120800018,0.06699701398611069,0.09278131276369095,-0.05245551839470863,0.17382994294166565,-0.12619085609912872,-0.16669876873493195,0.18007683753967285,-0.1737644523382187,-0.14492277801036835,0.08988326042890549,0.17016904056072235,0.14368608593940735,0.1559915989637375,-0.11884412169456482,-0.05839008837938309,0.09871480613946915,-0.0790780559182167,0.180084690451622,0.02485503815114498,0.20164340734481812,0.08827333152294159,-0.033794332295656204,-0.10869818925857544,0.15019677579402924,0.0011746451491490006,0.23458153009414673,0.13277743756771088,0.040206387639045715,0.12558656930923462,-0.12466698884963989,0.05973963811993599,-0.04027116298675537,-0.08977016806602478,-0.1517971009016037,0.14885875582695007,-0.20092390477657318,-0.031877417117357254,0.22168925404548645,0.09955175220966339,-0.18394115567207336,-0.007959791459143162,0.08972784131765366,0.1929711550474167,-0.12016536295413971,-0.05856756865978241,0.17207902669906616,0.11661123484373093,0.14580854773521423,-0.13448436558246613,0.1666313260793686,0.1287723183631897,0.13514259457588196,0.18465496599674225,0.034105364233255386,-0.017872551456093788,0.12733641266822815,-0.09096237272024155,-0.2066798210144043,0.048365287482738495,-0.12071730941534042,-0.16644102334976196,0.02145838551223278,-0.12705646455287933,0.1668330579996109,-0.1827426701784134,0.0058911568485200405,-0.166435107588768,-0.1187073364853859,-0.17697983980178833,-0.15616177022457123,0.09169437736272812,0.03477635979652405,-0.12062574923038483,-0.06618473678827286,0.10082627087831497,0.013927648775279522,-0.05374648794531822,-0.16415870189666748,-0.04057987779378891,0.1471482813358307,-0.09752222895622253,0.0005388425197452307,0.07292699068784714,-0.011185883544385433,0.00708687212318182,-0.0497019961476326,0.09312227368354797,0.12974172830581665,-0.10570897161960602,-0.015705803409218788,0.041190873831510544,-0.14472909271717072,-0.2224893867969513,-0.03376195207238197,-0.06481531262397766,0.11420245468616486,-0.012654288671910763,0.15064918994903564,-0.19129511713981628,-0.05518105626106262,-0.1663009375333786,0.06762886792421341,0.13902099430561066,-0.21179768443107605,0.12180668860673904,0.14642713963985443,0.049400437623262405,0.1238841786980629,0.13650795817375183,-0.10648668557405472,0.1220170259475708,-0.09599927067756653,0.20933198928833008,0.18828223645687103,0.17982150614261627,0.01957840472459793,-0.05268068611621857,0.17322921752929688],[-0.12452032417058945,-0.1291491985321045,-0.04395628347992897,-0.0052574011497199535,-0.05446530506014824,-0.08214875310659409,-0.21671949326992035,-0.1280890703201294,0.04509789124131203,-0.13715912401676178,-0.029824307188391685,0.07015006989240646,-0.14036737382411957,0.1433054357767105,0.0020981018897145987,-0.01285735983401537,0.019548486918210983,0.046205729246139526,0.03282792866230011,0.17269830405712128,-0.20507663488388062,-0.23354381322860718,0.01684500277042389,-0.11434836685657501,-0.15154629945755005,-0.18587256968021393,-0.05631938576698303,0.1521403193473816,0.15412621200084686,0.23462989926338196,-0.18062058091163635,-0.15467718243598938,0.0158455241471529,-0.023549236357212067,0.15668661892414093,0.16218814253807068,0.03213628754019737,-0.12372012436389923,-0.03211388364434242,0.16051994264125824,0.14663153886795044,0.026422442868351936,0.05206666514277458,0.02621285244822502,-0.01912473514676094,-0.08605505526065826,-0.036173492670059204,-0.07392685860395432,-0.2126549780368805,0.11742042005062103,-0.1117996945977211,-0.1850818246603012,-0.02417471632361412,-0.11043757200241089,0.12010680139064789,0.19322961568832397,-0.058031849563121796,-0.15960228443145752,0.11801666766405106,0.09108676016330719,-0.11178278177976608,-0.030219756066799164,0.05068007484078407,0.1595507562160492,-0.1064181923866272,0.051915936172008514,-0.06699889898300171,-0.180982306599617,-0.06635883450508118,-0.16176091134548187,0.1621222048997879,0.21447722613811493,0.12066327035427094,-0.04833165183663368,0.016953470185399055,-0.036266542971134186,0.22114033997058868,0.04989325627684593,0.15338867902755737,0.007459353189915419,-0.10394113510847092,-0.0713273361325264,-0.024932032451033592,0.06265454739332199,-0.2222534418106079,-0.0008664186461828649,-0.06815508008003235,-0.133011594414711,0.0014167476911097765,0.1329602599143982,0.05217272415757179,0.0553005076944828,-0.04514039680361748,-0.19335779547691345,0.08928656578063965,-0.036200061440467834,-0.03427112475037575,-0.16117307543754578,0.08473993092775345,-0.12664763629436493,-0.13025198876857758,0.047305621206760406,0.09747541695833206,-0.1200944259762764,-0.12965521216392517,0.06873974204063416,-0.040221162140369415,-0.15468329191207886,0.13405543565750122,0.15474720299243927,0.07369278371334076,-0.1768338531255722,-0.09286337345838547,-0.15439638495445251,-0.23815691471099854,-0.019479095935821533,-0.045336149632930756,0.07847076654434204,-0.17985467612743378,-0.03753233328461647,0.14545410871505737,-0.044304631650447845,-0.05550277233123779,0.11275118589401245,0.07498009502887726,-0.0039708553813397884,0.13738244771957397,0.20024675130844116,0.13638070225715637,0.13084280490875244,0.011800404638051987,0.03766868636012077,0.25347986817359924,0.19173859059810638,0.11914024502038956,-0.05992162600159645,-0.07479093223810196,0.03829680010676384,0.28546473383903503,-0.21739503741264343,-0.05853665620088577,0.32163840532302856,-0.06310686469078064,-0.13237319886684418,0.12624426186084747,-0.03804553300142288,0.15205539762973785,0.07247060537338257,-0.1344602406024933,-0.14275440573692322],[-0.11540544778108597,0.1531723141670227,0.10589344799518585,-0.1472291350364685,0.1741584688425064,0.18143227696418762,0.15560361742973328,0.13702812790870667,-0.14217273890972137,0.1387876719236374,0.033429112285375595,0.07291968166828156,-0.1373109519481659,-0.05483952537178993,-0.12106823176145554,-0.16835151612758636,0.09085018932819366,-0.1893957108259201,0.10708785802125931,0.120265893638134,-0.16884341835975647,-0.08202215284109116,-0.017859581857919693,0.10527678579092026,0.07288607209920883,0.027423137798905373,0.11455115675926208,0.17342649400234222,-0.06796463578939438,0.09341415017843246,-0.2159278392791748,0.05722891539335251,-0.08242128789424896,0.10754293948411942,-0.1459461897611618,-0.057466596364974976,0.033539120107889175,0.055557891726493835,-0.18146903812885284,0.11469495296478271,-0.06212727352976799,0.18523690104484558,0.02370918169617653,0.11144516617059708,-0.10492777079343796,0.11918579041957855,-0.19303779304027557,0.07045739144086838,-0.06942860782146454,0.03410068154335022,0.1372830867767334,0.11719705909490585,-0.07533923536539078,0.09586618840694427,-0.005373818334192038,-0.006767779588699341,0.10550524294376373,-0.17244243621826172,0.040202632546424866,0.015521019697189331,-0.0156240900978446,-0.02933928556740284,0.1578139364719391,0.15618646144866943,0.1412784308195114,-0.14922001957893372,-0.13946577906608582,-0.05873352661728859,0.13436266779899597,-0.2051958441734314,-0.018736328929662704,0.049855221062898636,-0.030992869287729263,-0.14393365383148193,0.14263363182544708,-0.07928372174501419,0.00406573386862874,-0.06582244485616684,-0.1735212802886963,-0.11971626430749893,-0.035497792065143585,-0.051776617765426636,-0.0784061849117279,0.08927612751722336,0.09607899934053421,0.1324300915002823,0.01910979300737381,0.05337127298116684,-0.14505094289779663,0.15687817335128784,-0.04203863814473152,-0.07286016643047333,-0.04987708106637001,-0.17095085978507996,-0.052090179175138474,-0.21486453711986542,-0.2168421596288681,0.12927433848381042,0.1533021479845047,0.07661112397909164,-0.1539260745048523,-0.1516893208026886,-0.19262433052062988,0.13498665392398834,-0.10209041088819504,-0.041204784065485,-0.053722038865089417,0.052468255162239075,0.0003102388000115752,-0.0488654300570488,0.04043837636709213,-0.20812582969665527,-0.04408450052142143,0.032462406903505325,0.0913410484790802,0.07331199944019318,0.09191464632749557,0.07411324232816696,-0.17811483144760132,0.08643878251314163,-0.13244515657424927,0.08814803510904312,0.01848420687019825,-0.21036116778850555,0.10359321534633636,-0.064848393201828,-0.05044287070631981,-0.07882926613092422,-0.044995035976171494,0.2201405167579651,0.05629592388868332,-0.04753568395972252,0.13285930454730988,0.04344205930829048,0.014918915927410126,-0.19314181804656982,0.01599329710006714,-0.1168895959854126,-0.10342889279127121,-0.10943742096424103,0.0749918520450592,-0.05155465006828308,-0.04018014296889305,-0.03578251972794533,0.0752900242805481,-0.14312200248241425,0.145585298538208,-0.07929901778697968,-0.13554354012012482,-0.041255973279476166],[-0.20110969245433807,-0.16532057523727417,-0.14294779300689697,-0.224122554063797,-0.22818824648857117,0.05527478829026222,-0.0047121187672019005,-0.032224319875240326,-0.11764403432607651,-0.12729127705097198,-0.13298393785953522,0.05253584310412407,0.1509217917919159,-0.10314330458641052,0.13966575264930725,0.14050577580928802,-0.2275613397359848,-0.08214671164751053,0.024355219677090645,0.07116808742284775,-0.0780191719532013,-0.15388371050357819,0.1861562579870224,0.17750218510627747,0.10456494241952896,-0.08145889639854431,-0.07438673824071884,0.13039875030517578,-0.12889955937862396,0.01577937602996826,-0.012637556530535221,-0.09782516211271286,-0.06464467197656631,0.0014436868950724602,0.04627278819680214,-0.20510245859622955,-0.20192772150039673,-0.14453774690628052,0.16538137197494507,0.06425272673368454,-0.18556314706802368,0.01085708849132061,0.17496487498283386,-0.03354230895638466,0.047906577587127686,-0.08785803616046906,-0.06960225850343704,0.02516668662428856,-0.11343786120414734,0.19559289515018463,-0.035496145486831665,-0.08585906028747559,-0.16710640490055084,0.07368975877761841,-0.06352134793996811,0.21325239539146423,-0.08843105286359787,-0.10209867358207703,-0.15308378636837006,-0.20828333497047424,0.0037942652124911547,0.1510070264339447,0.029429787769913673,-0.18123048543930054,0.18811707198619843,0.12329958379268646,-0.1983141452074051,0.08781007677316666,-0.10043294727802277,0.13114552199840546,0.161892831325531,0.14158974587917328,-0.16441549360752106,-0.2099151313304901,-0.03898368775844574,0.12944145500659943,-0.15136262774467468,0.09456753730773926,-0.17156429588794708,-0.08861135691404343,-0.04427378252148628,-0.05553309619426727,0.07187352329492569,0.04579664021730423,-0.1342918425798416,-0.18628360331058502,-0.14522263407707214,-0.06548451632261276,0.16647256910800934,0.07239379733800888,0.13229063153266907,-0.12173188477754593,0.07672183960676193,0.09561607986688614,0.18579600751399994,-0.052632465958595276,0.08577192574739456,-0.06662975996732712,0.05696491897106171,-0.07322724163532257,0.1956264227628708,0.08443143218755722,-0.22064612805843353,-0.18992382287979126,-0.02560652233660221,-0.06439894437789917,-0.05176941677927971,0.0349140428006649,0.22535955905914307,-0.08065781742334366,0.18879251182079315,0.14575055241584778,-0.008630708791315556,-0.08438551425933838,-0.19574011862277985,0.016544010490179062,-0.07405506074428558,-0.035059425979852676,0.031893737614154816,0.03483620285987854,-0.1315668523311615,-0.03630468621850014,0.16372480988502502,-0.023382358253002167,-0.1181243285536766,0.09491907060146332,0.1385686695575714,0.11361363530158997,-0.06325832009315491,0.2737462818622589,-0.06770791113376617,-0.10401982814073563,0.01099204458296299,0.015984749421477318,-0.10297298431396484,0.33896923065185547,0.1344224363565445,-0.019597582519054413,0.016686737537384033,-0.16630473732948303,-0.16076801717281342,0.08131862431764603,-0.09128746390342712,-0.10156480967998505,0.021024156361818314,-0.22740964591503143,-0.22492143511772156,0.09123352915048599,0.12099061906337738,0.030348457396030426],[0.14367474615573883,0.15653297305107117,-0.03671962767839432,0.17086896300315857,0.009200266562402248,0.11511334776878357,0.1489204317331314,0.17389853298664093,0.1725366711616516,-0.05732613801956177,0.15168336033821106,-0.11303065717220306,-0.015147038735449314,-0.10584163665771484,-0.14581556618213654,0.07340940088033676,0.17031453549861908,-0.17245608568191528,0.16985781490802765,-0.07046815007925034,-0.1867298036813736,0.21438755095005035,0.20339128375053406,-0.16724827885627747,0.12240913510322571,-0.008770239539444447,0.10241074115037918,0.14811044931411743,0.0058371820487082005,0.02216220460832119,-0.005259654019027948,-0.029141733422875404,-0.1545030176639557,-0.11159784346818924,0.05969987437129021,-0.0987623929977417,-0.12672871351242065,0.09908197075128555,0.1774551421403885,0.0020622978918254375,-0.05789590999484062,0.18186956644058228,-0.060143474489450455,-0.1720745861530304,-0.14515508711338043,0.03869524225592613,0.019771819934248924,-0.002388154622167349,0.18153981864452362,0.17037571966648102,-0.06933080404996872,0.056063685566186905,0.13939830660820007,0.15697237849235535,-0.18919427692890167,0.18648861348628998,-0.1853996217250824,0.0719410702586174,-0.09114004671573639,-0.06569428741931915,0.17332419753074646,-0.03152649849653244,0.004204649478197098,0.08553700149059296,0.12201176583766937,-0.09577011317014694,-0.132332906126976,0.020046941936016083,0.1422499120235443,0.09227505326271057,-0.009363344870507717,-0.14206883311271667,0.01925836130976677,-0.07257591933012009,0.03855319693684578,-0.1505623608827591,0.01576358824968338,0.1846407800912857,0.034632619470357895,0.12607316672801971,0.08153438568115234,0.08599567413330078,0.12280164659023285,-0.04812183976173401,0.17979039251804352,-0.13820187747478485,-0.003141439985483885,0.04873283952474594,-0.062118418514728546,-0.14672145247459412,0.25742894411087036,0.04449543356895447,0.18347856402397156,-0.18947118520736694,0.1457398533821106,0.1857156902551651,-0.17194615304470062,0.04362187534570694,0.12409192323684692,-0.05600833147764206,0.1936015635728836,0.09883495420217514,-0.05662985146045685,0.22929221391677856,-0.16759800910949707,0.14441724121570587,0.08754172176122665,0.08191867917776108,0.010943278670310974,-0.08356820046901703,-0.057695019990205765,0.09938252717256546,-0.13914386928081512,-0.17641499638557434,0.1414177566766739,-0.07403755933046341,-0.04132498800754547,-0.15948280692100525,-0.07065550982952118,-0.05616191029548645,0.17235668003559113,-0.015667671337723732,-0.11856967210769653,-0.15639707446098328,-0.01991649530827999,-0.10825702548027039,-0.1961124837398529,-0.17921505868434906,0.10872244089841843,-0.13616274297237396,-0.052470672875642776,0.011568129993975163,0.12113171070814133,-0.11426153033971786,0.1958155333995819,0.10155198723077774,0.07725071907043457,0.09020013362169266,-0.11469913274049759,0.0859450176358223,0.08632659167051315,-0.11191250383853912,0.10657580196857452,0.008240371942520142,-0.23057305812835693,-0.13629299402236938,-0.16399267315864563,-0.25595954060554504,-0.012945737689733505,-0.03126631677150726],[0.14014753699302673,-0.00890452042222023,0.08150233328342438,0.17666396498680115,0.0486530177295208,0.014240223914384842,0.07923479378223419,-0.11847585439682007,-0.061310794204473495,-0.03325611352920532,-0.033687084913253784,0.0960749164223671,0.18400757014751434,-0.1644597053527832,0.02028992399573326,-0.032901931554079056,-0.12465661764144897,-0.1113031730055809,-0.08072979748249054,-0.059496354311704636,0.08280564099550247,0.1792595535516739,-0.038685042411088943,0.1557503640651703,0.14722749590873718,-0.14243777096271515,-0.024896586313843727,0.11771991848945618,0.02867540344595909,0.1165350005030632,0.20947645604610443,0.176399827003479,-0.02115771360695362,-0.14860396087169647,-0.30166471004486084,0.03191963583230972,-0.16294941306114197,0.09127529710531235,-0.21012373268604279,-0.16457895934581757,-0.08054904639720917,0.150616854429245,0.20312723517417908,-0.15444742143154144,-0.056045062839984894,0.20922842621803284,-0.16580939292907715,0.048291098326444626,0.06834385544061661,-0.16473664343357086,-0.10177282989025116,0.05632764846086502,0.09891219437122345,-0.1533314287662506,-0.05785666033625603,-0.028184471651911736,0.07498898357152939,-0.19307252764701843,0.09847963601350784,0.18420881032943726,-0.14785976707935333,-0.12466895580291748,0.01974509283900261,0.16132286190986633,0.09457433968782425,0.09084230661392212,-0.10578841716051102,0.018934428691864014,-0.06925874948501587,0.19221985340118408,0.04275449365377426,-0.08141575008630753,-0.07486115396022797,0.15309007465839386,-0.053503673523664474,0.16889189183712006,0.10104294121265411,0.06415572762489319,0.18730147182941437,-0.1416354924440384,-0.06159600988030434,0.09795195609331131,0.04539766162633896,0.1243954598903656,0.01517852209508419,0.16240710020065308,-0.09505943953990936,0.02031649649143219,0.01223865058273077,-0.07494901865720749,0.03663112223148346,0.08546379953622818,0.05284852907061577,0.07456455379724503,-0.052279580384492874,0.038507502526044846,-0.18985788524150848,-0.16697782278060913,0.13555939495563507,-0.09096648544073105,-0.022149639204144478,0.19286169111728668,0.05449105426669121,0.11432953923940659,0.1767648160457611,-0.07956594973802567,-0.09369783103466034,-0.037716325372457504,0.06924549490213394,0.04524409398436546,-0.11124701797962189,0.1329256147146225,-0.06210519000887871,0.01293093990534544,0.1887534260749817,0.16871748864650726,-0.059121374040842056,0.0034007946960628033,-0.09531636536121368,-0.13508106768131256,0.0177406407892704,0.048831287771463394,-0.10624372214078903,-0.003990857861936092,0.12061731517314911,-0.10212705284357071,-0.11600363999605179,0.1592463254928589,0.1677899807691574,0.09671708941459656,-0.056904569268226624,-0.16303399205207825,-0.19946333765983582,-0.11381953209638596,-0.20520925521850586,0.032155461609363556,-0.025549156591296196,-0.16200333833694458,0.1331382691860199,0.14458325505256653,0.11946747452020645,0.07822650671005249,-0.03700481355190277,-0.04031849279999733,-0.0157907847315073,0.0908207893371582,0.06545762717723846,0.11546096205711365,0.0005213299882598221,-0.04723164439201355],[0.06269695609807968,0.05428599938750267,0.22772936522960663,0.015649763867259026,0.049562953412532806,0.22688157856464386,-0.11393123865127563,-0.0321713387966156,0.08521207422018051,0.1483827829360962,0.05357924848794937,0.09003619104623795,-0.20944912731647491,0.0881362184882164,0.0445963591337204,-0.14472223818302155,-0.056307319551706314,0.08466475456953049,-0.16124409437179565,-0.1359836310148239,0.027815688401460648,-0.13738150894641876,0.03084252029657364,-0.046440489590168,-0.2032337635755539,0.046542465686798096,0.22282619774341583,0.07568065822124481,-0.041482966393232346,0.08831901848316193,-0.1421206146478653,0.03679988905787468,-0.19531001150608063,0.06588960438966751,-0.1359330713748932,0.00391010707244277,-0.20741063356399536,-0.09299474209547043,-0.09778091311454773,0.11844080686569214,0.04092622920870781,-0.20085673034191132,-0.06926681101322174,0.05721607804298401,-0.004853436257690191,-0.0168728306889534,0.25268152356147766,0.10650192946195602,-0.0595242865383625,0.12416337430477142,0.01565505564212799,0.09534674882888794,-0.045999664813280106,-0.03564029932022095,-0.008947889320552349,0.11297309398651123,-0.09319887310266495,-0.25757452845573425,0.22929581999778748,0.15526069700717926,0.16235333681106567,-0.18174652755260468,0.0542869009077549,0.11082222312688828,-0.15064796805381775,-0.17341230809688568,0.11776423454284668,-0.14959920942783356,-0.08479009568691254,0.031124187633395195,-0.07445347309112549,-0.19907866418361664,-0.07968124002218246,-0.18684022128582,0.17966043949127197,-0.017954811453819275,0.18134665489196777,0.07010827213525772,0.05740327388048172,0.05932803452014923,0.05771200358867645,-0.12561087310314178,0.17370080947875977,-0.1806119680404663,-0.14820930361747742,-0.035623181611299515,0.055039044469594955,0.16408729553222656,0.14477375149726868,0.24461744725704193,-0.20361270010471344,-0.1289210021495819,-0.23795099556446075,0.1650858223438263,-0.08428945392370224,-0.13177067041397095,0.10984267294406891,-0.09317593276500702,-0.07260768115520477,-0.10106797516345978,-0.03760867193341255,0.09984400123357773,-0.12665972113609314,0.007001984398812056,0.09368687123060226,-0.11751792579889297,0.12210796773433685,0.13280893862247467,0.10198120027780533,-0.028499072417616844,-0.21594664454460144,0.07245738804340363,-0.10152498632669449,0.04259477183222771,0.15240785479545593,-0.17052672803401947,-0.22907838225364685,-0.15583865344524384,0.13365989923477173,0.05394386872649193,0.031869396567344666,-0.13550546765327454,-0.1920245736837387,-0.0276788379997015,-0.042022962123155594,-0.12148985266685486,0.07346764951944351,-0.009650057181715965,0.1778847724199295,-0.33867356181144714,0.16466441750526428,-0.025666000321507454,-0.19968123733997345,-0.09515580534934998,0.12197637557983398,-0.24322670698165894,0.10847871750593185,-0.013687890022993088,-0.1546631157398224,-0.01632101461291313,0.15373672544956207,0.22495491802692413,-0.04982758313417435,0.140006884932518,-0.10643857717514038,0.20076130330562592,-0.038655295968055725,-0.15147030353546143,0.11726420372724533,0.041605476289987564],[-0.15984709560871124,-0.009008394554257393,0.1540149748325348,0.04611457511782646,-0.15431083738803864,0.12223220616579056,0.13994154334068298,0.10212720930576324,-0.024594223126769066,-0.09126202017068863,-0.12274906039237976,-0.08317854255437851,-0.08147226274013519,0.016368091106414795,-0.12678280472755432,-0.004694736562669277,-0.07413666695356369,0.03804253786802292,-0.044342733919620514,-0.06220779940485954,-0.12154921889305115,-0.17546707391738892,0.07209529727697372,-0.08821931481361389,0.002310513984411955,-0.12406516820192337,0.044047944247722626,0.19465488195419312,0.19217270612716675,0.014411338604986668,0.12429098784923553,-0.170066237449646,-0.1469205766916275,0.16795073449611664,-0.13277703523635864,-0.017367854714393616,-0.1338605135679245,-0.05991955101490021,-0.05066630244255066,0.16886985301971436,-0.0719776526093483,-0.10201416164636612,-0.08219602704048157,-0.05047937110066414,-0.15000145137310028,0.02040357142686844,0.10398927330970764,0.00522687379270792,0.10636668652296066,-0.024170970544219017,-0.015588484704494476,-0.05359049513936043,-0.026734545826911926,-0.0789693221449852,-0.021483048796653748,-0.13811054825782776,-0.10972610116004944,0.09923859685659409,-0.14904426038265228,-0.11289104074239731,0.018390057608485222,-0.1018405482172966,-0.1612049639225006,0.10239247232675552,0.07977354526519775,-0.12819328904151917,0.18291883170604706,-0.11892512440681458,0.0119527168571949,-0.19032399356365204,-0.13185197114944458,0.04267401248216629,0.17177914083003998,-0.18730731308460236,0.013168351724743843,0.18348245322704315,0.030230656266212463,-0.07739018648862839,0.1089128777384758,-0.09903493523597717,0.20062215626239777,-0.06493976712226868,0.047487370669841766,0.12271317094564438,0.038866229355335236,0.06374146789312363,-0.016743894666433334,-0.1318296492099762,-0.07251808792352676,-0.1629696637392044,-0.16707223653793335,-0.18116551637649536,0.012826221995055676,0.1290808618068695,0.06085919961333275,-0.017576975747942924,0.04352017492055893,-0.15877939760684967,-0.036671314388513565,-0.007756341248750687,0.1380292773246765,0.08934501558542252,-0.010087253525853157,-0.18714970350265503,0.0233460683375597,0.03262095898389816,-0.11406023800373077,0.06298133730888367,0.2115839421749115,-0.10243028402328491,0.17455355823040009,0.04261280968785286,0.010012865997850895,0.19340017437934875,0.01848159357905388,0.050910890102386475,-0.14812444150447845,-0.18775610625743866,-0.1728152632713318,0.06400849670171738,0.03985893353819847,-0.12864330410957336,-0.17257219552993774,0.10380585491657257,0.12244877219200134,0.06477906554937363,0.12479355931282043,-0.14596663415431976,-0.06273446977138519,0.14566630125045776,0.16717442870140076,0.08967605978250504,-0.0811891183257103,-0.002466781297698617,-0.09139276295900345,-0.06696636974811554,0.1429842710494995,-0.16147546470165253,0.021113522350788116,-0.1750742495059967,-0.10381460189819336,-0.01901078410446644,0.19652533531188965,0.00620485283434391,-0.013870777562260628,0.1677761971950531,-0.14897964894771576,0.17953172326087952,-0.15455001592636108,0.11478297412395477],[0.1883213073015213,0.16098977625370026,0.03511719033122063,-0.06134667247533798,-0.038322582840919495,0.20758597552776337,0.09034139662981033,-0.06787735968828201,-0.06807848066091537,0.1819048821926117,-0.15987059473991394,0.1311524659395218,-0.168350949883461,-0.09867332875728607,0.03793434053659439,-0.021157538518309593,0.09345633536577225,0.1793740689754486,0.0601942352950573,-0.19731515645980835,-0.014042920432984829,-0.06049184873700142,-0.0024848859757184982,-0.22496850788593292,-0.04760038107633591,-0.09735041856765747,0.08693460375070572,-0.13542625308036804,-0.09699644148349762,-0.09737958014011383,-0.03403134271502495,-0.22430165112018585,0.10876470059156418,0.16445189714431763,-0.16223157942295074,0.1994532197713852,-0.12780623137950897,-0.022663598880171776,0.056621942669153214,-0.03872786462306976,-0.16129599511623383,-0.012494735419750214,0.14667415618896484,0.02254350110888481,-0.13988548517227173,0.015842411667108536,-0.02253405749797821,0.1114112138748169,0.05357029289007187,0.17365756630897522,-0.210808664560318,-0.18822705745697021,-0.10509969294071198,-0.07510657608509064,0.07146333903074265,-0.001345615484751761,0.029055994004011154,0.025955751538276672,0.19240424036979675,0.21896329522132874,0.23615188896656036,-0.2805802524089813,-0.1904764622449875,0.21008774638175964,-0.05438215285539627,-0.05171636864542961,0.2422453910112381,0.059309378266334534,0.03933722525835037,0.16712315380573273,-0.25073203444480896,-0.11723491549491882,0.1662536859512329,0.11541013419628143,0.014173990115523338,-0.03821559622883797,0.057551026344299316,0.11343851685523987,0.09402669966220856,-0.156366229057312,-0.18932773172855377,-0.07817839086055756,-0.2175343781709671,-0.07409188151359558,0.07547863572835922,0.21393822133541107,0.1832137554883957,-0.03385940194129944,-0.10641627013683319,-0.14307254552841187,0.03902377560734749,0.12443259358406067,0.0632760226726532,-0.009163487702608109,-0.1506132185459137,0.10363541543483734,-0.10313372313976288,0.08267875015735626,0.1285306066274643,-0.03899848461151123,0.01674032025039196,0.11158409714698792,0.13473916053771973,-0.01162288710474968,0.07596013695001602,-0.040249504148960114,-0.014221908524632454,-0.10184020549058914,-0.09989751875400543,-0.10500872880220413,-0.167130708694458,0.1438794583082199,-0.09744108468294144,-0.038489241153001785,-0.0134330615401268,-0.16352564096450806,-0.20379167795181274,-0.023266084492206573,0.23645049333572388,0.113714300096035,0.05739974230527878,-0.040388576686382294,-0.08018658310174942,-0.03236202150583267,0.03360183537006378,0.041615888476371765,0.07410401850938797,0.17663919925689697,-0.1740114688873291,-0.11519070714712143,0.1304386556148529,-0.08483663946390152,-0.09899492561817169,0.021723337471485138,0.18122732639312744,-0.20420348644256592,0.08823440223932266,-0.1251297891139984,-0.09328030049800873,0.09941227734088898,0.19946958124637604,-0.10789607465267181,0.21024638414382935,0.15604422986507416,-0.19411101937294006,0.22120139002799988,0.17339807748794556,0.128328338265419,0.10290704667568207,-0.1781052052974701],[0.11742056906223297,0.0333884060382843,0.011785740032792091,0.12709960341453552,-0.19523461163043976,-0.022415246814489365,0.06765977293252945,-0.16082988679409027,0.10985581576824188,-0.0436222143471241,0.06885963678359985,0.1758170872926712,0.14854328334331512,-0.13395006954669952,0.006588459014892578,-0.07868525385856628,0.10889935493469238,-0.18023331463336945,0.11565146595239639,-0.13152511417865753,0.0015493786195293069,-0.012725474312901497,-0.2374325394630432,-0.11384505778551102,-0.08458811789751053,0.1265621781349182,-0.0009656649199314415,-0.1679040640592575,-0.17358854413032532,0.11107693612575531,0.14587949216365814,0.014032390899956226,0.06832900643348694,-0.026933975517749786,0.11357813328504562,-0.02512803114950657,-0.0407756082713604,-0.17975091934204102,-0.07277382165193558,0.13038702309131622,0.02926883101463318,0.05482189357280731,-0.16163349151611328,0.02523031271994114,0.18810512125492096,0.07516198605298996,-0.12169727683067322,-0.0747804343700409,-0.13075006008148193,-0.1909826248884201,-0.09867362678050995,-0.11716186255216599,-0.1356668919324875,0.0013909665867686272,0.11641449481248856,0.03207378461956978,0.08856377005577087,0.10909314453601837,-0.2133902609348297,-0.05360112711787224,-0.05844995006918907,0.16523377597332,-0.08519889414310455,-0.019260339438915253,-0.039357271045446396,0.18938478827476501,0.19953519105911255,-0.13560877740383148,0.03945000097155571,-0.022283153608441353,-0.12155718356370926,-0.16762709617614746,-0.011431362479925156,-0.04341593012213707,0.1123870238661766,-0.06581688672304153,-0.20022210478782654,0.17615196108818054,-0.09902551770210266,0.006293799728155136,0.0805569738149643,-0.11650999635457993,0.01893588900566101,0.003811510745435953,0.031140558421611786,-0.02949804812669754,-0.08367158472537994,-0.16955868899822235,0.19032061100006104,-0.08465307950973511,0.026174817234277725,0.170187845826149,-0.14512771368026733,-0.14265532791614532,-0.06990202516317368,0.11936382949352264,0.009100881405174732,-0.03472736477851868,-0.07970087975263596,0.037116192281246185,0.1543595790863037,-0.056599270552396774,0.03412451222538948,-0.25430306792259216,0.12602917850017548,0.04955916479229927,-0.1864977478981018,-0.20058183372020721,0.03181982785463333,0.05690161511301994,-0.11422518640756607,-0.19951219856739044,0.03071104921400547,-0.11317496001720428,0.21333114802837372,0.15397989749908447,0.12043391168117523,0.19285164773464203,-0.18925872445106506,-0.18272821605205536,0.006892637815326452,0.07787331938743591,-0.1537408083677292,0.1270059049129486,0.13236215710639954,0.12039162963628769,0.012747006490826607,-0.2059888392686844,0.08941467106342316,0.22130665183067322,0.1246446818113327,-0.0703159049153328,0.006483010947704315,0.0371987521648407,-0.12077279388904572,-0.20192846655845642,0.19524693489074707,0.029759390279650688,0.019059065729379654,-0.02092367596924305,-0.09656321257352829,0.06993677467107773,-0.014228505082428455,0.14790046215057373,-0.014262942597270012,0.16553746163845062,-0.15007811784744263,0.10806602984666824,0.1017327830195427,0.1567750871181488],[0.21550309658050537,0.1503136157989502,0.19388051331043243,0.06011873483657837,0.25836771726608276,0.1883857101202011,0.28276360034942627,0.04240615293383598,-0.10144241899251938,-0.06368684023618698,-0.004949463531374931,-0.08656356483697891,0.09067092835903168,-0.04263991117477417,-0.13154266774654388,0.047508157789707184,-0.07514174282550812,0.15294842422008514,-0.1369648426771164,-0.10894298553466797,-0.05740249902009964,-0.05785017088055611,-0.10510529577732086,-0.016595082357525826,-0.1016339361667633,0.1894131749868393,0.045614250004291534,0.11652262508869171,0.07357101887464523,-0.03482025861740112,0.2160702794790268,-0.09324284642934799,0.15640422701835632,0.07874488085508347,0.01694576069712639,-0.15640194714069366,0.15217137336730957,0.00850995909422636,0.06554971635341644,0.15650804340839386,0.0179506354033947,0.07628774642944336,-0.05353197082877159,-0.1870942860841751,-0.14872267842292786,-0.02642066590487957,0.09735209494829178,-0.18866699934005737,0.09989160299301147,0.07646115124225616,0.04764237999916077,-0.042842380702495575,-0.06295639276504517,0.14142344892024994,0.17199306190013885,0.00002831009987858124,0.11555692553520203,0.1751367449760437,-0.09796451032161713,0.026622850447893143,0.17263418436050415,-0.11723840236663818,0.09132755547761917,0.3011835217475891,0.08813762664794922,-0.042812902480363846,0.19300206005573273,-0.03649622201919556,0.16953548789024353,0.07404495775699615,-0.0516422875225544,-0.00921846553683281,0.06771194189786911,0.17059947550296783,0.04797699302434921,-0.1324179470539093,0.006376475561410189,-0.13782274723052979,0.17848867177963257,0.03803347051143646,0.11827365309000015,-0.1363723874092102,-0.1652761548757553,-0.2094242423772812,0.04770621657371521,-0.06824029237031937,-0.035710349678993225,-0.14238104224205017,0.09743808954954147,0.15755486488342285,0.13594260811805725,-0.18265138566493988,-0.1358758956193924,0.04154263809323311,-0.026458194479346275,0.0052666026167571545,0.16676980257034302,0.052088480442762375,-0.03540236875414848,0.07307533174753189,0.07314608991146088,-0.1568751484155655,0.02098766528069973,0.12062270939350128,-0.10363650321960449,0.17291395366191864,-0.16652384400367737,0.08892109245061874,-0.019713465124368668,0.14503908157348633,0.11667406558990479,0.14265266060829163,-0.033952001482248306,0.11161462962627411,0.22015555202960968,-0.1071685329079628,-0.1497148871421814,-0.02951223775744438,0.024852510541677475,0.19964945316314697,0.16884182393550873,-0.18719913065433502,0.10142087936401367,0.05470079183578491,-0.04223209619522095,-0.1539812535047531,-0.02559548057615757,-0.06592638045549393,0.1191520094871521,-0.23998838663101196,0.0828438252210617,0.0822036936879158,-0.26444247364997864,-0.018052944913506508,-0.1527845412492752,-0.19259296357631683,0.09321453422307968,0.00544779933989048,-0.2881225347518921,0.08501113951206207,0.14668281376361847,-0.0029254767578095198,-0.1278381496667862,0.23341891169548035,-0.18976791203022003,0.2589142322540283,-0.16728143393993378,-0.2888045907020569,0.02978578209877014,-0.050804220139980316],[-0.06564810127019882,-0.05183996632695198,-0.03693255037069321,0.19140180945396423,-0.19379276037216187,-0.192055806517601,0.04289539158344269,-0.25765082240104675,-0.16150592267513275,-0.03520307317376137,0.14922332763671875,-0.013128700666129589,-0.0854540765285492,0.2139691412448883,-0.02744513750076294,0.11690360307693481,0.11950228363275528,0.09015723317861557,0.09342460334300995,-0.05115175247192383,-0.1389302760362625,0.23148810863494873,0.1445992887020111,0.01400637999176979,0.2497367560863495,0.2482016235589981,-0.13088271021842957,0.16573014855384827,0.2674044370651245,-0.08329354226589203,0.17377550899982452,0.1127781942486763,0.016655603423714638,0.15185406804084778,-0.23630517721176147,-0.02876659668982029,0.050111766904592514,-0.2507811486721039,-0.2567868232727051,0.07543768733739853,0.11770744621753693,0.10612908005714417,-0.09420008957386017,0.04863428696990013,-0.20306776463985443,-0.05704015493392944,-0.13764606416225433,-0.15246856212615967,-0.1863919347524643,-0.15321600437164307,0.03437872976064682,-0.07079356908798218,0.14261575043201447,-0.10192683339118958,0.12181925773620605,0.12826931476593018,-0.0957278162240982,-0.06572361290454865,-0.020466377958655357,0.11351674050092697,0.20414535701274872,0.03928399085998535,-0.016924332827329636,0.18510796129703522,0.04951949417591095,-0.015853000804781914,0.05103243514895439,0.07026752084493637,0.04164695739746094,0.041364263743162155,-0.2379305213689804,-0.15303385257720947,0.21018269658088684,0.07056392729282379,-0.03311055153608322,0.2612413167953491,0.07995269447565079,0.012725740671157837,0.3036455512046814,0.15623727440834045,0.10476741194725037,0.03545104339718819,-0.013547013513743877,0.03918156772851944,-0.06017562374472618,-0.13686740398406982,-0.014336694031953812,0.17223575711250305,0.12421239912509918,-0.0018055971013382077,0.08399806171655655,-0.22358350455760956,0.0047269463539123535,0.07057610899209976,0.0007935778121463954,0.1566900610923767,-0.10861696302890778,-0.13626091182231903,0.049120284616947174,-0.06475741416215897,-0.15316031873226166,-0.15431271493434906,-0.15408550202846527,0.33710893988609314,-0.017149295657873154,0.02441236935555935,-0.14347155392169952,-0.17251056432724,-0.06811103224754333,0.23584961891174316,0.059632930904626846,0.11566977947950363,0.05915684625506401,-0.1361035406589508,-0.10747546702623367,0.06640596687793732,-0.1717398315668106,0.12342943251132965,0.3172011375427246,-0.1639212816953659,-0.1839095950126648,-0.14603778719902039,-0.09300875663757324,0.04763594642281532,0.25810107588768005,0.06242888420820236,-0.11577907204627991,0.3288663625717163,0.02643757499754429,-0.21042954921722412,-0.028915653005242348,-0.1503797322511673,-0.6666966080665588,-0.025484636425971985,0.005949778947979212,-0.041162557899951935,-0.2488626390695572,-0.16750577092170715,-0.45825687050819397,-0.2085561454296112,0.12275992333889008,0.1818150132894516,0.18326927721500397,-0.15596336126327515,-0.14502769708633423,0.1840042769908905,-0.15107260644435883,0.12046967446804047,0.3096585273742676,0.13173964619636536],[-0.10865692049264908,0.1559818983078003,-0.03910389542579651,0.11635643243789673,0.06873073428869247,0.13478879630565643,-0.13736078143119812,0.16242335736751556,-0.1931544840335846,-0.057506412267684937,-0.09093323349952698,0.15384960174560547,-0.03600827977061272,-0.07730262726545334,-0.07307682931423187,0.16221123933792114,-0.02693752758204937,0.08887603133916855,0.013130411505699158,0.06191571056842804,-0.08531549572944641,0.08649629354476929,-0.12851759791374207,0.019226888194680214,0.15818069875240326,0.1704304963350296,-0.09013508260250092,0.02000172808766365,-0.12385265529155731,-0.0840788260102272,0.017196981236338615,-0.13399869203567505,-0.1454913169145584,0.17986935377120972,-0.1562437266111374,0.1247495636343956,-0.0781058520078659,-0.10258287936449051,0.050293080508708954,-0.09218845516443253,0.11837739497423172,-0.07984573394060135,-0.12185028195381165,-0.0064230430871248245,0.0750977098941803,-0.10603903979063034,0.18560713529586792,0.1465638279914856,-0.21563851833343506,-0.1421050876379013,0.05378064513206482,-0.14425060153007507,-0.11331374198198318,-0.06738413125276566,-0.14720837771892548,-0.16617010533809662,0.16602186858654022,0.15724733471870422,0.1110687404870987,-0.017739610746502876,-0.041715946048498154,0.1749122142791748,-0.003726292634382844,0.019783129915595055,-0.0721835047006607,0.03892592713236809,-0.09928545355796814,0.19082248210906982,0.18890038132667542,0.16420595347881317,-0.014932152815163136,-0.01319678220897913,0.011938896030187607,-0.0880497619509697,0.17312178015708923,0.10724689066410065,0.04366178810596466,-0.028398113325238228,-0.0033088005147874355,-0.01003552507609129,0.013622719794511795,0.06764833629131317,-0.09036753326654434,-0.20539383590221405,0.10370234400033951,-0.19386160373687744,0.11554061621427536,-0.06501740962266922,0.11920881271362305,-0.04588165134191513,0.14703384041786194,-0.028653277084231377,0.08779264986515045,-0.10773399472236633,0.1654723435640335,0.12627416849136353,-0.18657523393630981,-0.17652682960033417,0.09229293465614319,0.10721232742071152,-0.07935743778944016,-0.15626099705696106,0.1472356766462326,-0.16043025255203247,-0.14363500475883484,0.007192953489720821,-0.15085338056087494,0.0591508150100708,-0.051787473261356354,0.15762309730052948,-0.18048380315303802,0.08017898350954056,-0.1130736917257309,-0.16683360934257507,-0.022478563711047173,-0.1809147745370865,0.007819886319339275,-0.11678530275821686,-0.22343845665454865,-0.08231807500123978,-0.041969869285821915,-0.010661723092198372,-0.17852364480495453,-0.03994724154472351,0.03963419049978256,0.06749899685382843,0.09950339049100876,0.19945502281188965,0.03435957804322243,0.2083480954170227,0.13133318722248077,-0.09297800064086914,0.03910792991518974,0.15858371555805206,-0.04038982093334198,-0.0054505993612110615,-0.11512698978185654,0.17791612446308136,0.08067711442708969,0.088294118642807,-0.02122749388217926,0.06464596092700958,-0.08176066726446152,0.026702402159571648,0.0707918331027031,0.08189551532268524,0.05073085054755211,0.0958624854683876,0.1140044555068016,0.015745870769023895],[-0.0711752399802208,0.16109947860240936,-0.028643231838941574,-0.08094488829374313,-0.20492246747016907,0.09339357912540436,-0.23939138650894165,-0.19962464272975922,-0.1605435311794281,-0.09004487097263336,0.015494344756007195,0.04239900782704353,0.2426784187555313,0.0689365416765213,0.09323561191558838,-0.037815991789102554,-0.14152558147907257,-0.11827164888381958,0.17278791964054108,-0.0899474024772644,0.13438661396503448,0.02468714490532875,-0.021188858896493912,-0.11771676689386368,0.044001948088407516,0.004648328293114901,0.03365413844585419,-0.07201538234949112,-0.11399723589420319,0.12522944808006287,-0.15147767961025238,0.11253662407398224,0.11661500483751297,-0.24184343218803406,0.004329129587858915,-0.11137000471353531,0.012381642125546932,0.045851897448301315,-0.06878041476011276,0.22617055475711823,-0.18732136487960815,-0.19002212584018707,-0.1664033681154251,0.0005774212768301368,-0.13708427548408508,0.09765271842479706,0.02550709992647171,-0.06002925708889961,-0.15989573299884796,0.20095638930797577,0.052730388939380646,0.016036853194236755,-0.1196526288986206,0.1231553852558136,0.13459457457065582,-0.19939325749874115,-0.12788142263889313,-0.05140765383839607,-0.07778308540582657,-0.05283106490969658,0.0633595883846283,-0.10847396403551102,-0.16049236059188843,-0.19588200747966766,0.008264890871942043,0.1329391598701477,-0.2194923460483551,0.07067819684743881,-0.08973318338394165,-0.011807997711002827,-0.15466426312923431,0.09402715414762497,-0.174900084733963,0.01695661060512066,0.14243823289871216,-0.2278560847043991,-0.07284346222877502,-0.165828675031662,-0.20038044452667236,-0.01021132804453373,0.07987377047538757,-0.05389580503106117,0.14120788872241974,0.10341576486825943,-0.2452201545238495,-0.04151228442788124,-0.052199553698301315,0.1371888816356659,-0.14918622374534607,0.03301180526614189,-0.16359472274780273,0.05381535366177559,0.09959200024604797,-0.003526988672092557,-0.09016600251197815,-0.07526528090238571,-0.09949184209108353,0.14793626964092255,0.07450840622186661,-0.1942489892244339,-0.1745060384273529,0.08129552006721497,-0.10004505515098572,-0.14342738687992096,0.08717174828052521,0.18798178434371948,-0.06557519733905792,-0.034488432109355927,0.14091883599758148,-0.17499718070030212,-0.038120947778224945,0.04815838485956192,-0.07951390743255615,-0.023179838433861732,-0.1857193112373352,0.13550376892089844,-0.016146620735526085,-0.12735702097415924,0.06113196909427643,0.11788837611675262,-0.08822614699602127,0.17556534707546234,0.21980410814285278,-0.1243620291352272,-0.1898183524608612,0.12066857516765594,-0.1283826231956482,0.21571660041809082,0.15440715849399567,-0.014245577156543732,-0.11573515832424164,-0.1485251933336258,0.07050151377916336,0.00863692443817854,0.06220851466059685,0.17582066357135773,-0.0646522268652916,-0.16576892137527466,-0.06663599610328674,-0.0720537081360817,0.1329042911529541,-0.08272963017225266,0.08896651864051819,-0.048138655722141266,0.1370314508676529,-0.0009249166469089687,-0.18469032645225525,-0.1363029032945633,0.1629214584827423,0.059623196721076965],[-0.24962258338928223,0.03308197483420372,-0.1863611936569214,-0.13119029998779297,-0.1242259070277214,-0.2236705720424652,-0.22063139081001282,-0.09812666475772858,0.05727780982851982,-0.009326537139713764,0.054841406643390656,-0.01757233962416649,-0.2223101109266281,-0.04761148989200592,0.17975124716758728,-0.15929026901721954,-0.1491090953350067,0.12638218700885773,-0.10691704601049423,0.10206758975982666,0.0034379702992737293,-0.0697016492486,0.07772701233625412,-0.14149580895900726,-0.15154969692230225,-0.24678552150726318,-0.055345844477415085,0.03203778713941574,0.228956401348114,-0.05991533026099205,0.015779344365000725,0.19386868178844452,-0.13311247527599335,-0.2579770088195801,-0.03505123034119606,0.06022481247782707,0.17508089542388916,-0.036570996046066284,-0.018532130867242813,-0.11041165143251419,0.053515780717134476,0.14376983046531677,-0.15524742007255554,-0.1773661971092224,0.025306910276412964,-0.21423593163490295,-0.2413462996482849,0.1386057585477829,0.04515489190816879,0.07427958399057388,0.0549590066075325,0.20509013533592224,-0.11619367450475693,-0.008725589141249657,-0.08767224848270416,0.040005315095186234,-0.007143646478652954,0.1342041939496994,-0.02334269881248474,-0.18235567212104797,-0.025331692770123482,0.0024905730970203876,0.14267922937870026,0.130923792719841,-0.09312206506729126,0.07886390388011932,0.009181935340166092,-0.2093290537595749,0.05676335468888283,-0.1480000913143158,0.04050450772047043,0.0828467532992363,-0.1384962797164917,0.02560231275856495,0.07109424471855164,-0.009501690976321697,0.1516992598772049,-0.02509826421737671,-0.1527443826198578,-0.1693635731935501,-0.14212384819984436,0.07369720190763474,-0.18697841465473175,-0.06603915989398956,-0.15418264269828796,-0.0706750750541687,-0.03301716595888138,0.06819424033164978,-0.15945105254650116,-0.08086046576499939,-0.22130510210990906,-0.05651800334453583,-0.06177429482340813,0.08547613024711609,-0.004395881202071905,0.10413410514593124,-0.036745913326740265,-0.04142683371901512,0.10553393512964249,0.0336712971329689,0.0027923777233809233,0.13756559789180756,0.060692764818668365,-0.14740897715091705,-0.004696359857916832,-0.0033823188859969378,-0.21545450389385223,0.029724573716521263,-0.01760377176105976,-0.20032671093940735,-0.13885681331157684,-0.028455136343836784,0.009375042282044888,0.14198972284793854,0.006931759882718325,0.14031751453876495,-0.10107310861349106,-0.1695978045463562,-0.17213284969329834,-0.07837504148483276,-0.2286013960838318,-0.03360455855727196,0.16476421058177948,-0.11447180062532425,-0.010584396310150623,-0.04470238834619522,0.0602068156003952,-0.1348714828491211,0.03710063546895981,-0.11683067679405212,-0.1641344428062439,-0.11638150364160538,0.11680044233798981,0.17540328204631805,-0.0649615079164505,0.3200274109840393,-0.010144722647964954,0.011321415193378925,-0.014759774319827557,-0.18112531304359436,0.05005699023604393,-0.015073741786181927,-0.2546773850917816,-0.021787716075778008,0.026444461196660995,0.05193750560283661,-0.04638950154185295,0.17913250625133514,0.08191531896591187,-0.22569848597049713],[-0.1636180728673935,-0.028322460129857063,0.18003056943416595,-0.03716566041111946,-0.03725831210613251,0.09818150103092194,0.10136763751506805,0.0830266997218132,-0.19173318147659302,0.08808392286300659,0.13843609392642975,0.20186050236225128,-0.07970204204320908,0.17852112650871277,0.10187354683876038,-0.1622018665075302,-0.11643152683973312,0.17732839286327362,-0.04324112460017204,-0.0350765623152256,0.12351226061582565,-0.16090859472751617,0.030445801094174385,-0.02155684307217598,0.008565048687160015,-0.051509276032447815,0.16340480744838715,0.12833265960216522,0.1571478694677353,0.07410810142755508,-0.05117093399167061,-0.06805767118930817,-0.12483072280883789,-0.003912523854523897,0.3034272789955139,0.1727391481399536,0.011771433986723423,-0.08747892826795578,-0.14876718819141388,-0.05210188776254654,0.133664071559906,0.08323393017053604,-0.014642677269876003,-0.05611699819564819,-0.1542270928621292,-0.05848001688718796,-0.0985683724284172,0.1866016387939453,-0.10342143476009369,-0.04320792108774185,0.18456979095935822,-0.06250157952308655,0.10884498804807663,-0.056310273706912994,0.015643903985619545,-0.11958470940589905,0.027422768995165825,-0.05321291461586952,0.18187379837036133,-0.12999014556407928,0.09245768189430237,-0.08680814504623413,0.04726918041706085,-0.08239578455686569,0.11000322550535202,-0.05438367649912834,0.039961379021406174,0.09880237281322479,0.02951565571129322,0.1573028564453125,-0.043879568576812744,-0.10893919318914413,0.08207036554813385,0.18111295998096466,-0.056136030703783035,-0.21326039731502533,-0.0944288820028305,0.09133312851190567,-0.11970427632331848,0.2636464536190033,0.0662970095872879,0.10078404098749161,0.021667147055268288,-0.13595126569271088,-0.16797611117362976,0.11147177964448929,-0.025231223553419113,-0.1098489910364151,-0.025243030861020088,0.01418396644294262,-0.15576283633708954,0.04985756054520607,0.05096118524670601,-0.2052479386329651,-0.0623958446085453,-0.18850454688072205,-0.07435955852270126,-0.02156098745763302,-0.07592401653528214,-0.09698715806007385,0.151103213429451,0.0826982781291008,-0.14643594622612,-0.2291921228170395,-0.1436033695936203,0.05835333094000816,-0.12284630537033081,0.039623044431209564,-0.01660776697099209,0.07126808166503906,0.2019028514623642,-0.2631414234638214,0.07129140943288803,0.1274406909942627,-0.08430079370737076,-0.04591430351138115,-0.08654962480068207,-0.2130247950553894,-0.027241110801696777,-0.12178099900484085,-0.2312944084405899,0.17710541188716888,-0.10961266607046127,-0.1477818787097931,0.10356757044792175,0.022295307368040085,-0.13633045554161072,-0.008757521398365498,0.16844293475151062,0.38438305258750916,-0.008251436054706573,-0.16291548311710358,0.1050451323390007,0.11751684546470642,0.05604003369808197,-0.14391827583312988,0.01858091913163662,0.07850843667984009,0.09452525526285172,0.19767503440380096,-0.004509093705564737,0.14864641427993774,-0.07944689691066742,0.12694773077964783,0.1434594690799713,0.20252670347690582,0.05620908737182617,-0.13414722681045532,0.19665883481502533,0.0850381851196289],[-0.061908312141895294,0.010491786524653435,0.1547679752111435,-0.08897530287504196,-0.15712033212184906,-0.015060304664075375,-0.13808917999267578,0.0342104397714138,-0.1018989160656929,-0.11043605208396912,-0.05722678825259209,0.12375916540622711,-0.13033905625343323,-0.1447681188583374,-0.17122547328472137,0.008210462518036366,-0.13495242595672607,-0.08698886632919312,0.19737695157527924,0.20020794868469238,0.16247856616973877,-0.09034682810306549,0.16248399019241333,-0.03453835844993591,-0.17924270033836365,0.029088875278830528,-0.23879970610141754,0.080824114382267,-0.0752352699637413,0.09676321595907211,-0.02152564376592636,0.10736989229917526,0.07020775228738785,0.15737511217594147,-0.1915670484304428,-0.16118371486663818,-0.07720240950584412,-0.04171914979815483,0.14959582686424255,-0.029048454016447067,-0.0747741162776947,0.15573599934577942,-0.14292018115520477,-0.12824919819831848,-0.028911864385008812,-0.058471087366342545,-0.2493799775838852,0.04521442577242851,-0.060203179717063904,-0.06606828421354294,-0.18044406175613403,-0.20831818878650665,0.12516050040721893,0.17581938207149506,-0.004125189036130905,-0.0028507213573902845,0.004610103089362383,-0.06000357121229172,-0.09665866196155548,0.039325740188360214,0.09612011909484863,-0.09017070382833481,0.04897325858473778,0.04093063995242119,0.09525933861732483,0.2313409149646759,0.1685100644826889,0.10172222554683685,-0.14082825183868408,-0.17469607293605804,0.09075576812028885,