{"type":"NeuralNetwork","sizes":[150,50,40,20,7,1],"layers":[{"weights":[],"biases":[]},{"weights":[[0.07177087664604187,-0.155689537525177,0.006572712678462267,-0.25649720430374146,-0.1659533828496933,-0.10392961651086807,0.11955065280199051,-0.20574285089969635,0.032560478895902634,-0.0335514210164547,-0.14815810322761536,-0.16226577758789062,0.06297371536493301,-0.055174607783555984,0.08141390979290009,-0.04090379178524017,0.0468856543302536,-0.009770523756742477,0.09869897365570068,-0.15860052406787872,-0.3327352702617645,-0.03418256714940071,-0.2080455869436264,-0.3679468333721161,-0.3487911820411682,0.00908911507576704,-0.11113046854734421,-0.04502493888139725,0.15244419872760773,0.03738190606236458,-0.2118360847234726,-0.008105574175715446,-0.018387962132692337,0.03937274217605591,-0.06126348301768303,0.22831642627716064,-0.1267961859703064,0.18524254858493805,0.12986667454242706,-0.4071696698665619,0.08908960223197937,0.1398245245218277,-0.18475358188152313,0.2680296003818512,0.27376267313957214,-0.07256726175546646,0.15848860144615173,-0.2534196376800537,-0.3983859121799469,0.06200537085533142,0.240888774394989,0.05800113454461098,0.1134723648428917,0.3109927773475647,-0.06355181336402893,0.0008478004019707441,-0.14965660870075226,-0.15346044301986694,-0.17155611515045166,-0.12259428948163986,-0.2646511495113373,-0.21309712529182434,0.023090925067663193,-0.3001633882522583,-0.06519033014774323,-0.15141712129116058,-0.3432718515396118,-0.1427924633026123,0.06662453711032867,-0.1971455216407776,-0.13538843393325806,-0.09787224233150482,-0.13273505866527557,-0.39025941491127014,-0.43794703483581543,-0.575689971446991,-0.3644436299800873,-0.4121052920818329,0.9766716361045837,0.06731852144002914,-0.24766020476818085,-0.4916795492172241,-0.2547982931137085,-0.1541108638048172,-0.36668661236763,-0.0899798795580864,-0.02752203866839409,-0.2723129987716675,0.20204034447669983,0.1822851151227951,-0.6046425700187683,0.1626310795545578,0.06606247276067734,0.5110673308372498,0.2442018687725067,0.11771427094936371,0.2231685221195221,0.02059497870504856,0.001728286501020193,0.2060810923576355,0.18167808651924133,-0.090775266289711,-0.000013264325389172882,0.17008492350578308,0.012552892789244652,0.3471696078777313,-0.2509263753890991,-0.43521589040756226,0.1408461630344391,-0.014591207727789879,-0.09332448244094849,0.6621354222297668,-0.3271310031414032,-0.19512969255447388,0.6881153583526611,-0.22394347190856934,0.0024400169495493174,0.02530316635966301,-0.0841536819934845,0.04852358624339104,0.5009927749633789,0.126949280500412,-0.03906413912773132,0.24596786499023438,-0.2784939408302307,-0.20385804772377014,0.04544738680124283,-0.13260583579540253,-0.0864783450961113,0.24059227108955383,0.1540803760290146,-0.1369466930627823,0.3436233699321747,-0.21630455553531647,-0.37817785143852234,0.14435754716396332,-0.2889087498188019,0.0869762971997261,-0.043569356203079224,0.23206010460853577,-0.2808874547481537,0.28149235248565674,-0.14931967854499817,-0.0783715471625328,0.08921346813440323,0.07573949545621872,0.08946075290441513,0.25009164214134216,-0.05913664400577545,-0.24390622973442078],[-0.24550600349903107,0.09271925687789917,0.07604367285966873,0.18571074306964874,0.0372668132185936,0.2347569763660431,-0.0631205141544342,0.9293281435966492,0.36033347249031067,-0.5546611547470093,0.034826334565877914,-0.3803474009037018,-0.49823498725891113,0.3670908808708191,0.17496149241924286,-0.019240375608205795,0.4060346484184265,0.22032062709331512,0.5905072093009949,0.6486489772796631,0.7044806480407715,0.7588268518447876,0.5184035301208496,0.7215170860290527,1.1591910123825073,0.4094923138618469,-0.08331276476383209,0.4859505891799927,-0.4004887640476227,-0.1500585675239563,0.9727756977081299,0.1360986828804016,-0.19920456409454346,-0.7300968766212463,0.5619307160377502,-0.14280295372009277,0.3086950182914734,-0.146765798330307,0.19549565017223358,0.2898305356502533,-0.32981982827186584,-0.047369979321956635,-0.036964356899261475,-0.7916916012763977,-0.21023038029670715,-0.38392603397369385,0.3169104754924774,0.1508832573890686,-0.03628801181912422,-0.14691981673240662,-0.11310620605945587,-0.07675517350435257,-0.4311647415161133,-0.44855934381484985,-0.5180468559265137,0.22227834165096283,0.019493496045470238,-0.2359151840209961,0.37709924578666687,-0.10431485623121262,0.14278942346572876,0.22807832062244415,0.11953577399253845,0.13981853425502777,-0.40421822667121887,-0.40439751744270325,0.11146815866231918,0.276807576417923,0.059158805757761,0.16700048744678497,0.05225006863474846,-0.3239985406398773,-0.683123767375946,0.8573406338691711,0.8887748718261719,-0.3253627121448517,0.9003356099128723,1.0166743993759155,-2.385523557662964,0.46411117911338806,0.4749681055545807,1.269479513168335,0.7965667843818665,0.3196088969707489,1.1945677995681763,1.1168110370635986,0.6534159183502197,0.6831276416778564,-0.6424055099487305,-0.3858860731124878,0.8739562034606934,0.5352587103843689,0.5338900685310364,0.215163454413414,-0.5950757265090942,-0.26854559779167175,0.2183593362569809,0.5557417869567871,0.4017626941204071,-0.2994227707386017,0.4394015669822693,0.09312279522418976,0.19791929423809052,0.07627453655004501,0.6104094386100769,-0.05909225717186928,0.6124109029769897,0.33672887086868286,-0.8882518410682678,0.47082656621932983,0.3862496614456177,-1.3174383640289307,0.5868426561355591,0.41328907012939453,-1.238249659538269,0.6491073966026306,0.15118613839149475,-0.05052631348371506,-0.016845708712935448,0.007974271662533283,-0.7817779779434204,-0.4192945063114166,-0.40665602684020996,0.04572116956114769,0.41104504466056824,0.27332985401153564,-0.1347457319498062,0.1737186163663864,0.08055423945188522,-0.1322815716266632,-0.44918355345726013,-0.39745640754699707,-0.03610149770975113,0.8127344250679016,0.6104437708854675,-0.15136677026748657,0.06800873577594757,-0.3388647735118866,-0.28131067752838135,-0.8777897953987122,-0.36551791429519653,-0.3683393597602844,0.2073633372783661,0.10187935829162598,-0.3104289472103119,-0.09464827924966812,0.2763884365558624,-0.3723197281360626,0.10744535177946091,0.02732556127011776],[-0.020349834114313126,0.07992342859506607,0.29615169763565063,0.46820589900016785,0.3240419328212738,0.0684095248579979,0.3530953526496887,0.21644777059555054,0.2723466157913208,-0.05548371747136116,0.548400342464447,0.16651129722595215,-0.3316613733768463,0.37710073590278625,0.309672087430954,0.1685224324464798,0.4580194056034088,0.1795671582221985,0.1928977370262146,-0.07942447811365128,0.36683139204978943,0.568291962146759,0.012374679557979107,0.24686090648174286,0.5931735634803772,0.42795753479003906,0.26081663370132446,0.198508620262146,0.2729799151420593,0.20199531316757202,0.47244012355804443,0.3034660220146179,0.075986847281456,-0.03298747166991234,-0.16051286458969116,-0.23189857602119446,0.09141325205564499,-0.3910045921802521,-0.3414602279663086,-0.06820470094680786,-0.44091176986694336,-0.07948637753725052,0.15421482920646667,-0.29036960005760193,-0.1491962969303131,0.05328864976763725,0.13500328361988068,0.06030319258570671,0.21576744318008423,-0.33572113513946533,-0.17548531293869019,0.05404511094093323,-0.12997187674045563,-0.19190198183059692,0.04615490883588791,0.15315300226211548,0.20998340845108032,0.14536119997501373,-0.053753599524497986,0.1528387814760208,0.2497379630804062,0.055777400732040405,-0.002494598738849163,0.38919126987457275,-0.09714341908693314,-0.1595788449048996,-0.020638860762119293,0.41028210520744324,0.04576148837804794,0.09693969041109085,0.09176857024431229,-0.06525444239377975,-0.9191439151763916,0.21030184626579285,0.45331689715385437,-0.4214519262313843,0.40567561984062195,0.4774433970451355,-1.0224696397781372,0.1354721337556839,0.17444439232349396,-0.05789899453520775,0.2341194748878479,-0.028266355395317078,-0.18448074162006378,-0.002054418670013547,-0.1498604416847229,-0.005055638030171394,-0.3404449224472046,0.004556659143418074,-0.18824319541454315,-0.2291760891675949,0.1204623281955719,-0.7973960041999817,-0.7523055672645569,-0.3782799541950226,-0.11023230850696564,0.09021887183189392,0.08409779518842697,0.5429617166519165,-0.23541274666786194,0.07126155495643616,0.6065966486930847,0.15000469982624054,0.3701542615890503,0.4922330677509308,0.10433854162693024,0.2518654465675354,0.026487845927476883,-0.026914596557617188,0.04542365297675133,0.15804755687713623,0.2729124426841736,0.28630685806274414,-0.6887893080711365,0.1247967779636383,0.29002052545547485,-0.2753106355667114,0.1622493714094162,0.20337671041488647,-0.390967458486557,-0.22262699902057648,-0.10551929473876953,-0.5184465646743774,0.6044192910194397,0.2968953549861908,-0.4297371208667755,-0.19778171181678772,-0.03350710868835449,-0.5247294902801514,-0.05448639765381813,-0.09081463515758514,-0.17149372398853302,0.18244582414627075,0.15678223967552185,-0.3880682587623596,0.3399337828159332,-0.05984048917889595,-0.2874027192592621,0.026423977687954903,0.10565703362226486,-0.23514792323112488,0.28624090552330017,0.23248042166233063,-0.34331414103507996,-0.032142166048288345,0.29214319586753845,-0.43847495317459106,-0.11663836985826492,0.07250119000673294],[0.4395430088043213,-0.23519012331962585,-0.12773959338665009,0.2756734788417816,0.3351387083530426,-0.026477133855223656,0.12693357467651367,-0.3817259669303894,-0.24435850977897644,0.4339465796947479,-0.191807359457016,-0.2938988506793976,0.4068946838378906,0.11809296160936356,0.33995306491851807,-0.2725558876991272,-0.7635825276374817,-0.6628687977790833,-0.5199050903320312,0.7369537949562073,0.250975638628006,-1.1876699924468994,-0.00016643275739625096,-0.322618693113327,-1.210274338722229,-0.16507704555988312,-0.06909536570310593,-0.8543278574943542,0.33961620926856995,0.11570869386196136,-0.9536446928977966,-0.48028871417045593,-0.3494850993156433,-0.3605547249317169,-0.5470350384712219,0.03274071589112282,-0.32494932413101196,0.060449227690696716,0.13201402127742767,-0.47851836681365967,0.44991499185562134,-0.128011092543602,0.28662267327308655,0.34679853916168213,0.41905733942985535,0.3701580762863159,0.22675761580467224,-0.03177294507622719,-0.09875735640525818,0.22861798107624054,0.35117214918136597,0.15506169199943542,0.05680099129676819,0.030857356265187263,0.20781318843364716,-0.4800887405872345,-0.45594602823257446,-0.36914125084877014,-0.41286537051200867,-0.2606867253780365,-0.4149293005466461,-0.21433286368846893,-0.34865960478782654,-0.15638966858386993,0.18603864312171936,-0.10106141865253448,0.005314185284078121,-0.49732598662376404,-0.3472771644592285,-0.6374049186706543,-0.16526886820793152,0.0920693576335907,0.32007554173469543,-0.3489684760570526,-0.7457559704780579,-0.5901091694831848,-0.8698405623435974,-0.795994758605957,1.851772665977478,-0.17614871263504028,-0.12674520909786224,-0.8379568457603455,-0.730279803276062,-0.46401751041412354,-0.22187285125255585,-0.0016087079420685768,0.07347944378852844,0.027601994574069977,-0.1587420403957367,-0.21912655234336853,0.18774813413619995,-0.31792905926704407,-0.15060633420944214,-0.561690628528595,0.7404356598854065,0.42394307255744934,-0.6239355206489563,-0.00599918607622385,-0.0908130332827568,-0.58436119556427,-0.12956847250461578,-0.05925167351961136,-0.5802121758460999,-0.08833140134811401,-0.3029699921607971,-0.07028113305568695,-0.8129656910896301,-0.5278310775756836,0.5004663467407227,0.16470666229724884,-0.08725428581237793,1.0426896810531616,-0.6194689273834229,-0.5128899216651917,0.9485052824020386,-0.17671388387680054,0.33063527941703796,-0.07056550681591034,-0.29862895607948303,-0.3118312954902649,0.3073481321334839,0.5569506287574768,0.16927067935466766,0.6025581955909729,-0.6388038396835327,-0.604642927646637,0.5336362719535828,0.31519389152526855,0.1348344385623932,0.4576282501220703,0.11729621887207031,0.09549235552549362,0.17462557554244995,-0.2520177662372589,-0.3814030587673187,0.07803745567798615,-0.29430750012397766,-0.03369220718741417,0.11764976382255554,0.13022492825984955,-0.28180941939353943,-0.01805385760962963,-0.19386295974254608,-0.2099056988954544,0.15165266394615173,0.022781314328312874,-0.06822313368320465,-0.03776298090815544,-0.1788569688796997,-0.010473272763192654],[-0.4575943052768707,0.18241442739963531,0.2105603963136673,0.03765616565942764,0.8523380160331726,-0.031730059534311295,-0.8173080682754517,1.266092300415039,-0.05235103517770767,-0.8729604482650757,0.3804384768009186,-0.08333980292081833,-1.2484594583511353,0.4124269187450409,0.1888614147901535,-0.3831038773059845,0.7075217962265015,0.478799432516098,1.1074552536010742,0.24917206168174744,0.3238939940929413,1.215272068977356,0.27772021293640137,0.4728613793849945,2.5385563373565674,0.646799623966217,0.10416553914546967,1.456798791885376,0.1403384655714035,0.31851959228515625,1.752297043800354,0.8904017210006714,0.7614176869392395,-0.6001816987991333,1.1176860332489014,0.15529608726501465,-0.674296498298645,-0.48441529273986816,-0.339613139629364,-0.5846664905548096,-0.34707820415496826,-0.13982924818992615,-0.5020601153373718,-0.5634008049964905,-0.18575738370418549,-0.6610457301139832,-0.11991331726312637,-0.11504785716533661,-0.6450034976005554,-0.07778923213481903,-0.11302197724580765,-0.874378502368927,-1.4905611276626587,-0.6234409213066101,-0.8259325623512268,0.9011189341545105,0.5797154903411865,-0.5682987570762634,0.36099764704704285,-0.03385142609477043,-0.18752260506153107,0.5005227327346802,0.16150476038455963,0.27070364356040955,0.06465603411197662,-0.053623445332050323,-0.6527210474014282,0.8207077383995056,0.6626542806625366,-0.4534578025341034,-0.43063482642173767,-0.36245283484458923,-1.469180703163147,1.032606601715088,1.0615864992141724,-0.02435566671192646,0.8066531419754028,0.8070790767669678,-1.801418423652649,0.986201822757721,0.4347802698612213,2.042426347732544,1.0771288871765137,0.2652797996997833,2.477248191833496,0.9561736583709717,0.2964484989643097,-0.6697484850883484,-0.1394980102777481,0.2611270546913147,0.38628649711608887,-0.4041250944137573,-0.22826537489891052,0.14904989302158356,-0.942416250705719,-0.07988394796848297,0.6583839058876038,1.2047673463821411,0.7432435750961304,0.999594509601593,-0.013988249935209751,-0.428475022315979,0.9762719869613647,0.14337067306041718,0.302918404340744,0.5517967343330383,0.15283259749412537,0.25506240129470825,0.8779495358467102,0.5175159573554993,0.14820347726345062,-0.9081745147705078,1.1964064836502075,0.34624961018562317,0.09648917615413666,0.8489961624145508,-0.00013345143815968186,0.4669789969921112,0.6095476746559143,0.1967637538909912,0.04928917810320854,-1.2763603925704956,-1.014431357383728,-0.16785378754138947,1.21060049533844,0.6240977644920349,-0.45759034156799316,0.10525288432836533,-0.07178249210119247,-0.3560991585254669,-0.5320122838020325,-0.5050147175788879,-0.2980230450630188,1.0748059749603271,0.6811827421188354,-0.31704962253570557,0.4307629466056824,-0.4641631245613098,-0.4640979468822479,-0.372629314661026,0.3495223820209503,-0.2655821442604065,0.4165198802947998,0.3424666225910187,-0.3430783450603485,0.34589383006095886,0.5645461678504944,-0.5241541266441345,0.2271088808774948,0.06221259385347366],[0.3674072325229645,-0.07613862305879593,0.12687064707279205,0.6289023756980896,-0.4067613482475281,-0.25488853454589844,0.3508532643318176,0.020879192277789116,0.4247073531150818,0.020779170095920563,0.24556198716163635,0.15598218142986298,0.06176140159368515,0.4923737645149231,0.6195514798164368,0.14856714010238647,0.3581100106239319,0.6365313529968262,0.17872384190559387,-0.006624752189964056,0.33829712867736816,0.3261518180370331,0.01976792700588703,0.08007633686065674,0.09054403752088547,0.1873645782470703,0.12190866470336914,0.5385591387748718,-0.1868210732936859,0.08461827039718628,0.634731650352478,-0.5253531336784363,-0.14040248095989227,0.10332605987787247,-0.3180560767650604,0.0763484388589859,0.07259397208690643,-0.12839795649051666,0.14449162781238556,0.2653011977672577,-0.4090636968612671,0.0056400117464363575,0.3697076141834259,-0.7103533148765564,-0.37616002559661865,0.21929295361042023,-0.35052183270454407,0.21646448969841003,0.5135751962661743,-0.02827945351600647,0.28731438517570496,0.1417369693517685,-0.39461156725883484,0.17720665037631989,-0.22892963886260986,0.08949673920869827,0.25419169664382935,-0.36507925391197205,-0.22798018157482147,0.057354655116796494,-0.10898033529520035,0.306522011756897,0.3469187021255493,0.09345155209302902,-0.4179096817970276,-0.20508883893489838,0.0957484319806099,0.00873846746981144,0.016191402450203896,-0.2261183261871338,0.30598196387290955,-0.08130089193582535,0.015062703751027584,0.42403504252433777,0.3715253472328186,-0.24847714602947235,0.4344432055950165,0.15298566222190857,-0.33048996329307556,-0.5228275656700134,0.22854308784008026,-0.06257519870996475,0.3751310110092163,0.6453052163124084,-0.13409435749053955,-0.011074135079979897,0.1275431364774704,0.6014021635055542,-0.3334314525127411,0.017530299723148346,0.638037383556366,-0.09119966626167297,-0.04497730731964111,-0.5939119458198547,-0.21471084654331207,0.31374600529670715,-0.3749520778656006,0.356987327337265,0.35653385519981384,-0.36575350165367126,0.11184731125831604,0.32320353388786316,-0.42725372314453125,0.14532187581062317,0.2641008198261261,-1.460892677307129,0.1727142035961151,0.5706226825714111,-0.9953415393829346,0.2596984803676605,-0.12875671684741974,-0.9300053119659424,0.3739056885242462,0.27998629212379456,-1.2090706825256348,0.45494163036346436,0.32132309675216675,-0.11055003851652145,0.31002259254455566,0.16626156866550446,-0.6214325428009033,0.04133949056267738,0.37068524956703186,-0.41782593727111816,-0.1681995540857315,0.35783180594444275,-0.23186597228050232,0.17079360783100128,0.23425795137882233,-0.6044592261314392,0.24487948417663574,-0.048999715596437454,-0.14924925565719604,-0.09487789124250412,0.32285892963409424,0.3091382682323456,0.08381337672472,0.3505944311618805,-0.21298529207706451,0.18361595273017883,0.2587522268295288,-0.18784137070178986,0.14265741407871246,0.05312082916498184,-0.17509867250919342,-0.22052471339702606,0.2263612598180771,-0.3739951252937317,-0.02355552464723587,-0.1299828439950943],[-0.6021022796630859,-0.4508708417415619,-0.34793442487716675,0.22123104333877563,-0.8960025310516357,-0.048378292471170425,-0.8162654042243958,0.5915607213973999,0.36881887912750244,-1.610388159751892,0.006256846245378256,0.139082133769989,-1.5469369888305664,-0.05474371090531349,-0.0498492568731308,-0.2303256392478943,-0.7690967917442322,-0.15642909705638885,0.21287302672863007,-0.06016756221652031,0.3663889169692993,1.3743348121643066,0.6026280522346497,0.7895399928092957,0.9620172381401062,0.08284474164247513,0.014302127063274384,0.5481014847755432,0.4139341115951538,0.1460193544626236,0.530593991279602,0.07615538686513901,-0.08644429594278336,-0.1988370716571808,0.49333709478378296,0.48627305030822754,-0.47244933247566223,0.451824426651001,0.6988580822944641,-0.7004441022872925,-0.21156181395053864,0.3294435441493988,0.4695703685283661,0.34522727131843567,0.22874613106250763,-0.517001748085022,-0.816180944442749,-0.011511560529470444,-0.3700464069843292,0.7530708312988281,0.5215367078781128,0.3868233859539032,0.1504245400428772,-0.034711625427007675,-0.9179564714431763,0.08689545094966888,0.7340167164802551,-0.09713082015514374,0.32076209783554077,0.5432259440422058,0.23756293952465057,0.3343815505504608,0.36453860998153687,0.2079186886548996,-0.651722252368927,-0.34743642807006836,0.23202867805957794,0.023038316518068314,-0.03234517574310303,0.1830522119998932,0.02888338267803192,0.03455820307135582,-0.9451826214790344,0.6848891377449036,0.8251572847366333,-0.16414320468902588,0.2672847807407379,0.17502467334270477,-2.5080230236053467,0.07812975347042084,0.10198356956243515,-0.032333116978406906,0.3110125660896301,0.34917956590652466,0.8837846517562866,1.2252968549728394,0.7903409004211426,-0.11428407579660416,-0.025424154475331306,0.2273448407649994,-0.3442201018333435,0.17311184108257294,-0.020726874470710754,-0.40605905652046204,-0.03932639956474304,-0.10832340270280838,-0.23816505074501038,0.7251494526863098,0.47491148114204407,-0.19308806955814362,0.259185791015625,0.12416739016771317,-1.0817551612854004,0.37089455127716064,0.3918445110321045,-0.5702443718910217,0.6808236241340637,0.5345038175582886,-0.5228652358055115,-0.5664955377578735,0.2940192222595215,-2.3485445976257324,1.1943827867507935,0.9645213484764099,-0.45792168378829956,0.5133029818534851,0.5109174251556396,0.17368276417255402,0.758418619632721,0.4963840842247009,-0.7336872220039368,-0.2926878333091736,0.17344774305820465,0.2723807990550995,0.1092124953866005,0.4671684801578522,-0.06394876539707184,0.3739747107028961,0.42403706908226013,-0.35514622926712036,-0.1403883397579193,0.11935015767812729,-0.20750413835048676,0.2547655701637268,0.5728968381881714,-0.48516425490379333,-0.6081588268280029,-0.297383576631546,-0.5495173931121826,0.07583253085613251,0.2733980417251587,-0.39439457654953003,-0.1826377809047699,0.31406402587890625,-0.5914949178695679,0.5056149363517761,0.6482638120651245,-0.14712388813495636,0.06445617973804474,0.13139557838439941],[-0.3910244107246399,-0.2745729088783264,-0.2839542031288147,-0.3255264461040497,-0.006536688655614853,-0.0947566106915474,-0.2929205000400543,-0.3073713481426239,-0.4435748755931854,-0.2945261001586914,-0.22546644508838654,-0.26776814460754395,-0.08977899700403214,-0.6985239386558533,-0.15193988382816315,-0.28214046359062195,-0.36600440740585327,-0.30873000621795654,-0.378389835357666,0.6605952978134155,0.187442809343338,-0.7695460915565491,-0.3538382947444916,-0.19664627313613892,-0.7712429761886597,-0.21446682512760162,-0.22241339087486267,-0.5038191080093384,0.27951374650001526,-0.007852629758417606,-0.3151719570159912,-0.7584078311920166,-0.4068984389305115,0.3477519154548645,0.06131482124328613,0.10218791663646698,0.3942234218120575,-0.7240764498710632,-0.29311832785606384,0.43857061862945557,-0.257887065410614,-0.6117621064186096,0.14891213178634644,-0.31670644879341125,-0.3385871648788452,0.18999110162258148,-0.8905003666877747,-0.5222774147987366,-0.2923174202442169,0.26568394899368286,0.18122799694538116,-0.2878173887729645,0.27128738164901733,0.059013549238443375,-0.28951308131217957,-0.532873809337616,-0.4448046088218689,-0.19124071300029755,0.3989463448524475,0.3155493140220642,-0.4557132422924042,0.2320139855146408,0.13810935616493225,-0.8016491532325745,-0.21203991770744324,-0.23385417461395264,-0.29296430945396423,-0.4820043742656708,-0.359955370426178,-0.3451348543167114,-0.525704562664032,-0.37000149488449097,0.1903250515460968,-0.5111168026924133,-0.5925853848457336,0.014649150893092155,-0.5548954010009766,-0.6697114109992981,0.9733651876449585,-0.5924103260040283,-0.2730271816253662,0.21662738919258118,-0.23861056566238403,-0.0901617780327797,-0.2533309757709503,0.18476909399032593,0.10027420520782471,0.7206899523735046,0.18066240847110748,-0.024556610733270645,0.8493654727935791,-0.15570129454135895,-0.12753014266490936,0.07796551287174225,0.566768229007721,0.17367784678936005,-0.2008175253868103,-0.6806902885437012,-0.20621049404144287,0.3320125937461853,-0.09744399785995483,-0.013903388753533363,0.8218852281570435,-0.6011908054351807,-0.5137293338775635,0.7510855793952942,-0.549890398979187,-0.2909424304962158,0.9229134917259216,0.17483839392662048,0.13469895720481873,0.9408652186393738,-0.3341943621635437,-0.30965328216552734,1.5785486698150635,-0.2886236906051636,-0.23276285827159882,1.5143120288848877,-0.3827957510948181,-0.12308468669652939,1.0353463888168335,0.1477522999048233,0.3850419223308563,0.5560912489891052,-0.7079137563705444,-0.4806416928768158,-0.038432538509368896,-0.16073434054851532,0.03116818703711033,0.05898771435022354,0.3526947498321533,0.3809144198894501,0.06145809590816498,-0.10859157145023346,0.055551473051309586,0.28435900807380676,0.013528496026992798,0.27759289741516113,-0.4821154475212097,0.8231537342071533,0.12848234176635742,-0.09672196954488754,-0.15181560814380646,0.217981219291687,0.12187189608812332,-0.10889417678117752,-0.11756394803524017,0.5083245635032654,-0.32145819067955017,0.2331002801656723],[-0.15201517939567566,-0.1308872252702713,0.24899116158485413,0.201016366481781,0.2432105392217636,0.022198034450411797,-0.064061239361763,0.7229404449462891,0.4149751663208008,-0.3804023861885071,0.40949246287345886,0.41071441769599915,-0.42688125371932983,0.29877185821533203,0.26247817277908325,0.13301587104797363,0.5024701356887817,0.23884189128875732,0.1552361100912094,0.11139313131570816,0.43014442920684814,0.7213314175605774,0.1624431610107422,0.5548976063728333,0.8789618611335754,0.3066459000110626,0.2906511723995209,0.5809288620948792,-0.22139503061771393,-0.045428887009620667,0.6790618896484375,0.35294288396835327,0.24936817586421967,-0.19503295421600342,0.28395572304725647,-0.06719247996807098,-0.06435146182775497,-0.3199448883533478,0.050780151039361954,-0.3769136965274811,-0.1552945077419281,0.14612211287021637,0.04265248402953148,-0.22942282259464264,0.038086675107479095,-0.1633305698633194,0.03622531518340111,0.27037709951400757,0.09704933315515518,-0.5524016618728638,-0.12624657154083252,-0.49299412965774536,-0.18177230656147003,-0.20382699370384216,-0.47179239988327026,0.5267639756202698,0.607434093952179,0.07161601632833481,0.16771449148654938,0.42859405279159546,0.4797174632549286,0.03466230258345604,-0.08804214000701904,0.5796177387237549,0.1903798133134842,0.04877262935042381,-0.020968006923794746,0.6640419363975525,0.12614646553993225,0.0077931517735123634,0.16951823234558105,0.15887604653835297,-0.9996906518936157,0.5502511262893677,0.9643164277076721,-0.22245530784130096,0.44682687520980835,0.7377440929412842,-0.8490967154502869,0.1264263093471527,-0.08121640235185623,0.6684449315071106,0.5831191539764404,0.165175661444664,1.1152430772781372,0.7250205278396606,0.5272827744483948,-0.12244924157857895,0.06730268150568008,0.28607964515686035,-0.03504669666290283,-0.0676608458161354,-0.047702252864837646,-0.4337046146392822,-0.23860110342502594,-0.2257290780544281,-0.42315590381622314,0.4858514666557312,0.3952826261520386,-0.045886170119047165,0.04961330443620682,-0.027952319011092186,0.1877078264951706,0.19750365614891052,0.40833383798599243,0.08203281462192535,0.05391661077737808,0.3776501715183258,-0.5440011620521545,-0.23461364209651947,0.01081386860460043,-0.6593627333641052,0.43196845054626465,0.5065748691558838,-0.9378399848937988,0.19200001657009125,0.12788349390029907,0.0332588292658329,0.13774363696575165,0.04630707576870918,-0.08844675868749619,-0.17725257575511932,0.17716209590435028,-0.32459190487861633,0.8947386741638184,0.6076810956001282,-0.19060367345809937,-0.23389263451099396,0.13536736369132996,-0.3664574921131134,0.047175683081150055,-0.002891155192628503,-0.41490039229393005,0.46391111612319946,0.4793833792209625,-0.19248642027378082,0.25422027707099915,0.00008721265476197004,-0.41638416051864624,0.03755107522010803,0.19557681679725647,-0.48243623971939087,-0.04848833009600639,-0.02289547771215439,-0.16128887236118317,0.11105102300643921,0.22169972956180573,-0.25221341848373413,0.5467308759689331,0.04966644570231438],[0.960891604423523,-0.1764954775571823,-0.057520534843206406,0.3603265881538391,0.1442442685365677,0.68770432472229,1.122212529182434,-0.35389912128448486,0.2519504427909851,2.211427927017212,-0.8747566342353821,-0.11428292095661163,2.2429893016815186,-0.0031971223652362823,0.2282545566558838,1.1404633522033691,-0.7203350067138672,-0.6275432705879211,0.9348454475402832,1.2073874473571777,0.43788233399391174,-1.1757948398590088,-0.373140811920166,-0.5634797215461731,-1.329824447631836,0.004151493776589632,0.3918723464012146,-0.892020583152771,0.28391578793525696,0.10108167678117752,-1.2185709476470947,0.10810308903455734,-0.06057915464043617,0.9169209599494934,0.34660425782203674,0.5821253657341003,1.1877778768539429,0.026750225573778152,0.3213898837566376,0.8767067790031433,-0.3637852966785431,-0.398486852645874,1.6877694129943848,0.6789442896842957,0.3114003837108612,1.997342586517334,-0.21015803515911102,-0.08532670885324478,0.6868205666542053,0.3946189880371094,0.6779288649559021,0.6294701099395752,0.21684931218624115,-0.1634615659713745,0.5980062484741211,-0.037987999618053436,-0.16414771974086761,0.35256585478782654,-0.13627825677394867,-0.33449748158454895,0.21897129714488983,-0.28117504715919495,0.12941133975982666,-0.6197287440299988,-0.3155653178691864,-0.5189114809036255,-0.5017651319503784,-0.6944059729576111,-0.6657339930534363,-0.3427186906337738,-0.12567652761936188,0.011487837880849838,1.6080098152160645,-0.66224604845047,-1.048444151878357,-0.2244606465101242,-1.0172780752182007,-1.058428168296814,1.668134331703186,-0.4686938226222992,-0.6065929532051086,-1.5227878093719482,-0.9396983981132507,-0.38967907428741455,-1.9437450170516968,0.4060269296169281,0.36802390217781067,-1.8506461381912231,-0.11480659246444702,-0.2944261431694031,-2.425217390060425,-0.31306320428848267,-0.3039852976799011,-2.1145198345184326,0.8876049518585205,0.5717577934265137,-3.1731719970703125,-0.2088513821363449,-0.032101958990097046,-2.94269061088562,0.5925388932228088,0.07579139620065689,-1.2417302131652832,-0.5046261548995972,-0.3317362070083618,-1.5701597929000854,-0.6120746731758118,-0.7913975119590759,-0.6548397541046143,-0.449478417634964,-0.2833845317363739,-1.3193371295928955,-1.083484411239624,-0.7713456153869629,1.720590591430664,-0.19396641850471497,0.2237759232521057,0.4074714481830597,-0.41747552156448364,0.04338010400533676,0.6752952933311462,0.47309938073158264,-0.08633653819561005,0.4150508642196655,-1.0984396934509277,-0.49753955006599426,0.35702160000801086,0.37640270590782166,0.5425294637680054,0.5667989253997803,-0.2657659947872162,-0.047894179821014404,0.3889327347278595,-0.6010026931762695,-0.49014416337013245,0.4959363341331482,0.1674724668264389,0.5387823581695557,-0.11622267961502075,1.0904520750045776,0.35454240441322327,-0.0020723454654216766,0.5047449469566345,0.1618669480085373,0.360050767660141,0.676394522190094,-0.10281588137149811,0.3541067838668823,-0.5285956859588623,-0.05778919905424118],[0.15468178689479828,0.16143882274627686,0.08975376188755035,0.1849001795053482,-0.3043372333049774,-0.2232050895690918,0.13271960616111755,-0.20096220076084137,-0.1886373609304428,-0.1123552992939949,-0.11244389414787292,0.07830015569925308,0.22344742715358734,-0.21072715520858765,-0.041570354253053665,-0.21597056090831757,-0.21556584537029266,-0.28474751114845276,-0.13324524462223053,0.21716099977493286,-0.14151650667190552,0.12845630943775177,0.10133423656225204,-0.18391110002994537,-0.24623829126358032,-0.2328408807516098,-0.00018357251246925443,-0.22275309264659882,0.09160659462213516,0.14063256978988647,-0.3777027130126953,-0.027798669412732124,-0.3103773593902588,0.08260024338960648,-0.20703250169754028,-0.005550224334001541,0.045310113579034805,-0.24522502720355988,0.1026248186826706,-0.09174777567386627,-0.1828894317150116,-0.2859498858451843,0.3522801697254181,-0.004968318156898022,-0.09349190443754196,-0.1248336136341095,0.24877899885177612,-0.04233924672007561,0.21968181431293488,-0.020440153777599335,0.17259997129440308,0.19002623856067657,-0.07382466644048691,0.03335512802004814,0.15587250888347626,-0.1805492639541626,-0.23210389912128448,0.04825964197516441,-0.17541781067848206,-0.22299714386463165,-0.28401991724967957,-0.06104565039277077,0.15918894112110138,0.050051603466272354,0.026677772402763367,-0.18679937720298767,-0.021200785413384438,-0.2523891031742096,-0.22670531272888184,-0.1855197250843048,-0.1216064840555191,-0.16709092259407043,0.5012263059616089,-0.020896797999739647,-0.3229999840259552,0.3111170828342438,-0.29430246353149414,-0.331145316362381,0.49985313415527344,-0.0490403026342392,-0.22621729969978333,-0.20844776928424835,-0.1641973853111267,-0.1614893078804016,-0.08988897502422333,-0.16590306162834167,-0.07152034342288971,-0.0790342316031456,-0.24219664931297302,-0.07171409577131271,0.13040634989738464,-0.20943516492843628,-0.03483699634671211,-0.29210397601127625,0.25899332761764526,0.14756670594215393,0.22382235527038574,-0.1264462023973465,-0.014589495025575161,0.14988821744918823,-0.2300858050584793,0.0681723952293396,0.13079693913459778,-0.11120495200157166,-0.22842217981815338,0.030031302943825722,0.0023475701455026865,-0.24099159240722656,0.21161039173603058,0.10771284997463226,-0.04254425689578056,0.3133492171764374,-0.03357892483472824,0.04132218286395073,0.1368815302848816,0.03674381226301193,-0.10392453521490097,0.020910901948809624,-0.042376838624477386,-0.26138415932655334,0.06856565177440643,0.42255324125289917,0.3365597426891327,0.12102237343788147,-0.18037660419940948,-0.1996624618768692,-0.05316852405667305,-0.23115301132202148,-0.25491178035736084,0.25458866357803345,-0.0019725433085113764,-0.0065044076181948185,0.08340825140476227,-0.3336902856826782,-0.3639790117740631,-0.036947038024663925,-0.46784016489982605,-0.06680381298065186,0.14005252718925476,0.2439616322517395,-0.07102110981941223,0.07425489276647568,-0.07517991214990616,-0.2856823205947876,-0.10887082666158676,-0.05260396748781204,0.09060090035200119,0.03867150470614433,0.18302202224731445,-0.15953031182289124],[0.4076918661594391,-0.6402877569198608,-0.05410921946167946,0.7168235778808594,0.8471015691757202,0.43488234281539917,0.40676361322402954,1.7529847621917725,0.27204132080078125,-0.09405184537172318,-0.6173454523086548,-0.8788355588912964,0.590928852558136,0.37305694818496704,-0.21631371974945068,-0.1604686975479126,-0.9577282071113586,-1.4392138719558716,0.6776220798492432,1.1112422943115234,0.7275323271751404,0.7709091901779175,-0.21562761068344116,0.6171610355377197,1.3791762590408325,-0.28087368607521057,-0.25798705220222473,0.37298449873924255,-0.4923475682735443,-0.27190646529197693,1.0092140436172485,-0.5628154873847961,-0.17788885533809662,-0.7386916875839233,0.7127388119697571,-0.13739114999771118,0.7433528900146484,-0.4928154945373535,0.308237224817276,0.1659322828054428,-0.46377673745155334,-0.06668946892023087,-1.0523393154144287,-0.006175708025693893,0.40642765164375305,-1.642966628074646,-0.6645159125328064,-0.6118109822273254,-0.8612433075904846,0.0764964148402214,0.4722396731376648,-1.8964778184890747,-1.3980803489685059,-0.4988167881965637,-1.1201931238174438,0.005253387615084648,0.24300864338874817,0.04974007233977318,0.05971271172165871,-0.5288543701171875,1.0020653009414673,-0.6451560258865356,-0.31846821308135986,-0.16669262945652008,-0.727580726146698,-0.5155525803565979,0.3622404634952545,-0.5215885639190674,-0.6532920598983765,0.19885686039924622,0.31711310148239136,-0.3846544921398163,0.5203640460968018,1.6988539695739746,1.2989846467971802,0.6334731578826904,0.7448649406433105,0.9927753806114197,-2.5192832946777344,-0.591860830783844,-0.6656685471534729,-1.1277040243148804,1.0706106424331665,0.08332105726003647,2.0630006790161133,1.9350435733795166,0.9367627501487732,-0.6946936249732971,0.10601115971803665,0.033823516219854355,-1.6361111402511597,-0.4945991337299347,-0.39566829800605774,-1.9348180294036865,0.2835562527179718,-0.10319241881370544,-2.2521791458129883,-0.10105030983686447,-0.40767067670822144,-0.6428199410438538,-0.3817223012447357,-0.31310147047042847,-1.4930896759033203,-0.9456498026847839,-0.48901262879371643,-0.6263794302940369,0.452985942363739,0.645601749420166,-2.6704792976379395,-1.3177249431610107,-0.11924776434898376,-3.196589231491089,0.17228887975215912,-0.13676901161670685,-0.3169880509376526,-0.4446214735507965,-0.3157787322998047,0.6999536156654358,-0.25218912959098816,-0.3953634202480316,0.36002790927886963,-0.5231614708900452,-0.3565543591976166,0.04057147353887558,0.4335387349128723,0.2535735070705414,-0.028838494792580605,-0.4429933726787567,-0.12760987877845764,-0.31654229760169983,-0.9897048473358154,-0.8620898723602295,-0.4968104958534241,-0.33664804697036743,-0.3419928252696991,0.180464506149292,0.8136028051376343,-0.3572297990322113,-0.5624632239341736,-0.4867534637451172,-0.08104591071605682,-0.4515823721885681,-0.1963135302066803,-0.1595039665699005,-0.14798294007778168,0.402365505695343,0.13901175558567047,0.016887541860342026,-0.2652282118797302,-0.14781689643859863],[0.32613125443458557,-0.021176593378186226,-0.39064767956733704,-0.22685489058494568,-0.6179381608963013,-0.822010338306427,0.09996611624956131,-1.1761252880096436,-0.6778781414031982,0.3532414734363556,-0.0717780664563179,-0.5274990200996399,0.16384918987751007,-0.8112000823020935,-0.5935801863670349,-0.34733250737190247,-0.23375193774700165,-0.5109657049179077,-0.8262004852294922,-0.20738206803798676,-0.5733126997947693,-1.1497364044189453,-0.30339786410331726,-0.49097827076911926,-1.1040401458740234,-0.5159539580345154,-0.49656838178634644,-0.6458075642585754,-0.15357260406017303,-0.2570457458496094,-0.9362276196479797,-0.3196871876716614,-0.6317331194877625,0.15723784267902374,-0.37499722838401794,-0.29715490341186523,-0.03747812658548355,-0.3323100209236145,-0.5558768510818481,-0.17733120918273926,-0.19157317280769348,-0.37393033504486084,-0.0874209776520729,-0.30103641748428345,-0.6961009502410889,0.07794158160686493,-0.5081886053085327,-0.49034202098846436,-0.009968209080398083,0.21985416114330292,-0.013100010342895985,0.3606683611869812,0.5694511532783508,-0.04866260290145874,0.22784772515296936,-0.7833381295204163,-1.0051683187484741,0.10478191077709198,-0.27623867988586426,-0.47770509123802185,-0.5925465226173401,-0.4064383804798126,-0.45849621295928955,-0.7330875992774963,-0.2239963263273239,-0.7729180455207825,-0.6414942145347595,-0.45830368995666504,-0.08487116545438766,-0.399894654750824,-0.1631469428539276,0.05403175577521324,0.400938481092453,-0.7786043882369995,-0.9685883522033691,0.1912124752998352,-0.712234616279602,-1.0066781044006348,1.5553796291351318,-0.5894296765327454,-0.7035432457923889,0.25051775574684143,-1.0417605638504028,-0.544100821018219,-0.4418736696243286,-0.9283852577209473,-0.8017363548278809,0.30845367908477783,-0.5026678442955017,-0.6462978720664978,0.1401919573545456,-0.39237645268440247,-0.788515031337738,0.18602623045444489,-0.20297324657440186,-0.462413489818573,0.2286045104265213,-0.7349318265914917,-0.9222854971885681,-0.18737731873989105,-0.343616783618927,-0.5981705188751221,0.6988548040390015,-0.44656607508659363,-0.542510449886322,0.4039117097854614,-1.0500596761703491,-1.0018305778503418,0.8010407090187073,0.38275226950645447,-0.5761052966117859,0.89153653383255,-0.9453091025352478,-0.8667309284210205,0.3411523401737213,-0.408023476600647,-0.8056208491325378,0.3950984477996826,-0.15988293290138245,-0.28956347703933716,0.4180917739868164,0.07064738124608994,-0.12140649557113647,0.27395161986351013,-0.890042245388031,-0.8271594047546387,0.26942262053489685,0.03193143010139465,-0.5578028559684753,0.09134428948163986,0.2567477822303772,-0.1075153723359108,0.33958807587623596,-0.568020224571228,-0.37754982709884644,0.32761985063552856,-0.17995105683803558,-0.20085087418556213,0.22682003676891327,0.08943996578454971,-0.4617481827735901,0.4003130793571472,-0.5581781268119812,-0.4850940704345703,0.3238232433795929,-0.5967979431152344,-0.45207786560058594,0.35199233889579773,-0.17312505841255188,-0.3939802646636963],[-0.09600012749433517,0.009340351447463036,-0.059168510138988495,-0.9323107004165649,0.6543437838554382,0.3108888566493988,-0.7954656481742859,-0.05752282217144966,-0.01070442795753479,-0.19051793217658997,-0.3026483952999115,0.12704221904277802,0.1910686194896698,-0.3209611773490906,-0.2688651978969574,-0.5696119666099548,-1.2598600387573242,-1.1274421215057373,-0.7571938633918762,0.7112419605255127,-0.02243737131357193,-0.5943971276283264,-0.31769686937332153,-0.0310620479285717,-0.8836277723312378,-0.15900319814682007,0.17977069318294525,-0.6384689807891846,0.03626273572444916,-0.22712837159633636,-0.01309820543974638,-0.011745162308216095,-0.5481939315795898,0.7523006200790405,0.5967952609062195,0.3939686119556427,-0.3352316617965698,0.08464377373456955,0.07374252378940582,-0.31912460923194885,0.8611771464347839,0.23224283754825592,-0.42010068893432617,0.6808478832244873,-0.004133210051804781,-0.3169081211090088,0.4110850393772125,-0.3818973898887634,-0.3461131155490875,0.11135421693325043,0.2659588158130646,-0.13376836478710175,0.3703167736530304,-0.14352653920650482,-0.16333650052547455,-0.4865773320198059,-0.40569213032722473,0.2703918218612671,0.4452669322490692,-0.23413977026939392,0.15323911607265472,0.012957227416336536,-0.11721856147050858,-0.3456498980522156,0.3177768588066101,0.06842298060655594,-0.09547536820173264,-0.44873741269111633,-0.34092140197753906,-0.33576515316963196,-0.05504709109663963,-0.036459822207689285,-0.1733669936656952,-0.7785406112670898,-0.6853287816047668,-1.3589040040969849,-1.0278228521347046,-0.9052272439002991,-0.7248149514198303,0.07054242491722107,-0.4206158220767975,-1.7850830554962158,-1.018446922302246,-0.8621256947517395,-0.5338277220726013,0.40831321477890015,0.4862920045852661,-1.5622364282608032,0.20531785488128662,0.11019577085971832,-2.064258575439453,0.27226969599723816,0.1973358541727066,0.29031041264533997,0.4378564655780792,-0.1723923683166504,-1.5897475481033325,0.46644169092178345,-0.06007526069879532,-1.457677960395813,0.2101612389087677,0.10861892253160477,-0.5370599031448364,-0.30339497327804565,-0.35219502449035645,0.19520998001098633,-0.3907977044582367,-0.659479022026062,0.1622597724199295,-0.7883533239364624,-0.6984285116195679,-0.5496412515640259,0.23887795209884644,-0.18654227256774902,1.587683916091919,-0.9897543787956238,-0.43378353118896484,0.2672404944896698,-0.3500046133995056,-0.15213057398796082,0.20209085941314697,0.4538455307483673,-0.26234206557273865,0.20781256258487701,0.12246785312891006,-0.3220871686935425,0.7030506134033203,0.16960513591766357,0.10425610840320587,0.7933064699172974,0.06217166408896446,0.10054352879524231,0.6108263731002808,0.028189167380332947,-0.15657302737236023,0.710803747177124,0.5332434773445129,0.18790215253829956,0.5236048698425293,-0.10902222245931625,-0.5773929953575134,0.8053804039955139,-0.3441905677318573,-0.13155780732631683,0.930777370929718,0.22069351375102997,-0.4524177610874176,0.5727516412734985,-0.4084002375602722,-0.4446106553077698],[-0.29101672768592834,0.10706181824207306,0.038861777633428574,-0.14164409041404724,0.06703165173530579,0.29497233033180237,-0.13173078000545502,0.6736056208610535,0.5329657793045044,-0.5711548328399658,0.22768881916999817,0.08035589754581451,-0.4608616232872009,0.7009187936782837,0.4366905689239502,-0.32687804102897644,0.6929226517677307,0.3199850916862488,-0.13974206149578094,0.47613590955734253,0.625744104385376,-0.10713586211204529,0.3987174928188324,0.3634096086025238,0.3032436668872833,0.5553132891654968,0.45048990845680237,-0.11972695589065552,0.011233448050916195,-0.1356610655784607,0.13855071365833282,-0.20845015347003937,0.02893798239529133,0.3317079544067383,0.6753506660461426,0.03471679240465164,0.37847447395324707,0.19624775648117065,0.2362293154001236,0.31038352847099304,-0.2627730965614319,0.12705878913402557,-0.17044907808303833,-0.12945517897605896,-0.0815579742193222,0.020440291613340378,0.20591962337493896,0.17304082214832306,0.2397419959306717,-0.41441571712493896,-0.08352629095315933,-0.4760991036891937,-0.05313282459974289,0.09715539216995239,-0.13194365799427032,0.391824871301651,0.38657864928245544,0.2193397432565689,-0.051853157579898834,-0.24151253700256348,0.2666696310043335,0.3734440803527832,0.32287853956222534,0.35210010409355164,0.1559106558561325,0.21183167397975922,0.5087029337882996,0.19190852344036102,0.3187881410121918,0.21816903352737427,0.14690493047237396,0.09258810430765152,0.0017601042054593563,1.0070785284042358,0.8437914848327637,0.22193951904773712,1.0861012935638428,0.906455397605896,-1.0297690629959106,0.45422446727752686,0.019838470965623856,0.7395408153533936,0.6511040925979614,0.5375768542289734,0.28606411814689636,0.6961368322372437,0.5626392364501953,-0.18402309715747833,-0.5558673739433289,-0.16041244566440582,-0.42315855622291565,0.48932749032974243,0.4355754256248474,-0.9886711835861206,-0.5772531032562256,-0.3055843114852905,-0.5270596146583557,-0.1997680366039276,0.07187696546316147,-0.9218868017196655,0.17128664255142212,0.14279498159885406,-0.8510398268699646,-0.08338093757629395,0.37947753071784973,-0.4168231785297394,0.7276175022125244,0.7134301662445068,-1.4058911800384521,0.2574878931045532,-0.1326504498720169,-1.0727791786193848,0.21616555750370026,0.056260667741298676,-1.3034775257110596,0.1392861306667328,-0.28684958815574646,-0.21755211055278778,0.0029111704789102077,0.27063751220703125,-0.45569711923599243,-0.3909621834754944,-0.2312820702791214,-0.5686794519424438,0.44450312852859497,0.36801910400390625,-0.45604050159454346,0.1921711564064026,0.053834252059459686,-0.5294132828712463,-0.19700895249843597,-0.18877610564231873,-0.24306434392929077,0.4386662542819977,0.13541406393051147,-0.4900662302970886,0.42094171047210693,-0.050366487354040146,-0.0871260017156601,-0.06455236673355103,-0.014438793994486332,-0.25723397731781006,0.1476432979106903,0.012413615360856056,-0.21537178754806519,0.16861087083816528,0.09120664745569229,-0.2590705454349518,0.22844198346138,0.0608137771487236],[-1.1284128427505493,0.15296326577663422,-0.02995195798575878,-1.1683950424194336,0.07629542052745819,0.19606785476207733,-0.9712750315666199,0.2998204231262207,-0.15789178013801575,-1.3479228019714355,-0.033977895975112915,-0.3074318766593933,-1.4506412744522095,-0.2786449193954468,-0.044944778084754944,-0.7572346329689026,0.23302148282527924,0.21249009668827057,-0.063764289021492,0.08268435299396515,0.3398294746875763,0.7170051336288452,0.3701843023300171,0.32762831449508667,0.6482095122337341,-0.24137651920318604,-0.3238086700439453,0.3687758147716522,0.16313320398330688,-0.0923183485865593,-0.3239952325820923,-0.5190704464912415,-0.2067800760269165,-0.4381800591945648,0.7305880188941956,0.06371569633483887,-0.7361909747123718,-0.09832964837551117,-0.19757384061813354,-0.68086838722229,-0.4422110617160797,-0.35935837030410767,-0.9638186693191528,-0.8087080121040344,-0.5482012033462524,-1.313123106956482,-0.46108201146125793,-0.25486984848976135,-0.5549062490463257,-0.16158820688724518,-0.27207306027412415,-0.3643771708011627,-0.1622437685728073,-0.2928207218647003,-1.0761995315551758,-0.026431944221258163,0.2055271714925766,-1.492487907409668,0.3794138729572296,0.17150741815567017,-1.0970488786697388,0.36051926016807556,-0.22939753532409668,-0.6370270848274231,-0.12879647314548492,-0.24375563859939575,-0.18758346140384674,0.2964192032814026,0.0770178809762001,-0.4740326702594757,0.065289705991745,-0.008939175866544247,-1.475151777267456,0.18602165579795837,0.41470640897750854,0.3939615786075592,0.29444727301597595,0.2732005715370178,-1.387160062789917,-0.13981659710407257,-0.14157162606716156,1.7447874546051025,-0.21184802055358887,-0.3921111524105072,1.4657143354415894,0.5655450224876404,-0.005265424028038979,1.201318621635437,-0.31727853417396545,-0.1550436168909073,1.3481826782226562,0.1382371187210083,-0.3041941821575165,1.4084093570709229,-0.5181048512458801,-0.1903044581413269,1.0061649084091187,-0.1379765421152115,-0.094483882188797,0.7093503475189209,0.025890784338116646,0.054686859250068665,0.9877760410308838,-0.3427710235118866,0.209527388215065,0.3822561800479889,0.4843198359012604,0.1631157100200653,0.41777145862579346,0.4191257059574127,-0.17244680225849152,-0.4342125952243805,0.165702685713768,0.388683021068573,0.5629628300666809,-0.1409013867378235,-0.26344069838523865,0.5446235537528992,-0.22304950654506683,-0.1683935672044754,-0.23311643302440643,-0.07492992281913757,-0.09803859889507294,-0.024104397743940353,0.7170172929763794,0.21997326612472534,0.0070196520537137985,0.006940155290067196,-0.21723242104053497,-0.05969202518463135,-0.2362973392009735,0.02150609716773033,-0.02924717403948307,0.34988394379615784,0.16718441247940063,0.00859452411532402,-0.12082136422395706,-0.29088887572288513,0.12374982237815857,-0.7247359752655029,-0.19833965599536896,-0.16519616544246674,0.3367990553379059,0.3254515826702118,-0.10106104612350464,-0.1490521878004074,-0.12931375205516815,0.22364339232444763,-0.32195383310317993,-0.3549375832080841],[-0.12776830792427063,0.01664174720644951,-0.3930228650569916,-0.10834755748510361,-0.5717079639434814,-0.4402918517589569,0.046282652765512466,-0.5897296071052551,-0.439161092042923,0.11964735388755798,-0.034613367170095444,-0.08452974259853363,-0.05474676191806793,-0.11699013411998749,0.07166006416082382,-0.4507363438606262,-0.1622750461101532,-0.27094653248786926,-0.4243137836456299,-0.38187333941459656,-0.15828652679920197,-0.18370960652828217,0.11384238302707672,-0.42207857966423035,-0.49356791377067566,-0.3485431373119354,-0.06515293568372726,-0.3626483380794525,0.22429096698760986,0.022726593539118767,-0.2004511058330536,-0.5967209935188293,-0.3279275894165039,0.05739136040210724,-0.4051400423049927,-0.008481833152472973,0.060475267469882965,0.25769755244255066,-0.021667029708623886,-0.31038349866867065,0.014707561582326889,0.1517602950334549,0.05298579856753349,0.27724945545196533,-0.1795744150876999,-0.016190137714147568,-0.02443602681159973,0.0023975290823727846,-0.10330009460449219,0.1790846735239029,0.23539552092552185,0.31626883149147034,0.4096045196056366,0.36546555161476135,0.26567235589027405,-0.08984404802322388,-0.2526251971721649,0.1922377496957779,0.021540554240345955,-0.16710536181926727,0.048461105674505234,-0.09993641078472137,-0.062016863375902176,-0.0614454559981823,-0.1548565924167633,0.07342888414859772,-0.04581461101770401,-0.5615106225013733,-0.3279377222061157,-0.08865123987197876,0.07536233216524124,0.11516134440898895,0.386451780796051,-0.20319721102714539,-0.4937002956867218,-0.25082316994667053,-0.1366175413131714,-0.46445176005363464,1.0795687437057495,-0.520420491695404,-0.22801020741462708,-0.14228884875774384,0.012060005217790604,-0.058922283351421356,-0.7401936650276184,-0.6338218450546265,-0.31747764348983765,-0.12296546995639801,-0.41203171014785767,-0.37832286953926086,0.20099057257175446,0.21084736287593842,0.01821574568748474,-0.6393046975135803,0.24328264594078064,0.12221240997314453,-0.17486472427845,-0.2493971437215805,-0.1605001837015152,-0.6315701603889465,-0.014377591200172901,-0.07578079402446747,-0.066490538418293,0.2009429633617401,-0.25736862421035767,-0.27897346019744873,-0.05313511937856674,-0.16362912952899933,0.48348763585090637,-0.20291374623775482,-0.11986713856458664,0.5485610961914062,-0.28001224994659424,-0.027301261201500893,0.45500847697257996,-0.06639401614665985,-0.07598385959863663,-0.008215784095227718,-0.15458440780639648,-0.16576644778251648,0.032923076301813126,0.39295530319213867,0.2731705904006958,-0.05277882143855095,-0.46717455983161926,-0.16742655634880066,0.15010231733322144,0.10490656644105911,0.07272017747163773,0.3196925222873688,0.022188622504472733,0.17571444809436798,0.3117718994617462,-0.24755413830280304,-0.4473782479763031,0.13988274335861206,-0.3733370006084442,0.09249982982873917,0.22334817051887512,0.3927246928215027,0.1945982128381729,0.2503966689109802,-0.19219237565994263,-0.039671577513217926,0.1521480232477188,-0.11376973986625671,-0.22310121357440948,0.2373124659061432,-0.3675171136856079,-0.24826329946517944],[0.0018840031698346138,-0.9476894736289978,-0.680918276309967,-0.4083443880081177,-0.5376414656639099,-0.4902538061141968,-0.45180419087409973,0.5796712040901184,0.6862338781356812,0.43264248967170715,-0.1383504569530487,-0.0030602491460740566,0.22555053234100342,-0.13976174592971802,-0.2881627380847931,-0.16719628870487213,-1.2954827547073364,-0.8159839510917664,0.35893577337265015,0.48413437604904175,0.18764832615852356,0.13766145706176758,-0.2913312017917633,0.053639162331819534,0.07758857309818268,-0.4438815712928772,-0.3386632204055786,-0.05720401555299759,-0.32531487941741943,-0.12931343913078308,-0.011555911973118782,-1.049852728843689,-0.5668726563453674,0.6871892809867859,0.010456405580043793,0.14784042537212372,0.20594091713428497,0.20979854464530945,0.5040584206581116,-0.1500803530216217,0.3700721561908722,0.2766721844673157,0.18849827349185944,0.12307991832494736,0.37866199016571045,0.2532162666320801,-0.44468432664871216,-0.5714726448059082,0.17742648720741272,-0.007629002444446087,0.2746639847755432,-0.3342154622077942,-0.2645309865474701,-0.40157413482666016,-0.6152237057685852,-0.47527262568473816,-0.4164102077484131,-0.5497573018074036,-0.27445605397224426,-0.5339148640632629,-0.33913370966911316,-0.17417490482330322,-0.3223489224910736,-0.3645075261592865,-0.9655498266220093,-0.9522354602813721,-0.6340632438659668,-0.5903717875480652,-0.6512153148651123,-0.5045565366744995,-0.568115770816803,-0.707635223865509,-0.4144900143146515,0.3428023159503937,0.10636743903160095,-1.139528512954712,-0.379170686006546,-0.06552412360906601,-0.2435934841632843,-0.5163724422454834,-0.24606040120124817,-1.9630669355392456,-0.49706655740737915,-0.1499706208705902,-0.67533940076828,0.2471124231815338,0.0649229884147644,-1.3359098434448242,-0.10571128129959106,-0.031352411955595016,-1.578481912612915,-0.11337704956531525,-0.22917404770851135,-0.5610093474388123,0.0018380702240392566,-0.22996072471141815,-1.3295884132385254,0.1369032859802246,0.18176698684692383,-0.1143648698925972,-0.3363499641418457,-0.3746483027935028,-1.6242319345474243,-0.6970691680908203,-0.32098761200904846,0.3907323479652405,-0.11012371629476547,-0.044901639223098755,-0.6957153677940369,-0.9485541582107544,-0.46499162912368774,0.030747300013899803,-0.3235607147216797,-0.5128525495529175,0.615245521068573,-0.610438346862793,-0.308173805475235,0.49825340509414673,-0.32316097617149353,-0.20832118391990662,0.6164093017578125,0.9167267680168152,0.6092963814735413,0.6884743571281433,-0.4797549843788147,-0.19176973402500153,0.7381515502929688,0.15527543425559998,-0.013674498535692692,0.38129499554634094,-0.1572341024875641,-0.17678257822990417,0.21858006715774536,0.23308150470256805,0.07651399821043015,0.03901282697916031,-0.28019580245018005,-0.05295972898602486,0.38404354453086853,-0.36116930842399597,-0.281970351934433,0.4751981794834137,-0.47540727257728577,-0.33091339468955994,0.2798096537590027,0.6497902870178223,0.1870356947183609,0.5166910290718079,-0.6868249177932739,-0.2500934898853302],[-0.20135629177093506,0.5569267272949219,0.4442611336708069,0.4354706108570099,1.3431973457336426,0.6635106205940247,0.021490702405571938,0.9915401339530945,0.29568660259246826,-0.49970343708992004,0.2360885590314865,0.29472944140434265,-0.41302037239074707,0.368149995803833,0.3724519610404968,0.06724869459867477,0.20867516100406647,0.4630013704299927,0.4176901578903198,0.3685486316680908,0.6128913760185242,0.8236223459243774,0.46252307295799255,0.5720711946487427,1.561748743057251,1.136600375175476,0.46555328369140625,1.3901971578598022,-0.4130673408508301,-0.08223817497491837,1.1897681951522827,0.08959292620420456,0.3208901584148407,-0.026978055015206337,1.0143181085586548,0.41265740990638733,-0.35642895102500916,-0.44293391704559326,-0.379318505525589,-0.11832151561975479,0.13966239988803864,0.06340663135051727,-0.25744032859802246,-0.3563280701637268,-0.24257196485996246,-0.33582040667533875,-0.29219064116477966,0.10132216662168503,-0.2588637173175812,-0.3495038151741028,-0.18906614184379578,-0.9077357053756714,-0.7183395028114319,-0.026191389188170433,-0.5138278007507324,0.6917903423309326,0.5713636875152588,0.19441846013069153,0.9905363917350769,0.3582811951637268,0.771772563457489,-0.3547254800796509,-0.3395199775695801,0.7828958630561829,0.4513576626777649,-0.29842299222946167,0.34719812870025635,0.8212441802024841,0.6011637449264526,0.16709525883197784,-0.05723238363862038,0.3138364851474762,-1.1203500032424927,0.3337198793888092,0.28673893213272095,-0.6863489151000977,0.8558440804481506,0.7921176552772522,-2.6679582595825195,0.4706738591194153,0.06276275962591171,1.0072799921035767,1.0523810386657715,0.47690072655677795,0.6735198497772217,0.6239499449729919,0.17690356075763702,-0.13462023437023163,0.45496922731399536,0.5020381808280945,-0.16320239007472992,-0.552861750125885,-0.5697599053382874,0.885378360748291,-0.38347864151000977,-0.04677601531147957,1.1732209920883179,0.9397891759872437,0.2823622524738312,0.7902652621269226,0.03538963198661804,0.05460089072585106,0.9861225485801697,0.0413995161652565,0.04110156372189522,0.5628073215484619,0.7462788224220276,0.6130212545394897,0.31145957112312317,-0.48130422830581665,-0.24264097213745117,-0.4816095530986786,0.7519705891609192,0.5365802049636841,-0.2687373161315918,0.22389258444309235,0.04109572619199753,-0.015435485169291496,0.6222290396690369,0.152138814330101,-0.45532292127609253,-1.2134543657302856,-0.928164541721344,-0.31745395064353943,1.8406031131744385,1.082358956336975,-0.45404723286628723,-0.08270356804132462,-0.11905713379383087,-0.487504243850708,-0.08087616413831711,-0.22575615346431732,-0.5618605017662048,0.1094374731183052,0.07891886681318283,-0.49986061453819275,0.19942869246006012,-0.15180714428424835,-0.2856300473213196,0.005713732913136482,0.34598013758659363,-0.3466283082962036,0.4500981271266937,0.6381512880325317,-0.6137527227401733,0.0631532147526741,0.407620370388031,-0.6153135299682617,0.4088124930858612,-0.012636050581932068],[0.21788878738880157,0.09204382449388504,0.20651547610759735,0.09389805048704147,0.6342878341674805,0.4516431987285614,0.08510728180408478,0.19482919573783875,0.2282792031764984,0.6017399430274963,0.012399105355143547,0.009698987938463688,0.3585512340068817,-0.3231257498264313,-0.36810705065727234,0.5056454539299011,-0.47732555866241455,-0.38366571068763733,-0.45966964960098267,0.1025867909193039,-0.04140015318989754,-0.6672256588935852,-0.5663233995437622,-0.6316354274749756,-0.5388816595077515,-0.2589186429977417,-0.12367577105760574,-0.4451225697994232,-0.08838594704866409,-0.17990265786647797,-0.4852443039417267,0.1930662989616394,0.2391481250524521,-0.010640311054885387,0.14812064170837402,-0.15499287843704224,-0.26308995485305786,-0.13749748468399048,-0.46209651231765747,-0.39209869503974915,0.3188253343105316,0.41009780764579773,-0.06253905594348907,0.2151038944721222,0.09960303455591202,0.12980735301971436,0.07400950789451599,0.00833986047655344,-0.02103857323527336,0.033274419605731964,-0.014423934742808342,-0.18035940825939178,0.17520081996917725,-0.16948986053466797,-0.11933942884206772,-0.42034149169921875,-0.20087669789791107,-0.1062278300523758,0.21198292076587677,0.05265279859304428,-0.4901457130908966,-0.02451292984187603,-0.003095050109550357,-0.31202244758605957,0.3753952383995056,-0.009968376718461514,-0.052664969116449356,-0.4440513849258423,-0.24861305952072144,0.16823089122772217,0.05865000933408737,0.0684400424361229,0.125404492020607,-0.5887502431869507,-0.7155162692070007,-0.2554236054420471,-0.6523991227149963,-0.7068582773208618,0.3647089898586273,-0.28760093450546265,-0.04757949337363243,0.15508832037448883,-0.8907129764556885,-0.3328132927417755,-0.12768924236297607,-0.06491207331418991,-0.3466057777404785,0.0007940370705910027,0.6960987448692322,0.16257309913635254,-0.2176637202501297,-0.3397465944290161,-0.29812175035476685,0.8003951907157898,0.15636490285396576,-0.097962386906147,-0.09994752705097198,-0.21115678548812866,-0.30573469400405884,-0.11243516951799393,0.08581794053316116,-0.021143367514014244,-0.3303111791610718,0.12741795182228088,-0.09155246615409851,-0.09450912475585938,-0.41432178020477295,-0.009001515805721283,1.1283427476882935,-0.04209708794951439,0.16014933586120605,0.9999454021453857,-0.3262537717819214,-0.40736597776412964,1.2669810056686401,0.1125013530254364,-0.004512153100222349,-0.19905979931354523,-0.4281797409057617,0.015000369399785995,0.13929623365402222,-0.052081797271966934,-0.22798927128314972,0.26080578565597534,0.07546533644199371,-0.2854984700679779,0.3465307652950287,-0.30499064922332764,-0.48568248748779297,0.40398672223091125,0.04311014339327812,-0.09568733721971512,0.40267643332481384,-0.5935624241828918,-0.3524535000324249,0.3817206919193268,0.17779545485973358,0.35471075773239136,0.11965794861316681,-0.23565883934497833,-0.39501699805259705,0.15999634563922882,0.030453508719801903,-0.10680021345615387,0.43468549847602844,-0.1342087686061859,-0.6032387018203735,0.31528088450431824,-0.1693791002035141,-0.08319678902626038],[0.04074842110276222,0.08500471711158752,-0.15038207173347473,-0.32450219988822937,-0.5935134291648865,-0.31113821268081665,-0.06901121139526367,-0.6705549955368042,-0.10383525490760803,0.19758526980876923,-0.23863594233989716,-0.2740836441516876,0.21864578127861023,-0.3438587784767151,0.07933838665485382,-0.24068310856819153,-0.5127134919166565,-0.44448667764663696,-0.34860584139823914,-0.06470900028944016,-0.34865325689315796,-0.42440545558929443,-0.07688435912132263,-0.163011372089386,-0.4938122034072876,-0.6010048985481262,-0.42871466279029846,-0.7370048761367798,0.06807684898376465,-0.14988331496715546,-0.723397433757782,-0.2094365507364273,-0.27533474564552307,0.05544902756810188,-0.3051145076751709,-0.04445958510041237,0.014307691715657711,0.3655591309070587,0.2406623363494873,-0.25986984372138977,0.10836327821016312,-0.14012406766414642,0.18800443410873413,-0.012443666346371174,-0.11682593077421188,0.09997119754552841,0.07397055625915527,-0.1851525753736496,-0.28412967920303345,0.24107562005519867,0.1788439303636551,0.37043124437332153,0.18271659314632416,0.2225540280342102,0.534318208694458,-0.17982062697410583,-0.33577749133110046,-0.42307987809181213,-0.22131399810314178,0.08735419809818268,-0.41480445861816406,-0.13304105401039124,0.05184148624539375,-0.381780207157135,-0.21925193071365356,-0.09991904348134995,0.047448400408029556,-0.5362873673439026,-0.24776403605937958,-0.07461584359407425,0.20587755739688873,0.05361110717058182,0.6965661644935608,-0.4854199290275574,-0.5034071803092957,0.052571941167116165,-0.5827416777610779,-0.6333991289138794,1.4625333547592163,-0.6839648485183716,-0.05045929551124573,-0.0487116314470768,-0.33600786328315735,-0.047045957297086716,-0.7635323405265808,-0.5433194637298584,-0.08234880864620209,0.20345839858055115,-0.21503384411334991,-0.24532541632652283,0.23204797506332397,0.19695360958576202,0.12053093314170837,0.010791500099003315,0.3068189024925232,-0.04375484585762024,0.07927902042865753,-0.4406137466430664,-0.41365930438041687,-0.4704861640930176,0.13173681497573853,0.14166098833084106,-0.653408408164978,0.13600344955921173,-0.1661580502986908,-0.5891472697257996,-0.5506858825683594,-0.3316422402858734,0.4377017021179199,0.15365318953990936,0.30783936381340027,0.16229884326457977,-0.32607829570770264,-0.18360278010368347,0.8089436888694763,-0.15232791006565094,-0.051407452672719955,-0.3563005030155182,-0.2760150730609894,0.04000942409038544,-0.0004852736892644316,0.6447301506996155,0.42489200830459595,0.31866255402565,-1.0805094242095947,-0.4210159182548523,0.2809862792491913,0.14073538780212402,0.09180543571710587,0.47012606263160706,0.1435360461473465,0.2017081379890442,0.30262669920921326,-0.42553597688674927,-0.49989959597587585,0.2527278959751129,-0.48373186588287354,0.09190015494823456,0.3510018587112427,0.17624714970588684,0.06390225142240524,0.10938451439142227,-0.1798529326915741,-0.06786592304706573,0.3250603973865509,0.02492259256541729,-0.2301267832517624,0.15404076874256134,-0.10456379503011703,0.039011020213365555],[0.42898496985435486,0.20639634132385254,-0.2648508846759796,0.4758473038673401,0.6536315083503723,0.21870020031929016,-0.024324936792254448,1.9010618925094604,1.2120531797409058,-0.4689909815788269,-0.510047197341919,-0.06316646933555603,0.4219701886177063,-0.8198485970497131,-0.49568668007850647,-0.0031227192375808954,-1.2037614583969116,-0.7707180380821228,-1.332560658454895,0.6515904664993286,0.25045904517173767,-1.1044106483459473,0.7406668663024902,0.7321174740791321,-0.5032185316085815,-0.44606921076774597,0.02849273942410946,0.41809889674186707,0.188185453414917,0.6648102402687073,0.7090256214141846,-0.6529345512390137,-0.3828295171260834,1.3786542415618896,0.7482057809829712,0.051297787576913834,1.2643345594406128,1.1962971687316895,1.2900264263153076,0.6878238320350647,0.4586648643016815,-0.07177796214818954,0.18568025529384613,1.1957159042358398,0.9741469621658325,0.24861876666545868,-0.775722086429596,-0.37355804443359375,0.579735517501831,0.6240204572677612,0.8339207172393799,0.6370249390602112,0.5299688577651978,-0.1052369698882103,-0.5349644422531128,-0.520198404788971,0.34435054659843445,1.0112050771713257,0.8314885497093201,0.07909655570983887,-0.09698173403739929,0.36163437366485596,-0.11854030936956406,-0.4265855848789215,1.369913101196289,0.7273791432380676,0.12783624231815338,-1.5376564264297485,-0.30550312995910645,0.006559659726917744,-0.5888556838035583,-0.17245420813560486,1.9397835731506348,0.6822895407676697,0.2567838132381439,0.16065388917922974,-0.09645447880029678,0.16371598839759827,-0.09594443440437317,0.25470083951950073,0.3015022873878479,-0.42255809903144836,-0.3294549882411957,0.2512827515602112,1.4087804555892944,2.1008946895599365,1.0348398685455322,-0.7768310904502869,1.140812873840332,0.41015326976776123,-0.8018440008163452,-0.31983065605163574,0.40510818362236023,1.5577082633972168,0.46793317794799805,-0.2054038792848587,-0.5453282594680786,0.04176376014947891,0.21713143587112427,-0.22377237677574158,-0.1303739696741104,-0.18490560352802277,-1.1128615140914917,1.0724767446517944,0.7426978349685669,0.2737487256526947,-0.6937958598136902,-0.6177849173545837,-0.3389378786087036,0.13276833295822144,0.30974870920181274,-1.0625945329666138,0.5461345314979553,0.2992541491985321,0.35387223958969116,-0.20074698328971863,0.5188195109367371,0.47381162643432617,-0.4581727683544159,-0.15431329607963562,0.6880579590797424,-0.3331577777862549,0.12976615130901337,0.1431211531162262,-0.5679579377174377,-0.5462662577629089,0.7065338492393494,0.8215305209159851,0.5777082443237305,0.23317202925682068,0.6275655627250671,0.6915457844734192,-0.3331119418144226,-0.06448714435100555,-0.09670571982860565,-0.01801116205751896,0.043572038412094116,0.4178118109703064,-0.5398241877555847,0.973218560218811,0.029470736160874367,-0.3485831022262573,-0.020067842677235603,-0.1615072637796402,-0.1105370745062828,0.6261546015739441,0.4345613121986389,-0.1181437149643898,0.7601511478424072,1.0243728160858154],[-0.33916616439819336,0.4662526249885559,0.36607110500335693,0.24229997396469116,-1.0412245988845825,-0.40730923414230347,0.19499433040618896,-1.970773458480835,-0.8253040313720703,0.012114664539694786,0.20276334881782532,0.3081565201282501,-0.5759677290916443,-0.43273651599884033,-0.28037676215171814,-0.18825916945934296,0.965652346611023,0.7040265798568726,-0.057073723524808884,-0.6003813743591309,-0.02452528290450573,-0.5760623216629028,-0.3111376166343689,-0.32951080799102783,-0.1426497846841812,-0.4524826407432556,-0.2109917551279068,-0.40537238121032715,0.27301204204559326,-0.1455875039100647,-0.26392146944999695,0.5458236932754517,0.22942033410072327,-0.5326700210571289,-1.5225942134857178,-0.20118887722492218,-0.7717195153236389,-0.04686568304896355,-0.4653909504413605,-0.31112077832221985,-0.5959931015968323,-0.287819504737854,0.04744419828057289,-0.3517555296421051,-0.9173117876052856,0.0680072084069252,1.6108179092407227,0.776031494140625,0.1785653531551361,-0.700772225856781,-0.9416310787200928,0.8186404705047607,-0.465069979429245,-0.030455978587269783,0.6918748021125793,0.11893263459205627,-0.21432919800281525,0.06162166967988014,-0.8698877096176147,0.15125812590122223,-0.45676830410957336,-0.2688966989517212,-0.14539779722690582,-0.36156994104385376,-0.030411500483751297,-0.2598022520542145,-0.7101809978485107,-0.21577586233615875,-0.5418720245361328,0.07199417799711227,0.013510964810848236,0.027175553143024445,-0.7559565901756287,-2.2492547035217285,-1.5186094045639038,-0.024719569832086563,-1.0170612335205078,-1.222840666770935,1.6259206533432007,0.07142788171768188,-0.05095508322119713,0.7815121412277222,-0.8800172805786133,-0.6910264492034912,-1.0730018615722656,-2.0794692039489746,-0.8530074954032898,0.5657235980033875,-0.4424617886543274,-0.5307396054267883,0.9201257824897766,0.2190546691417694,-0.07992377877235413,0.7512495517730713,-0.017071612179279327,0.3198014795780182,1.7460479736328125,-0.16284139454364777,-0.0015508661745116115,0.9808700084686279,-0.2501325309276581,0.0697949007153511,2.0770092010498047,0.022259065881371498,-0.033674366772174835,-0.2483745664358139,-0.4559811055660248,-0.47379082441329956,1.4989032745361328,0.09546612948179245,-0.24661782383918762,2.608553171157837,0.08062305301427841,0.2555464804172516,-0.6997121572494507,-0.29310575127601624,-0.05965365096926689,-1.446841835975647,-0.27774468064308167,-0.16958020627498627,0.1285988688468933,0.02829597517848015,0.11007208377122879,-0.2646271288394928,-0.21684570610523224,-0.21893073618412018,-0.8680199980735779,-0.8063594698905945,-0.5689108967781067,-0.09994697570800781,0.17040278017520905,0.42266353964805603,0.6526486277580261,0.274554967880249,0.11612620204687119,0.2664438486099243,-0.6515330672264099,0.15452313423156738,0.49779173731803894,-0.2553309500217438,-0.062076814472675323,0.7419530749320984,0.3104463815689087,0.36181190609931946,0.268870085477829,-0.32600319385528564,-0.5100641250610352,0.4265185594558716,-0.41049185395240784,-0.393545001745224],[0.18819192051887512,-0.17075031995773315,0.10939661413431168,0.013401786796748638,0.2226824164390564,0.04225446656346321,0.18781167268753052,0.08616062998771667,-0.01633673533797264,0.19210600852966309,-0.08000607788562775,0.04662473872303963,0.16897933185100555,-0.01969027891755104,-0.29943978786468506,-0.25258222222328186,-0.1698097139596939,-0.18275663256645203,-0.24021343886852264,-0.21020439267158508,-0.14665691554546356,0.022201357409358025,-0.0640333816409111,-0.30859673023223877,0.0658133327960968,0.1045956164598465,0.07205410301685333,0.06771157681941986,0.040826667100191116,0.07331833243370056,-0.19742418825626373,0.06569011509418488,-0.4332633912563324,0.1547442078590393,0.22385098040103912,-0.18290671706199646,-0.10317482054233551,0.08634544909000397,-0.2180778831243515,-0.18068377673625946,0.40247035026550293,0.024768711999058723,-0.4892023503780365,0.2503010928630829,-0.036246754229068756,-0.37859147787094116,0.03131384402513504,-0.23556560277938843,-0.22056178748607635,-0.23574131727218628,0.06403286755084991,-0.4370565116405487,-0.1191682368516922,-0.0025295966770499945,-0.48946675658226013,-0.10910148173570633,-0.03030971996486187,-0.05206190422177315,-0.1398009955883026,-0.02250373736023903,-0.1443810611963272,-0.04753334820270538,-0.020397787913680077,-0.33164656162261963,-0.24229313433170319,-0.03943241760134697,-0.2564660906791687,-0.05346282199025154,0.14606164395809174,-0.13817331194877625,-0.1975589096546173,-0.32991692423820496,-0.030457066372036934,-0.2186610996723175,-0.29878389835357666,-0.23317202925682068,-0.5340217351913452,-0.29578763246536255,0.2848139703273773,0.11543353646993637,-0.06890200078487396,0.09527826309204102,-0.24047236144542694,-0.38611453771591187,-0.14376528561115265,-0.27378860116004944,-0.2952636480331421,-0.1978493332862854,0.06213308125734329,-0.23353631794452667,-0.4010087549686432,-0.028328843414783478,0.09815070033073425,0.4681154787540436,0.0668901577591896,0.05695666745305061,0.8194941878318787,0.24326391518115997,-0.10366491228342056,0.16559962928295135,-0.22945281863212585,-0.30219143629074097,-0.03379368409514427,0.24683153629302979,-0.15880650281906128,0.5327068567276001,-0.3884345293045044,-0.26778876781463623,0.406745046377182,-0.03816455975174904,-0.011047125793993473,0.8722957372665405,-0.11907634884119034,-0.378935843706131,1.0743420124053955,0.11312917619943619,0.0429464690387249,0.05417349562048912,-0.28680863976478577,-0.09559029340744019,0.33479252457618713,0.027489595115184784,-0.16318020224571228,-0.11840125173330307,0.1129622831940651,-0.13172754645347595,0.3117876648902893,0.262529194355011,-0.1505921632051468,0.2690870761871338,-0.081326425075531,-0.11370591819286346,0.24390371143817902,-0.037077441811561584,-0.21334390342235565,-0.5032387375831604,0.09405354410409927,-0.004542343784123659,0.2821511924266815,-0.1997271031141281,-0.26822444796562195,0.13165801763534546,0.02447536401450634,-0.0714205950498581,0.12124008685350418,0.032123662531375885,-0.19004979729652405,0.27011987566947937,-0.037864770740270615,-0.16161398589611053],[-0.0028271947521716356,-0.03780721500515938,0.2791929543018341,-0.3595907688140869,-0.5384261012077332,-0.23936693370342255,0.5285003781318665,-1.0914386510849,-0.5756698250770569,0.6318581700325012,0.25034573674201965,0.14929001033306122,0.9205878376960754,-0.5157373547554016,-0.3371383845806122,0.6260085701942444,0.2749157249927521,0.004829553421586752,0.48871228098869324,-0.5954601764678955,-1.0120091438293457,-0.39300596714019775,-0.5275647640228271,-0.871575117111206,-0.530825138092041,0.03145446628332138,0.06285756081342697,0.21099728345870972,0.18756930530071259,0.23351861536502838,-0.8127909302711487,0.13276386260986328,-0.3289540708065033,-0.5618143081665039,-1.0068022012710571,-0.5841435790061951,-0.36994248628616333,-0.5681498050689697,-0.8946103453636169,-0.1622631549835205,-0.5240586400032043,-0.7108684778213501,-0.4964049160480499,-0.5445589423179626,-0.3008699119091034,-0.27896997332572937,0.06059476360678673,0.12118563055992126,-0.374441921710968,-0.2996523380279541,-0.39578062295913696,0.8920379877090454,0.016550187021493912,-0.3283637762069702,0.44287413358688354,-0.7611399292945862,-1.1005996465682983,-0.08287395536899567,-0.41541722416877747,-0.07675165683031082,-0.7003963589668274,-0.21219423413276672,0.089930459856987,-0.3474770784378052,-0.02305556833744049,-0.24127362668514252,-1.0339704751968384,-0.5804044008255005,-0.5672034621238708,-0.5037586092948914,-0.36964738368988037,-0.06946686655282974,-1.054430603981018,-0.41151875257492065,-0.6430742740631104,-1.6454061269760132,-0.3234858512878418,-0.5224179029464722,1.471057653427124,-0.06461445987224579,0.12841731309890747,-0.9475668668746948,-0.4444287419319153,0.13967634737491608,-1.4718416929244995,-1.8652276992797852,-1.28952956199646,1.1901346445083618,0.01046484149992466,-0.24329422414302826,1.3351532220840454,-0.22066938877105713,-0.11034642159938812,0.5964819192886353,-0.10635680705308914,0.09113413840532303,-0.08410834521055222,-0.10683881491422653,-0.4170683026313782,0.5194923281669617,-0.5243031978607178,-0.6108949184417725,1.6796813011169434,0.3120441138744354,0.05016413331031799,1.1318178176879883,-1.1586947441101074,-1.169958233833313,1.914391040802002,0.7190062403678894,0.4481256306171417,2.723846197128296,-0.9039570093154907,-0.586643397808075,1.2760937213897705,0.10435530543327332,0.1195249930024147,0.8037469983100891,0.4939361810684204,0.399263471364975,0.7401342988014221,0.5205218195915222,0.20864103734493256,-0.34179624915122986,-1.0039417743682861,-0.5611254572868347,-0.5097655057907104,0.4158068001270294,-0.07652433961629868,-0.0513685941696167,0.18496602773666382,-0.19147546589374542,0.10455118119716644,-0.426762193441391,-0.35669538378715515,0.26128411293029785,-0.398905873298645,0.08307869732379913,0.005906281061470509,0.2463977336883545,0.11822734773159027,0.2702324092388153,-0.4195631146430969,-0.32966873049736023,0.3325800895690918,-0.6238878965377808,-0.7524337768554688,0.19718274474143982,0.09498823434114456,-0.2852882742881775],[0.20915018022060394,0.3097487986087799,0.31432807445526123,0.4055712819099426,0.535109281539917,0.09560134261846542,0.2347690761089325,0.7230548858642578,0.22875596582889557,0.03019319847226143,0.4290401339530945,0.1708761304616928,0.0019500209018588066,0.27170541882514954,-0.1750490367412567,-0.03377324342727661,0.32508498430252075,-0.040604367852211,0.026162853464484215,0.024938952177762985,0.13944894075393677,0.39075958728790283,-0.08877573162317276,0.036737725138664246,0.4406907260417938,0.43674078583717346,0.28460296988487244,0.23866435885429382,-0.03347286209464073,-0.11668842285871506,0.3214647173881531,0.439399391412735,0.11236491054296494,0.2491142302751541,0.5078310370445251,-0.13319364190101624,0.25757354497909546,-0.045604001730680466,-0.03075215592980385,0.3326343595981598,0.06654870510101318,0.038153160363435745,0.1904992163181305,-0.33347079157829285,-0.28622758388519287,-0.12360402196645737,0.41897788643836975,-0.06032784655690193,0.09384390711784363,-0.4110771119594574,-0.26256296038627625,-0.10661763697862625,-0.3735385537147522,-0.10588609427213669,-0.3464244306087494,0.3334084451198578,0.32446402311325073,0.04315731301903725,0.11801742762327194,-0.10320080816745758,0.4294740557670593,-0.029206885024905205,-0.27677464485168457,0.37788158655166626,-0.057609107345342636,-0.1030215471982956,0.2622770071029663,0.46373599767684937,0.5303983688354492,0.37994030117988586,0.09695231914520264,0.04538363590836525,-0.5017849206924438,-0.025242086499929428,0.3238081634044647,-0.27963367104530334,0.15259286761283875,0.39940449595451355,-0.9353151321411133,0.3703135550022125,0.0852377861738205,0.29630130529403687,0.19702357053756714,0.04342489689588547,0.259346067905426,0.4065910875797272,0.0632728561758995,-0.28689101338386536,0.024025842547416687,0.058593522757291794,-0.22905626893043518,-0.08313597738742828,-0.035158589482307434,0.4082082509994507,-0.04577308148145676,0.000633208779618144,0.3692251145839691,0.28155556321144104,0.12566553056240082,0.23972909152507782,-0.04802948608994484,-0.07112974673509598,0.2518528401851654,0.17099647223949432,0.31167128682136536,0.31152331829071045,-0.0680374801158905,0.05222320184111595,-0.3770940601825714,0.18445861339569092,-0.1377505213022232,-0.16267192363739014,0.16970181465148926,0.18125729262828827,-0.3753384053707123,0.021935375407338142,-0.12393886595964432,0.263582706451416,0.2170231193304062,0.008921477012336254,-0.24259547889232635,-0.4020848572254181,-0.17176765203475952,-0.16720160841941833,0.6497084498405457,0.37620532512664795,-0.4768540859222412,-0.19749534130096436,0.002469800878316164,-0.35074520111083984,-0.28267911076545715,-0.1813284009695053,-0.22472792863845825,0.46465587615966797,0.1525232046842575,-0.26589351892471313,0.3373512625694275,-0.16119644045829773,-0.25854435563087463,-0.46808168292045593,-0.14722977578639984,-0.2925002872943878,0.3073331415653229,0.26985546946525574,-0.09725093096494675,-0.012478763237595558,0.03833258897066116,-0.38367027044296265,0.12479260563850403,0.1885310709476471],[0.4265839457511902,-0.20423424243927002,-0.5431618094444275,-0.4105507433414459,0.7756450176239014,0.5592994093894958,0.42641913890838623,0.6681578755378723,0.5928479433059692,0.17690202593803406,0.2958104610443115,0.08013759553432465,0.547862708568573,-0.15398848056793213,-0.012915183790028095,0.40862545371055603,-0.37319839000701904,-0.579218864440918,-0.4284709393978119,0.6433250904083252,0.1400437355041504,-0.5122712254524231,-0.06425780057907104,0.13729815185070038,-0.925061821937561,0.4179237484931946,0.8072015047073364,-0.2691110372543335,0.3945310711860657,0.32100096344947815,-0.8205866813659668,-0.39887598156929016,-0.36338287591934204,0.6048566102981567,0.13751675188541412,-0.014977739192545414,0.5717713236808777,0.7734297513961792,0.9610795378684998,0.3474547863006592,0.4481576085090637,0.02478540875017643,-0.06335100531578064,0.6610671877861023,0.6861316561698914,0.7066369652748108,-0.33311107754707336,0.15820051729679108,0.4747658967971802,0.599271833896637,0.8524090647697449,1.233092188835144,0.5396019816398621,0.15826697647571564,0.04621674120426178,0.5075831413269043,0.15003901720046997,1.0719791650772095,1.0339540243148804,0.17957480251789093,-0.337740957736969,0.00006562820635735989,0.1551259309053421,-0.4883621335029602,1.067340612411499,0.5628818869590759,0.02395617961883545,-0.5558605194091797,-0.09733875840902328,-0.19662851095199585,0.7762337327003479,0.6054330468177795,0.42639052867889404,0.6391900181770325,0.21824634075164795,-1.1676923036575317,-0.583142101764679,-0.25806859135627747,0.3538095951080322,-0.704826295375824,-0.4082391858100891,-1.3320229053497314,-0.1239413246512413,0.1931399255990982,0.0711655467748642,1.0458120107650757,0.5440614223480225,0.5549564361572266,0.912700355052948,0.5074109435081482,-0.28330039978027344,0.30993977189064026,0.5552915334701538,0.5571139454841614,0.9034392237663269,-0.06403131783008575,-0.9340699315071106,-0.31308263540267944,-0.11734259128570557,0.28899675607681274,0.37662747502326965,-0.12444506585597992,0.009744692593812943,0.43122726678848267,0.28443193435668945,-0.28126081824302673,-0.3881992995738983,-0.07815045863389969,-0.766330361366272,-0.06429602205753326,0.31816577911376953,-1.4488884210586548,0.3637112081050873,0.25081270933151245,0.5759601593017578,-0.27702605724334717,0.0847647488117218,0.49215811491012573,-0.06561006605625153,0.3076914846897125,-0.1347585916519165,0.005368600599467754,0.29442912340164185,-0.35545220971107483,-0.6153801083564758,-0.44435781240463257,0.2592149078845978,0.28311631083488464,0.3297092020511627,0.2887037694454193,0.3653699457645416,-0.023424185812473297,-0.019549556076526642,0.17873701453208923,-0.2461279183626175,-0.05105643346905708,0.8358956575393677,0.7234275937080383,-0.3730486333370209,0.4656422436237335,-0.11203806102275848,-0.2960239052772522,0.06501282751560211,-0.08273930847644806,0.07410149276256561,0.21042755246162415,-0.3096240758895874,-0.06154388561844826,0.035999152809381485,0.26679080724716187],[-0.2059697061777115,0.1264479011297226,-0.24950702488422394,-0.12934555113315582,-0.5016690492630005,-0.2147071212530136,-0.24030554294586182,-0.30205878615379333,-0.2548706829547882,-0.4859585464000702,0.14798270165920258,-0.3289797902107239,-0.20256300270557404,0.16776928305625916,0.13155275583267212,-0.3990424573421478,0.1886022835969925,0.19660677015781403,0.01079548615962267,-0.24447913467884064,-0.10744793713092804,0.09789785742759705,0.03734892979264259,-0.018592216074466705,-0.2792958915233612,-0.08185754716396332,-0.2647441625595093,-0.2243689000606537,-0.1657453179359436,-0.12441734224557877,-0.19993868470191956,-0.5186816453933716,-0.1538206934928894,-0.19516973197460175,-0.5417518019676208,0.013730311766266823,-0.09781108796596527,-0.12679505348205566,-0.11455396562814713,-0.12411219626665115,-0.6881411075592041,-0.18749620020389557,-0.13998590409755707,-0.49161991477012634,-0.08220537006855011,-0.06437273323535919,-0.18595004081726074,0.06356421858072281,0.10653608292341232,-0.43640151619911194,0.09776710718870163,-0.23011571168899536,0.01768491603434086,-0.166929692029953,0.016143355518579483,0.15588854253292084,-0.20912820100784302,-0.34207236766815186,-0.4889991581439972,-0.2971864342689514,0.09017064422369003,-0.33453312516212463,0.11802981793880463,-0.2516668736934662,-0.3534679114818573,0.0432475320994854,-0.4072912335395813,0.11256148666143417,-0.2433730661869049,-0.27073922753334045,0.26837700605392456,0.14172375202178955,0.10970457643270493,0.26419228315353394,0.54859459400177,0.40910109877586365,0.1303582638502121,-0.02897103689610958,0.04415525868535042,-0.37438344955444336,-0.4321311414241791,0.04966975748538971,0.7077444195747375,0.41206228733062744,-0.08245222270488739,-0.17475587129592896,-0.1214432492852211,0.494665265083313,-0.7398433685302734,-0.1695679873228073,0.7351543307304382,0.06892451643943787,0.15331342816352844,-0.9265087246894836,0.040365803986787796,0.04087413102388382,0.26343539357185364,-0.5374764800071716,-0.14524878561496735,-0.5059784650802612,-0.17756445705890656,-0.01584390178322792,0.38875094056129456,-0.5811693072319031,-0.22210298478603363,-0.2984723448753357,0.2181074619293213,0.3197129964828491,-0.9699445366859436,-0.3353655934333801,-0.3185875415802002,-0.18330825865268707,-0.27906888723373413,0.08142481744289398,-0.6515942811965942,-0.3731563985347748,-0.05576423928141594,0.6105618476867676,-0.09972064942121506,-0.23767343163490295,0.47457557916641235,0.17731815576553345,0.26864564418792725,0.3985600769519806,-0.5765726566314697,-0.13159221410751343,0.2558045983314514,-0.33395203948020935,0.0753760114312172,0.2613558769226074,-0.1656392514705658,-0.22983667254447937,0.32206034660339355,0.16116292774677277,-0.17341555655002594,0.5576385259628296,-0.23229719698429108,-0.3214781582355499,0.28276169300079346,0.28161486983299255,0.08894064277410507,0.2829922139644623,-0.23362618684768677,-0.29935452342033386,0.32555410265922546,-0.3502427339553833,0.21688833832740784,0.06538882106542587,-0.21467283368110657,-0.1483893245458603],[0.16407383978366852,0.20317330956459045,0.4242284893989563,0.29954808950424194,0.2664227783679962,-0.04369714856147766,0.353822261095047,0.2961006164550781,0.06497636437416077,0.05283575505018234,0.45448678731918335,0.3151317238807678,-0.09136779606342316,0.5172313451766968,0.017762023955583572,0.019860293716192245,0.30266907811164856,0.32314586639404297,-0.03702704235911369,0.03038441762328148,0.15535901486873627,0.2794528305530548,0.11346009373664856,0.12993071973323822,0.5077407360076904,0.20806017518043518,0.11698564887046814,0.31140634417533875,0.060374028980731964,0.30399706959724426,0.040782682597637177,0.06087499484419823,0.06256934255361557,-0.4575037360191345,-0.1459459662437439,-0.12091802060604095,-0.14796291291713715,-0.19579240679740906,-0.10054568946361542,0.0734897181391716,-0.31033414602279663,0.029621165245771408,-0.09658250957727432,-0.2837909460067749,-0.10491184145212173,-0.08380655199289322,0.15186426043510437,0.2911186218261719,-0.028974490240216255,0.09318356215953827,0.27166861295700073,-0.07851727306842804,-0.5898322463035583,-0.20344756543636322,0.09327132254838943,0.4877980351448059,0.18497315049171448,-0.11103078722953796,-0.11945396661758423,-0.11540789902210236,0.4322519302368164,-0.002999493619427085,0.10268335044384003,0.5805766582489014,0.2835531234741211,0.15872500836849213,0.30023297667503357,0.5767830610275269,0.334463894367218,-0.025757038965821266,-0.02084718644618988,0.10921714454889297,-0.7269254922866821,0.12303853034973145,0.28792864084243774,0.026169156655669212,0.35830235481262207,0.4663892090320587,-0.9240781664848328,-0.027077972888946533,-0.0877208486199379,-0.11318201571702957,0.5285446643829346,0.3259897828102112,-0.10115574300289154,0.30224254727363586,-0.11829087138175964,-0.2261204868555069,-0.11091170459985733,0.2448357492685318,0.13007822632789612,-0.30785828828811646,-0.35641175508499146,-0.3038625121116638,-0.5676755309104919,0.05661124736070633,-0.007857130840420723,0.034019988030195236,-0.01684131845831871,0.2930184006690979,-0.29593008756637573,0.012534496374428272,0.1113462969660759,-0.02774817682802677,-0.021468427032232285,-0.3044714629650116,0.5518133044242859,0.14476437866687775,-0.10643060505390167,-0.03686406463384628,-0.041089583188295364,0.08164610713720322,-0.03224119544029236,0.29405614733695984,-0.2665727734565735,0.287279337644577,0.05605027452111244,0.006672271993011236,0.1971539556980133,0.16398383677005768,-0.32619068026542664,0.06835147738456726,0.07571419328451157,-0.2559070289134979,0.3665050268173218,0.40238872170448303,-0.10208301991224289,-0.03721539303660393,0.19462276995182037,-0.32012492418289185,-0.2087387889623642,-0.03653186559677124,-0.23133784532546997,0.24597463011741638,0.11624830216169357,0.004354427568614483,0.031019845977425575,-0.02035541832447052,-0.12689708173274994,-0.1434418261051178,0.13570229709148407,-0.019633853808045387,0.035022296011447906,-0.08798403292894363,-0.4388345777988434,-0.14276812970638275,0.04497738555073738,-0.2957307994365692,0.3640138506889343,-0.0712655633687973],[0.02901606075465679,-0.2046436220407486,0.23280921578407288,-0.3416958153247833,0.2425842583179474,0.19714470207691193,-0.5076932907104492,0.1425805240869522,0.16739240288734436,-0.2611144483089447,0.2158845216035843,0.49040883779525757,0.1373641937971115,-0.11399754136800766,0.08097387105226517,0.3191673159599304,0.19078613817691803,0.37431398034095764,-0.07390108704566956,0.009179150685667992,-0.01761658675968647,-0.7422017455101013,-0.2296667844057083,0.17502087354660034,-0.2939947545528412,0.5043373703956604,0.5976734757423401,-0.19278033077716827,0.5976312160491943,0.3338527977466583,-0.08087040483951569,0.5505411624908447,0.4120596945285797,-0.2547054588794708,-0.10950855910778046,-0.06285811215639114,-0.3219258189201355,0.7677707672119141,0.47604942321777344,-0.4843274652957916,0.5645554661750793,0.5718107223510742,-0.2832769751548767,1.0846686363220215,0.7865591049194336,-0.282858669757843,0.13217566907405853,0.2699965834617615,-0.24855534732341766,0.20549526810646057,0.36897510290145874,-0.3888635039329529,0.8078197836875916,0.2568119466304779,-0.30107101798057556,-0.3204334080219269,0.10323253273963928,-0.14684444665908813,0.06244899705052376,0.26807159185409546,-0.4533787965774536,-0.034913547337055206,0.2245878130197525,0.31609249114990234,0.8803021311759949,0.31140220165252686,-0.29141002893447876,-0.40604427456855774,0.056217171251773834,0.708558976650238,-0.06997894495725632,-0.0014197381678968668,-1.2013646364212036,0.2060960829257965,0.05730433017015457,-0.8624277710914612,0.24734486639499664,0.376982182264328,0.36942943930625916,0.5375938415527344,0.6617671251296997,0.008730683475732803,-0.07418931275606155,0.28200313448905945,-0.23780852556228638,0.5167889595031738,0.38355618715286255,-0.2220921665430069,0.8503758311271667,0.5840639472007751,-0.17299766838550568,0.6890016198158264,0.6743066906929016,0.5154963731765747,-0.18457762897014618,-0.1639755517244339,-0.5590651631355286,0.8348165154457092,0.8465279340744019,0.4938185214996338,0.27456778287887573,0.3521941304206848,-0.25785326957702637,0.4043496251106262,0.731432318687439,0.39415857195854187,-0.15316559374332428,0.007895334623754025,0.5725768804550171,0.7588120698928833,0.34860727190971375,1.3495341539382935,0.10996360331773758,-0.016343412920832634,-0.38750025629997253,0.6976023316383362,0.7861316204071045,-0.6658898591995239,0.1483175903558731,0.23839962482452393,-0.05260150134563446,-0.03964418172836304,-0.009653777815401554,-0.4320322871208191,0.3895094394683838,0.34930220246315,-0.4546332061290741,0.3046817481517792,0.25411248207092285,-0.28540241718292236,0.5285680294036865,0.4836881756782532,-0.31418946385383606,0.1766013205051422,0.2605842649936676,-0.5312275290489197,0.48120224475860596,0.173395037651062,-0.44458526372909546,-0.11812055110931396,0.05058494582772255,-0.47783178091049194,0.5299022793769836,0.6690602898597717,-0.4523804783821106,0.25103241205215454,0.16507743299007416,-0.2665187418460846,0.4765092134475708,0.7780777215957642],[-0.5081151723861694,0.3432781994342804,0.888609766960144,-0.9417582154273987,1.4164509773254395,0.7460228204727173,-0.945015549659729,0.7493743300437927,0.7304573059082031,-0.4674488306045532,0.7939021587371826,0.9907450675964355,-0.6724997758865356,0.9790543913841248,0.5722494721412659,-0.41373124718666077,0.1217629611492157,0.7563807368278503,0.28504806756973267,0.5224605202674866,0.8845376968383789,0.22812394797801971,0.3575523793697357,0.42634686827659607,0.4992254972457886,0.497719943523407,0.3790946304798126,0.1467931717634201,-0.13037146627902985,0.24466603994369507,0.2871968448162079,0.21330513060092926,0.9373815059661865,-0.2544749975204468,0.30161091685295105,0.2869773209095001,-0.451183557510376,-0.5804888010025024,-0.3517196774482727,-0.24016135931015015,0.4818200469017029,0.7914342880249023,0.02219790779054165,-0.1605491191148758,0.10193489491939545,-0.289352148771286,0.7692500352859497,0.7497363686561584,0.00824839249253273,-0.19793307781219482,0.013198627158999443,-0.9431522488594055,-0.12191177904605865,0.6429170370101929,-0.9023129343986511,0.4034959375858307,0.9572434425354004,0.02197839692234993,0.19428780674934387,0.2573312520980835,0.7513400316238403,-0.12200987339019775,0.20865392684936523,0.6413567066192627,0.7116917967796326,0.4690399169921875,0.7709723711013794,1.0932649374008179,0.948354959487915,0.3200952112674713,0.37954089045524597,0.7749329805374146,-1.123728632926941,0.4184530973434448,0.4398767948150635,0.3264961242675781,0.5467721223831177,0.43938109278678894,-2.4068338871002197,0.6980937719345093,0.6360814571380615,0.7671059370040894,0.3323601484298706,-0.23871611058712006,0.12808753550052643,0.9652516841888428,0.6270437836647034,-1.0970572233200073,0.039969004690647125,0.36570340394973755,-1.2988938093185425,0.02074456214904785,0.2335999310016632,-0.8882555961608887,0.017781779170036316,0.1469706892967224,-0.2891066372394562,0.7881200909614563,0.5165018439292908,-0.7837267518043518,-0.3799535036087036,0.2296612709760666,-0.1768302470445633,-0.02803078293800354,0.07314112037420273,-0.31250622868537903,0.9268983602523804,0.6788163781166077,0.510810136795044,-0.19203738868236542,-0.031000500544905663,0.5910901427268982,0.3404588997364044,0.8300234079360962,-0.7042568325996399,0.4802427887916565,0.18661430478096008,-1.1390843391418457,-0.07479748874902725,0.18345609307289124,-1.2348597049713135,-0.5384178161621094,-0.3624412417411804,-1.5101723670959473,1.2945468425750732,0.7010075449943542,-1.7742913961410522,0.24150855839252472,-0.012318922206759453,-1.2600016593933105,0.18431353569030762,0.2570182979106903,-0.2586047351360321,-0.08962797373533249,-0.08944621682167053,0.007102931383997202,0.25572410225868225,-0.006548999808728695,0.2754790186882019,-0.13214115798473358,0.31160038709640503,-0.16242533922195435,0.05398564413189888,0.3523450195789337,-0.6045169830322266,0.6800915598869324,0.6628718972206116,-0.6183128952980042,0.16469193994998932,-0.3360445201396942],[0.6244674324989319,-0.24350102245807648,-0.2576768696308136,0.11428400874137878,0.6129313707351685,0.4003027379512787,0.416898638010025,0.4807823896408081,0.13364164531230927,0.6006021499633789,0.2491164356470108,0.1334620714187622,0.8572965264320374,-0.3891732394695282,-0.26506510376930237,-0.20652443170547485,-0.8629650473594666,-0.6857767105102539,-0.07548893988132477,0.05696183443069458,-0.6702083349227905,-0.11606228351593018,-0.10373875498771667,0.13313110172748566,-0.7060099244117737,0.3140408992767334,0.3202538788318634,-0.9461643695831299,-0.4956396818161011,-0.41474300622940063,-1.2065470218658447,0.4609304964542389,0.1600589156150818,-0.09209539741277695,0.3180532157421112,-0.32852208614349365,-0.2075170874595642,0.5187181830406189,0.4547796845436096,-0.34394559264183044,0.5913452506065369,0.13734544813632965,-0.4497857987880707,0.1864808201789856,-0.13402774930000305,-0.16056106984615326,-0.24145831167697906,-0.22162842750549316,-0.13712121546268463,0.2911376655101776,0.16268834471702576,0.4605752229690552,0.1863676905632019,-0.28497350215911865,-0.22341036796569824,-0.029604822397232056,-0.3373570740222931,0.3622506856918335,0.25849175453186035,-0.2691980004310608,-0.14098238945007324,0.12435374408960342,-0.17466382682323456,-0.40696728229522705,0.5944710373878479,0.03411586210131645,-0.00845988281071186,-1.1295069456100464,-0.6798010468482971,-0.4370180368423462,-0.06842505186796188,-0.06710249185562134,-0.1474674642086029,-0.4245563745498657,-0.5938058495521545,-1.209131121635437,-0.6594088077545166,-0.2958492338657379,-0.9682349562644958,-0.7655215263366699,-0.3824733793735504,-1.231089472770691,-0.4692721962928772,-0.10031655430793762,0.07074880599975586,0.5664469003677368,0.36847999691963196,0.20630306005477905,0.39627212285995483,-0.0747954323887825,0.12388265132904053,0.05434741452336311,-0.14343608915805817,0.5837839245796204,0.48717746138572693,-0.2835223972797394,-0.8228967189788818,-0.27258744835853577,-0.5122867822647095,-0.13080890476703644,0.5433027744293213,0.007836504839360714,-0.5200316905975342,0.45384883880615234,-0.06902706623077393,-1.0976150035858154,-0.29275354743003845,-0.2015792727470398,-1.0304272174835205,-0.5649163722991943,-0.5826859474182129,-0.5081886649131775,-0.13247036933898926,-0.5483412742614746,1.2075328826904297,-0.4513886570930481,-0.1652546525001526,0.05433555319905281,-0.25111058354377747,-0.1709374636411667,-0.1838238537311554,-0.14148032665252686,0.05840541794896126,0.4467660188674927,-0.7543950080871582,-0.9999424815177917,1.2073034048080444,0.08124732971191406,-0.15937355160713196,0.9352253079414368,-0.6895650625228882,-0.41318729519844055,0.27253302931785583,-0.16448573768138885,-0.36938124895095825,0.6683130860328674,-0.8187782168388367,-0.43632644414901733,0.2636093497276306,-0.46166372299194336,-0.7517908215522766,0.6627005934715271,-0.10567904263734818,-0.32267871499061584,0.8376154899597168,-0.08360397815704346,-0.5883960127830505,0.4066610634326935,-0.1810494363307953,-0.1238570585846901],[0.26386600732803345,0.18330895900726318,0.09443528205156326,-0.07841978222131729,-0.11789543181657791,-0.1812507063150406,-0.034519534558057785,-0.40017494559288025,0.13861684501171112,0.3346201479434967,0.1607053130865097,0.08331264555454254,0.028193200007081032,0.34146755933761597,0.64200359582901,-0.0104412492364645,0.029150808230042458,0.058549728244543076,-0.08197129517793655,0.08725844323635101,0.233207568526268,-0.20627707242965698,0.4445907175540924,0.11843445152044296,-0.08021830767393112,-0.456557035446167,-0.10494564473628998,0.0881028026342392,0.18257854878902435,0.22352871298789978,-0.15011774003505707,-0.620949387550354,-0.07685373723506927,0.3815593123435974,-0.39982175827026367,0.44852539896965027,-0.08677250891923904,-0.0034377200063318014,0.3772238492965698,0.2619560956954956,0.11534140259027481,0.07677651196718216,0.4452829957008362,0.23851987719535828,0.2735308110713959,-0.054223284125328064,-0.09887296706438065,0.38077035546302795,0.31082165241241455,0.725074827671051,0.3315439820289612,0.48072147369384766,0.6436728239059448,0.6465094685554504,0.5356290340423584,0.27517881989479065,0.019893154501914978,-0.1343717873096466,-0.17574530839920044,0.06483285129070282,-0.14189517498016357,0.14576765894889832,0.5326707363128662,-0.028627553954720497,0.26950743794441223,0.31101635098457336,0.02306942269206047,-0.064326710999012,0.18119242787361145,-0.056550998240709305,0.538223147392273,0.2966741621494293,0.38796761631965637,-0.3929916024208069,-0.3674917221069336,0.8879435658454895,-0.1717904806137085,-0.02327125146985054,1.5483965873718262,-0.5640463829040527,-0.004549692384898663,-0.14484931528568268,0.09153813868761063,0.2759731709957123,-0.4527148902416229,-0.25355443358421326,0.004853330086916685,-0.09040119498968124,0.24097353219985962,0.3005655109882355,0.03095897287130356,0.15502572059631348,0.11286351829767227,-0.5382178425788879,0.19981816411018372,0.3533267080783844,0.6105779409408569,-0.027547072619199753,0.09848812222480774,-0.1132989302277565,-0.11331494152545929,0.2723386883735657,-0.0655902773141861,0.11575587838888168,0.023625701665878296,-0.9872467517852783,0.13987940549850464,0.33987993001937866,0.19873063266277313,0.12071956694126129,0.1472150981426239,0.6736101508140564,-0.04612581804394722,0.4121897220611572,0.4918203055858612,0.07142628729343414,0.29771655797958374,-0.26940932869911194,0.009625946171581745,0.015896892175078392,-0.34915655851364136,0.6672763824462891,0.516674280166626,-0.3772309124469757,-0.4403221011161804,0.14376643300056458,-0.038806524127721786,0.36289235949516296,0.14806920289993286,-0.11473524570465088,0.4824611246585846,0.417695552110672,0.15802617371082306,-0.3595200181007385,-0.09341678023338318,-0.2537247836589813,-0.4415755569934845,0.33971279859542847,-0.15869846940040588,0.604144811630249,0.28961482644081116,-0.06361375004053116,-0.1145956888794899,0.33115553855895996,0.03976306691765785,0.23855654895305634,0.21156032383441925,-0.20956362783908844,0.08347222208976746,-0.07894471287727356],[-0.49119848012924194,-0.2879869341850281,0.012475412338972092,-0.3069789707660675,0.09741392731666565,0.15787436068058014,-0.12335408478975296,0.37652891874313354,0.24291223287582397,-0.5679398775100708,-0.018922125920653343,0.09308840334415436,-0.1911284476518631,-0.3355451822280884,-0.017966974526643753,-0.0469038262963295,-0.5137192010879517,-0.2693291902542114,-0.7261273860931396,0.2624516189098358,0.24670352041721344,-0.7147387266159058,-0.36321011185646057,0.05298606678843498,-0.5077206492424011,-0.18734481930732727,-0.03197575360536575,-0.26921048760414124,-0.4416065216064453,-0.1358664333820343,-0.38432517647743225,